nep3 2 C H 
cutoff 5 5 35 35
n_max 8 8
basis_size 12 12
l_max 4 2 0
ANN 50 0
 -8.1681701e-06
 -1.5141093e-04
  3.6279787e-05
 -3.9955092e-05
  3.5225585e-06
  1.6337106e-05
  3.8403654e-04
 -4.4912533e-05
  7.2615061e-05
 -9.3694634e-06
  6.0252041e-05
  9.0598987e-05
 -1.3945110e-05
  2.0677029e-04
 -1.0383467e-04
 -1.4397573e-04
 -4.8567908e-05
 -2.5989217e-04
 -1.3149439e-04
  1.2567981e-04
  9.3587762e-05
  2.7498301e-05
 -7.8236553e-05
  4.5102315e-05
  5.1741714e-05
 -1.0711861e-05
  1.4285795e-05
 -3.4588898e-05
  1.2498951e-05
  1.0506757e-04
 -1.1722927e-04
 -1.0919754e-04
 -5.3394258e-05
 -5.4737655e-05
 -1.4051597e-05
 -1.5838279e-05
  2.5204748e-05
 -1.5378516e-04
  3.7162135e-05
  1.6086068e-04
 -9.8368539e-05
 -8.1854108e-05
 -1.8748819e-05
  1.4427597e-04
  1.1559383e-05
 -7.3136565e-05
  2.8213817e-05
 -8.7417706e-05
 -4.8420807e-05
  5.5008302e-05
  3.8326919e-04
 -4.8501621e-05
 -1.8699120e-05
 -9.0286456e-05
 -1.9500265e-01
  4.3285778e-01
 -2.5136151e+00
  5.5016011e-01
  1.5829765e+00
  2.0501714e+00
  1.4804894e-04
  2.4595542e+00
  1.8790129e+00
 -9.4107342e-01
 -9.4096768e-01
  6.6030854e-01
 -7.1377343e-01
  1.6633098e+00
 -1.6832809e-01
  1.4455900e-01
 -5.5710312e-02
  6.5685404e-03
 -1.2154984e-01
 -2.0933301e+00
 -9.9274665e-05
  9.9395925e-01
  6.7022526e-01
 -9.1817943e-05
 -5.6704944e-01
 -1.7373315e+00
  6.5449554e-01
  4.0006689e-05
  4.0338328e-01
  1.5477547e-01
 -1.9397945e+00
 -2.2905255e-05
  1.3699197e-02
  1.8113829e-02
 -2.3664120e-01
  1.0290364e-03
  2.4116775e-05
  2.9286079e+00
  3.0714581e-02
 -4.4682956e-01
 -4.4162478e-02
 -2.1436793e-04
 -7.6253295e-02
  2.7220187e-01
  2.6657113e-01
  7.0180406e-04
 -7.8868214e-03
 -2.4497946e-05
  3.5601628e-05
 -3.2764125e-01
 -7.5106240e-05
 -1.2357286e+00
  1.5956310e-05
  8.8049062e-05
 -4.5434955e-01
  5.8731941e-05
 -1.8082879e-01
  7.7272016e-01
  9.4557464e-01
  1.1911756e+00
 -1.9569853e-01
  1.5537080e+00
  3.1780415e+00
 -9.9656761e-05
  2.3863159e-04
 -1.0915760e-04
 -5.4511383e-05
  3.9158618e-01
 -1.9344917e-04
  2.0909953e-04
  4.9972703e-04
  1.8926913e-02
  1.0973101e-04
 -7.0659310e-02
 -2.0002144e-04
  2.8000568e-04
 -7.8755647e-01
 -9.3434384e-05
 -8.3300024e-02
  1.4832659e-01
  1.2535357e-01
  4.8634738e-02
  1.5281105e+00
  8.1209376e-02
 -8.5066515e-01
 -7.8241736e-01
 -2.2898911e-01
 -1.5968677e-01
  4.2956439e-01
 -3.4294865e-01
 -4.1413624e-03
 -9.2275548e-01
 -8.1408399e-01
 -1.2557209e-01
  2.1995160e-04
 -7.9320613e-03
  1.6868249e-01
 -1.2974247e-01
  4.9887493e-01
  3.3226039e-04
  1.4050975e-01
 -6.3439365e-04
  3.3260614e-02
 -1.6655891e-04
 -1.5986599e-04
  7.1650620e-06
 -1.7131484e-05
 -1.3089289e-04
  8.8394767e-01
 -7.6080608e-01
 -1.5013283e+00
  1.8330382e+00
 -1.9136964e+00
 -3.8536233e-01
  5.7401949e-01
 -1.8504955e+00
  2.6768057e+00
  2.6801026e-01
  2.2327302e+00
 -1.9493871e+00
 -9.8292641e-03
  1.5027722e+00
 -1.0855815e+00
  3.5268512e-02
  4.5113569e-01
 -7.6587065e-03
  1.4575963e+00
 -1.5324167e+00
  5.0901235e-03
 -1.9088950e+00
 -4.3475199e-01
  4.8458016e-01
 -1.1931529e+00
  1.8006794e+00
 -9.1347605e-01
 -1.3591392e+00
  6.8898422e-01
  6.0789204e-01
  8.4762096e-01
 -1.9118795e+00
 -5.0789338e-01
 -4.4925530e-02
  3.1853625e-01
  2.0822758e-02
 -2.5487585e+00
 -1.1618319e+00
 -5.8133584e-01
 -6.0697317e-01
 -1.2950983e+00
  1.0017945e+00
 -1.6200310e-01
 -1.4739481e-01
  1.0937848e+00
  2.2693381e-01
 -1.1292257e+00
  2.0048798e-05
 -4.8693848e+00
 -6.1768913e-01
 -1.2120272e-04
  3.9811406e-01
 -1.9234970e-04
 -7.9902649e-01
  1.5994751e-01
  1.5302333e+00
  3.9989853e-01
 -8.8639182e-01
 -2.0677035e-01
 -1.2063514e+00
 -2.0941100e+00
  2.7354506e-03
 -6.7226648e-01
  9.2208742e-05
  8.4218639e-01
  3.5139629e-01
 -3.5684869e-01
 -1.3962126e-01
 -1.3419453e-04
 -5.7801004e-02
 -2.6062024e-01
  1.8997726e-04
  1.4987819e-01
 -1.6330260e-01
  7.7431537e-02
 -1.6488588e+00
 -3.7823799e-01
 -6.4300045e-02
 -1.0137458e-01
  2.9542131e-04
  4.2757905e-01
  1.0041600e-02
  1.2180266e+00
  1.5197896e+00
 -8.7107129e-02
 -6.3341099e-01
  1.8208864e+00
  6.9774203e-02
  4.7605887e-01
  2.3554373e-04
 -9.5909201e-03
 -8.2354330e-02
  1.1291957e-04
  3.1448759e-03
 -7.5017131e-04
 -3.1934745e-04
  7.9303682e-01
 -1.9927424e-01
  2.9444069e-01
  1.4956271e-04
  3.6878049e-01
  2.4915306e-04
  4.3942207e-01
 -1.1118080e-01
 -9.8788048e-05
  1.5830308e-04
  7.6560485e-05
  1.0830236e-01
  1.0430946e-02
  1.1723575e-01
  4.4340953e-01
  3.1885285e-02
  1.2532306e+00
 -4.4780394e-01
 -5.2178234e-02
 -4.4352862e-01
 -7.7688593e-01
  3.0583861e-01
  1.5776376e+00
  1.8985812e-01
 -3.1541747e-01
  1.9565667e-01
  4.7458336e-02
  2.1550101e-01
  3.6683220e-02
  6.0556918e-01
 -9.1083705e-01
 -4.6485099e-01
 -1.5042919e-01
 -2.0038402e+00
  1.3136850e-01
  1.0281697e-01
  7.5606950e-02
 -2.1203451e-01
  2.8998220e-01
 -2.5824478e-01
 -1.7767619e-01
  6.3828182e-01
 -5.2177781e-01
  1.1857508e-01
  4.6494737e-02
 -6.6115625e-02
 -4.7335017e-02
 -7.7615374e-01
 -2.0001225e-01
  3.0230880e-01
 -1.3243574e-01
  2.3283783e-02
 -6.8151754e-01
  2.6296699e-01
 -4.8114839e-01
  2.0350926e-03
  6.9430985e-02
  4.0578935e-04
  1.2966871e+00
  2.7726060e-01
 -1.2081764e+00
  4.6775943e-01
 -1.2487013e-04
 -6.9191188e-01
  4.1838441e-05
  5.6023431e-01
 -6.3683456e-01
 -2.4079219e-02
 -1.4931862e+00
 -3.8546726e-01
 -1.1709033e+00
  4.2882431e-01
 -1.6702262e+00
  1.3801900e+00
 -6.9554746e-01
 -7.2779541e-04
  1.4733928e+00
  6.6942012e-01
  1.8845415e+00
  4.6514702e-01
 -1.7128482e-01
 -1.0359095e-06
 -9.2445016e-01
  1.0419277e+00
  5.4260844e-01
  6.9818133e-01
  2.6354246e-02
  2.2669954e+00
 -1.4535857e+00
  2.0012854e-01
  1.6435076e-01
  2.7849832e+00
  1.0026188e-01
  1.4247659e-01
 -4.2025557e-01
  1.2740201e+00
 -4.7038969e-01
  9.8410636e-01
 -9.1777241e-01
 -5.5645949e-01
  7.3760681e-02
 -2.5650722e-01
 -6.4727604e-01
  1.3844317e+00
  1.3110367e+00
 -8.5069478e-01
 -6.9422638e-01
 -1.0359198e-02
  7.1968627e-01
  1.4963813e+00
 -9.1764241e-01
  1.1207644e-01
 -1.4001704e+00
  9.4400384e-05
  3.4851497e-01
  2.4484666e-02
  3.9232789e-05
  1.0300454e-03
 -3.4548767e-04
 -5.5826962e-01
  1.8629736e+00
  2.0367596e+00
 -2.6361234e+00
 -4.2864355e-01
  2.3026407e+00
  8.2609457e-01
  6.1341214e-01
  2.5215697e+00
 -1.5932466e-01
  1.0662055e+00
 -1.4539877e-01
 -3.0237517e-01
  5.4827696e-01
 -3.5004458e-01
 -1.6790732e+00
  1.4265552e+00
  5.4467261e-01
 -9.1229111e-02
  8.4356731e-01
 -2.8411155e+00
 -1.1414542e-02
  2.6024377e+00
  1.6422575e+00
 -3.9836100e-01
 -1.4701803e+00
 -1.4478312e+00
  5.4116452e-01
 -6.4930449e-05
 -3.1108776e-01
  1.2361620e-01
  2.1095443e+00
 -8.5740173e-01
  4.8123929e-03
  1.0566568e+00
 -2.1974200e-03
 -4.1582653e-01
 -1.2556876e+00
  8.5923260e-01
 -1.5155615e-04
  2.4807420e+00
  2.0559118e+00
 -1.7257732e+00
  5.6316215e-01
  5.2853018e-01
 -1.4601767e-01
 -1.7005956e-04
  1.3720357e+00
 -6.7594230e-02
 -4.7725480e-06
  1.1858226e+00
 -9.7442295e-05
 -4.5768268e-02
  3.2713149e-05
  5.9345007e-01
  2.8570315e-05
 -5.4982567e-04
  5.2808803e-01
 -4.4212811e-02
  8.8721472e-01
 -5.7421100e-01
 -7.3194999e-01
  8.9053988e-01
  6.5104832e-06
 -1.6515778e-04
  6.7622437e-05
  2.2749995e-05
  4.8314664e-04
  7.6122310e-06
 -1.6159786e-01
 -3.0612304e-05
  5.7991710e-05
  2.9470754e-04
 -4.9579883e-04
  4.7789276e-06
  4.1092644e-03
  5.5265904e-05
  3.9890365e-04
  7.7112254e-06
  5.3989075e-05
 -2.3425684e-05
  4.0761460e-02
 -2.4413822e-04
 -2.7028589e-02
  1.0978436e-04
 -3.1985195e+00
  1.7493406e-03
 -1.8134975e-05
  1.8662627e-01
 -2.4026625e-02
  1.4482525e-01
 -3.9021943e-02
  5.5871496e-04
  1.2442945e-01
  2.5711527e-01
  2.5687876e-01
  2.0383480e-04
  1.6700142e-08
  9.3527873e-05
  1.8237041e-04
  1.7484072e-05
  5.5168231e-04
  5.8343889e-05
  5.1898187e-05
  6.3688145e-05
  1.8469697e-04
 -1.1203994e-04
 -1.9121812e-04
 -1.5272787e-04
 -3.0730352e+00
 -1.6739236e+00
 -2.8492655e-03
 -2.0485343e-01
  8.2252622e-01
 -1.3681664e+00
  8.6532229e-01
 -7.6802546e-01
 -1.0583645e+00
 -1.1193951e+00
 -4.3982854e-01
 -8.9304006e-01
  1.3318548e+00
  4.5831627e-04
  1.2028050e+00
 -3.9604647e+00
 -9.4551820e-01
 -7.1001601e-01
  2.4681750e-01
 -2.1570568e+00
 -7.1106881e-01
  3.4099892e-01
  1.1025581e-02
 -3.1887850e-01
 -1.2150016e-01
  4.6168086e-01
  5.1148474e-01
  1.3785163e+00
  4.6204191e-01
 -5.7600385e-01
 -3.1216478e-01
  1.6156526e-01
  2.6716721e-01
 -1.4127843e+00
 -1.7126044e-02
  4.2124137e-01
  1.4287738e+00
  3.6350504e-01
 -1.0394052e-01
  4.5387456e-01
  3.7559757e-01
  7.2217572e-01
 -1.0965326e+00
  7.4275322e-02
  1.5166423e+00
 -6.7347079e-05
  1.3719437e+00
 -9.2733456e-03
 -7.8895169e-01
 -1.1552197e+00
 -1.5413282e-04
 -4.9706805e-01
  1.9192210e-01
 -8.3427507e-01
  1.0386792e-02
  5.6178579e-03
 -6.5655535e-01
  1.6977475e+00
 -3.7052739e-02
 -2.8922060e-01
 -3.7488627e-01
  2.1672392e+00
  2.3176038e-01
 -1.8562759e-01
 -1.7030838e-01
 -4.0412083e-01
  7.3990858e-01
 -5.8247328e-01
 -1.3068421e-01
  2.3167353e-02
  2.2970902e-02
  1.9248052e-01
 -8.7566584e-01
 -2.4745657e+00
 -3.6656782e-02
 -2.0178339e+00
 -2.4934450e-01
  3.7694883e-02
 -1.0123076e-01
  2.8440103e-01
  1.4302254e+00
 -1.2621240e-01
 -2.2923587e-01
 -7.2351974e-01
 -1.7834164e+00
 -3.7389946e-01
 -1.3114694e-01
 -3.3502322e-01
 -4.2232147e-01
 -5.0873590e-01
 -6.6313940e-01
  2.5339571e-01
 -1.3815309e-01
  5.7660274e-02
 -5.2254093e-03
 -6.1833188e-02
 -9.7121947e-02
 -2.9405057e-01
 -1.3043616e-02
  3.9694961e-02
 -2.3954774e-01
 -1.4829229e-01
  1.8416565e-02
 -5.0995230e-05
 -4.7659150e-01
  1.3089983e+00
 -9.1157204e-01
  7.3946995e-01
  6.9687802e-01
  1.6897298e+00
  2.8317440e-01
 -1.7232671e+00
  2.9522524e+00
 -1.6500853e-01
 -3.6435574e-01
 -2.9091940e+00
  1.9503805e-01
  2.7559400e-01
 -1.7445809e-01
 -8.1070632e-01
 -2.7440181e-03
 -1.2174691e-04
 -5.6093194e-02
 -5.4165351e-01
  1.6163524e+00
  4.4830334e-01
 -8.1239033e-01
 -2.5574321e-01
 -3.6311004e-01
  2.2795008e-02
  4.4282852e-03
  2.8459489e-01
  9.3437575e-02
 -2.8569286e-04
 -9.0158427e-01
  7.1518421e-01
 -1.3824891e+00
 -1.7410465e-02
  2.1535587e+00
  1.5461119e+00
  3.6855463e-02
  5.7493764e-01
 -2.0813146e+00
 -1.4265472e-05
 -1.0970548e+00
 -5.9329742e-01
  7.4307263e-01
 -7.5862219e-05
  1.6166694e+00
  8.5953765e-02
  4.3789700e-02
 -2.0782842e-01
 -1.0795612e+00
 -3.5814006e-05
  4.1607000e-05
 -5.7632137e-06
  8.0543524e-04
  7.4732065e-01
 -6.0079724e-04
 -5.0324993e-03
  1.5954190e-04
 -1.3005873e-04
  4.6705387e-05
  2.5910580e-05
  3.9854567e-06
 -5.0489354e-04
 -2.4558874e-04
  1.8343842e-04
  2.4622460e-04
 -1.8689634e-05
 -3.7150187e-04
  1.1724460e-05
  9.6835196e-05
 -1.0420491e-05
 -4.5859138e-05
 -2.1465101e-05
  1.3024690e-04
  2.0005862e-04
 -9.4781877e-05
  1.5732268e-05
  1.2775669e-04
  2.8194139e-05
 -1.3089435e-05
 -1.9723013e-05
  8.3850377e-05
 -2.5248586e-04
  7.2190298e-05
 -1.0272137e-04
  6.6996457e-05
 -8.1957223e-05
 -3.4899850e-04
 -6.1485160e-05
 -2.1183930e-04
 -4.1126168e-05
 -8.1910010e-05
  1.4881480e-05
  9.2235605e-06
  8.3649989e-05
  3.1038278e-05
 -5.1718020e-05
 -1.1522983e-04
  1.8361025e-04
 -1.7601473e-05
 -1.2836013e-04
 -2.9263148e-05
  1.1453522e-05
  9.5905940e-05
  1.5234802e-04
 -1.6873100e-04
  6.8719950e-05
  1.8802757e-05
 -8.2747993e-06
 -8.6139808e-05
 -1.3510618e-04
  4.9617425e-05
  6.2691329e-06
  1.6981972e-04
 -1.2958144e-04
  6.5387030e-05
 -4.2876486e-02
 -2.4017179e-05
 -4.4941884e-05
 -4.4232587e-05
  1.5311246e-04
 -3.4276465e-05
  5.6270128e-05
  3.8110760e-05
 -7.5503696e-05
 -1.2839670e-04
  1.1954889e-04
 -4.1718500e-05
 -1.4252354e-04
 -5.8025369e-05
  7.0385104e-05
  6.6918592e-06
 -3.3317491e-02
 -1.8226776e-05
  2.4867867e-04
 -5.2050664e-04
 -1.9676911e-04
 -1.3917653e-04
  4.3449305e-05
  1.3512009e-04
 -2.5935235e-04
  2.9164417e-05
  2.6786618e-04
  1.1913139e-01
 -1.1376265e-04
 -1.5773604e-04
  4.4731529e-05
  4.4891855e-04
  7.5112400e-04
  1.7260064e-04
 -1.3124147e-04
  2.7134463e-05
 -1.6607764e-01
 -1.1791572e-04
 -1.1945958e-04
 -6.8990892e-07
 -6.6098590e-05
  1.6878593e-06
 -1.7197803e-05
  3.3755845e-04
  4.3716151e-05
  7.2597431e-05
  1.5022939e-04
 -1.2121827e-06
  1.4856786e-05
  3.4183744e-05
  3.6275269e-05
 -1.1831500e-01
 -6.2165517e-01
 -2.8009429e-03
  5.4854178e-01
  2.7789829e+00
  2.3228334e-01
  1.6864331e+00
 -1.4560922e+00
  1.9722310e+00
 -1.0175569e+00
 -7.3439205e-01
  2.6165915e-01
 -8.2541466e-01
  2.0992281e-01
  1.2067642e+00
 -5.6005192e-01
 -2.7892916e-05
 -5.7470683e-02
  1.3620187e+00
 -2.3940647e+00
  2.8877225e-02
  6.5667540e-01
  3.0971679e-01
  1.8603806e+00
 -8.5050964e-01
  6.1492699e-01
 -3.3241484e-01
 -9.7276038e-01
  1.8572470e+00
  2.2098407e-01
  9.1138208e-01
 -1.8104061e-01
  2.8501825e+00
  1.5908444e+00
  3.3061257e-01
 -1.5348117e-01
 -3.3517870e-01
  2.0781050e+00
  3.9723912e-01
  9.0899223e-01
  2.9279795e+00
  1.2852732e+00
  1.1899124e-01
 -9.7045833e-01
 -5.5891705e-01
 -9.3913819e-05
  8.8432834e-02
  1.6481371e-01
 -1.1164274e+00
 -5.3871453e-02
  6.5999127e-05
 -5.4930443e-01
  1.5110646e-04
 -8.1794173e-01
 -1.7282334e-03
 -1.9691142e-03
 -9.2642868e-01
  1.8697891e-01
 -3.6880191e-02
  4.0959617e-01
  5.5390675e-02
 -1.0618203e-01
  3.1880222e-04
 -1.0677150e-02
  6.0904168e-02
 -2.3557786e-05
  1.1900301e-04
 -2.4548677e-01
 -1.1615114e-04
 -1.2797928e-01
  2.4904576e-01
 -6.4039998e-02
 -4.8638582e-02
 -6.2036947e-03
 -1.2537406e-05
  5.9335725e-05
  3.1569254e-01
  9.0154202e-04
  4.9746171e-01
 -1.3929562e-03
 -1.6259137e-04
 -2.0055244e-02
 -3.7593937e-01
 -1.0718873e+00
  5.3435844e-01
 -3.9940227e-05
  8.0490768e-02
 -1.7845011e-01
  4.0597469e-01
 -7.7621703e-04
 -8.9459987e-03
 -8.1195489e-02
 -2.7857492e-05
  3.3900297e-01
 -2.0253437e-03
  8.5532561e-02
 -2.1074859e-03
  1.5373435e-02
 -1.0029582e-02
 -6.4834248e-06
 -5.5674481e-01
  2.8102688e-04
 -8.8162356e-05
 -1.2036361e-04
  1.9889005e-05
 -1.7764176e-04
 -1.0911207e-04
  2.6810225e-04
  5.5825520e-01
  1.5519791e+00
 -8.9732790e-01
 -8.1367439e-01
  2.5177081e+00
 -7.8952555e-03
 -9.0764053e-03
 -1.5515491e+00
 -2.1117966e+00
  3.2785162e-01
  7.9445973e-02
 -1.5789719e-01
  2.1823957e+00
 -7.1775573e-01
 -3.6844793e-01
 -1.0156217e-01
  6.9283193e-01
 -6.5201622e-01
  5.4232977e-02
  1.1997574e-01
 -8.0308360e-01
  2.5404446e-02
  6.2479120e-01
  5.1948166e-01
  8.5311198e-01
  1.1316619e-03
 -3.2898119e-01
  5.1184982e-01
  1.2018335e+00
 -1.8153627e-01
  1.0022010e+00
  1.2338719e-01
 -3.7182799e-01
  1.2227072e+00
 -1.0687521e+00
  2.6934898e-01
  5.6899386e-04
  1.8233315e+00
 -1.9197605e-04
  6.2208408e-01
  3.4190246e-01
  5.6691855e-01
 -5.3332061e-01
 -5.4891378e-01
 -2.2239529e-02
  5.1713047e-05
  1.4922291e-01
  8.5728016e-04
  5.7507493e-02
  1.8390074e-02
 -1.0571000e-04
 -2.1235287e-04
  1.7255361e-06
  2.7163299e-02
 -2.9616770e-01
  2.1949689e+00
  1.0243572e+00
  2.8813653e+00
  9.1906935e-01
  7.7724415e-01
 -3.1156995e+00
  2.8097675e+00
  1.5088027e+00
  1.1900125e+00
 -3.7008808e+00
  2.2866569e+00
 -2.1137151e-01
 -1.2624447e+00
 -2.1644130e-01
 -1.3592507e+00
  4.0714687e-01
 -1.8902366e+00
 -5.1457983e-01
  5.3058791e-01
  5.9234965e-01
 -5.6040702e+00
 -1.6543419e+00
 -1.4211997e+00
  1.7398022e+00
 -2.3728831e+00
 -7.2796404e-01
 -2.4663179e+00
  1.7387445e+00
  1.8046945e+00
  4.3432733e-01
  1.2188172e-01
  1.7807368e+00
  1.7357388e+00
 -9.4537842e-01
 -5.4846299e-01
 -6.9014126e-01
  2.3429544e-01
  1.3166524e+00
  7.1276450e-01
  2.5039086e-01
 -2.9116094e-01
  1.0851728e+00
  1.5285026e+00
 -1.4058311e+00
  3.5426419e-06
  1.6810694e-01
  1.7701345e-04
 -3.0388560e+00
 -5.9021895e-05
 -3.9203444e-01
  7.1142721e-01
  8.7960827e-01
 -3.1681928e-01
  9.1260451e-01
 -2.0275190e+00
 -6.3717866e-01
  9.3245190e-01
  6.4780957e-01
  7.6018184e-01
 -2.3518040e+00
 -7.3221332e-01
  5.2933902e-01
 -1.4215094e+00
 -1.5645114e+00
 -4.1040349e-01
 -2.0735002e-01
  2.1084125e-01
 -1.1990967e-01
  1.1473145e+00
  2.1164437e-01
  1.3355063e-01
  1.8693936e-01
  5.9321809e-01
 -2.2928570e-03
  6.6788703e-02
  3.2479860e-05
 -2.3345633e-01
  2.0987934e-03
  3.5497698e-01
 -3.3631551e-01
 -2.2873414e+00
 -1.0599993e+00
 -5.5690670e-01
  8.0423629e-01
  1.7053194e-01
  4.4420835e-01
 -2.7232118e+00
  1.6478363e+00
  2.7768326e+00
 -7.4019949e-03
 -2.4000356e-01
  7.1793687e-01
 -1.6025904e+00
  4.3020850e-01
  9.6553046e-01
 -7.7076620e-05
  1.0080479e+00
  2.3325256e-01
 -5.8354475e-05
  4.4169679e+00
 -2.3989496e-05
 -9.3881667e-01
  4.1251966e-01
  4.1159583e-05
  9.6951146e-05
 -3.1321319e-03
 -2.8439466e-04
 -7.3220462e-02
 -1.9479213e-02
  3.2316262e-01
  1.8512642e-01
  1.4547224e+00
 -3.3461323e-01
 -2.2706117e-05
  8.1411541e-01
 -2.3150504e+00
  3.9291039e-02
  2.0729579e-04
 -1.1934010e-04
  1.2736964e-01
  1.5237053e-03
 -8.5244440e-02
 -8.1397866e-06
 -2.7183109e-04
  5.5317037e-06
 -7.9995698e-05
 -1.0356668e-03
  9.9493511e-02
  2.6676451e-05
 -1.4468512e-05
 -2.4665656e-05
 -1.4235706e-03
  2.9945545e-04
  2.4153164e-04
 -1.3112696e-01
 -4.7993343e-03
  1.0322296e-05
 -8.0357660e-03
 -2.1440335e-05
  1.9481686e-04
  2.3486301e-01
  1.7346312e-01
  5.3199792e-01
 -1.4124809e-01
  1.1223019e+00
  1.1257488e-01
 -3.7686712e-01
  3.1535348e-03
 -5.0769868e-06
  6.9134770e-04
  1.4938681e-03
  3.1213353e-03
  4.2856984e-05
  1.8734043e-02
  1.4334913e-04
  2.3186458e-05
 -7.3589239e-05
  2.2588265e-03
 -5.5474062e-05
 -2.4233673e-04
  6.4167034e-05
 -9.7691500e-06
 -1.8063036e-04
  8.0927466e-06
  3.9164300e-04
  3.1212062e-04
 -4.6540823e-05
 -6.7013886e-04
  1.7100654e-03
 -6.4212378e-05
  7.4229706e-06
 -7.3645147e-05
 -1.1203349e-04
 -1.6464418e-04
  6.5579788e-06
  1.7661043e-05
 -1.1800475e-04
 -7.1303977e-05
  1.3467294e-04
  7.8269193e-05
 -1.6159605e-04
  2.1275988e-05
 -8.3666200e-06
 -1.5055710e-04
 -9.5733420e-05
  7.7032355e-06
 -1.4641929e-04
 -5.4924123e-05
 -5.6630943e-05
 -2.3827703e-04
  1.6752399e-05
 -2.0803159e-04
  5.6143872e-06
  1.3986506e-05
 -7.0497654e-06
 -1.8835593e-04
  7.4564588e-05
 -9.9614423e-05
 -5.3929555e-04
  5.7951411e-06
 -1.3979258e-04
 -4.1467947e-06
 -4.6156812e-05
 -3.6120386e-05
  1.9169236e-05
  3.2555690e-05
 -1.1797981e-04
  6.2613733e-05
  7.7252393e-05
  1.1607131e-04
 -2.0612506e-05
 -1.5680011e-05
  1.4681076e-05
  9.4679570e-05
 -8.8783636e-06
  6.0227084e-01
  1.2510791e+00
 -1.4677199e+00
  6.5150015e-02
 -1.0184194e+00
  5.4047596e-01
 -1.6534389e+00
 -4.6139371e-01
  1.6610842e+00
 -1.1405643e+00
  1.8478246e+00
 -1.6216921e+00
 -6.5170926e-01
  1.3747295e+00
  3.9161880e-02
  1.6469386e+00
  3.6244449e-01
  6.2439516e-03
 -8.9738852e-01
 -1.5831802e+00
  5.2452236e-01
  2.0441818e+00
 -6.3495092e-02
 -1.2897059e+00
 -8.2675177e-01
 -7.1750319e-04
 -2.1713307e-01
 -1.4961460e-01
 -4.8828194e-01
  1.8484579e-01
  1.3324784e+00
  4.1448507e-01
 -1.0717685e-01
 -3.5798484e-01
  1.2217417e+00
 -3.4535351e-01
 -5.9223974e-01
 -4.5793441e-01
  4.5849763e-02
  8.7443274e-01
 -5.1149917e-01
  1.1629928e+00
 -7.9446709e-01
 -8.8990140e-01
  2.0703815e-02
 -8.0214486e-05
 -1.9794171e+00
 -4.8131758e-01
  1.0318904e-03
 -1.9592462e-05
  1.3843459e-05
 -4.0697106e-03
 -7.7674204e-06
  8.3365925e-02
 -1.0948097e+00
  2.6647305e-01
  7.9483855e-01
  2.2718801e+00
  5.9434676e-01
 -7.0309389e-01
  7.8534298e-02
  2.4160217e-01
 -2.5631765e-01
  3.5457272e-02
 -1.3964565e-01
  2.8692520e-01
 -2.4494459e-01
 -5.5638671e-02
 -1.0239572e-04
 -2.7906138e-01
  1.7344103e-04
 -3.2118445e-03
 -2.6366912e-04
  4.9587014e-01
 -1.1557919e-03
  1.5512509e-05
  3.4095693e-01
 -4.0476683e-01
 -2.9345280e-02
  5.7860325e-05
  3.0836254e-01
  9.5412889e-03
  2.7787387e-01
 -3.5492843e-01
 -1.4918424e+00
 -1.9000047e-01
 -8.4155850e-02
 -4.1654217e-05
 -1.7473234e-01
 -3.7043912e-03
 -1.3987381e-02
 -7.7192479e-01
 -1.2951072e-03
 -2.3462477e-01
  4.4189763e-01
 -1.8499471e-05
  3.0843782e-01
  5.3694642e-01
 -1.6237170e-01
  6.1240070e-04
  2.5487140e-02
  6.6864472e-05
 -1.8229870e-05
  1.1758767e-03
 -8.3496043e-06
  9.3487899e-05
  1.9961528e-01
 -8.2528997e-05
 -9.1468071e-05
  1.6651152e-01
  5.0378025e-01
 -5.5004960e-01
 -5.1850027e-01
  1.3563517e+00
  4.0544197e-02
 -8.6055917e-01
  7.2526419e-01
  3.9114494e-02
  1.4593445e-01
  7.5593084e-02
 -1.1382324e+00
 -1.1623350e-03
 -1.6879911e-02
 -3.7878894e-04
  2.8460783e-01
  7.1122104e-01
  4.5493674e-03
 -3.6439121e-01
 -1.9693018e-01
  1.6748580e+00
  3.0925292e-01
  1.6403675e-01
  1.5322177e-01
  2.5238574e-03
  1.3214671e-04
  7.8692444e-02
 -2.0611593e-01
 -1.7092909e-01
 -5.1416881e-02
  2.3303376e-04
 -5.0119996e-01
 -1.7119326e-01
 -4.9202663e-01
  7.3240983e-05
  5.1107264e-01
 -8.9397818e-01
 -1.3682002e-01
  1.0928386e-01
 -4.2539170e-01
  7.0359296e-04
 -1.7177572e-06
 -2.1699237e-02
 -7.1142726e-02
 -3.9313519e-03
 -2.3803619e-01
 -3.7640035e-05
 -1.7054696e+00
  4.7757763e-05
  4.2492047e-06
 -2.7926578e-06
 -4.8914674e-04
  2.1413632e-03
 -1.1735440e+00
  2.1320066e+00
  5.9064603e-01
  1.8092943e-02
 -2.7184031e+00
  2.7698287e-01
  4.5746812e-03
  2.5295708e-01
 -1.5617857e+00
  6.6927600e-01
 -7.4647999e-01
 -2.3306811e-02
  1.6007905e-01
  2.1861447e-01
 -1.6653436e+00
 -1.2407472e-01
 -6.2523675e-01
  1.0894058e+00
  3.4833699e-01
  6.4959133e-01
 -1.0690448e+00
  2.1035099e+00
 -5.3759193e-01
  8.1750178e-01
 -2.7244014e-01
  1.0160985e+00
 -5.0499892e-01
  3.9043415e-01
 -8.7067372e-01
 -8.5935920e-01
  5.9105170e-01
 -1.1337517e+00
  2.2357379e-01
 -7.3981601e-01
  7.3700994e-01
 -1.3233981e+00
  1.1387797e-02
 -2.3854002e-02
 -3.3080727e-01
 -4.3488318e-01
 -1.0884795e+00
  8.9804202e-01
  1.1369170e+00
  3.6416531e-01
 -2.1702919e+00
 -7.6167751e-05
  1.1130538e+00
 -7.3572868e-01
 -2.5632799e-01
 -6.9632471e-05
  3.9501677e-04
  8.1538743e-01
  8.5315762e-05
  1.9231971e-02
 -1.4492837e-04
 -5.4400160e-05
  1.1518024e-04
  7.8902478e-05
  1.8048425e-04
  3.4343153e-05
 -1.4714802e-04
  7.0936192e-05
  4.0378369e-04
 -8.7170738e-05
  3.4307216e-06
 -3.3162104e-04
  9.8476266e-06
  1.4003901e-05
 -7.7688252e-05
 -1.0259887e-04
 -6.7664929e-05
  6.9730362e-05
  1.7242533e-05
 -4.7544625e-05
 -1.6933755e-05
  8.4859756e-05
 -1.1605467e-05
 -2.8676202e-04
  4.9088107e-05
 -2.0162041e-05
 -7.0822796e-05
  1.3724939e-04
  1.1650826e-04
  6.6926077e-05
 -1.7792318e-06
  6.2257939e-05
 -4.9032853e-05
  9.9880626e-06
  8.8907902e-05
 -5.1851389e-06
 -6.6140739e-05
 -3.4804382e-06
 -1.8177360e-04
  3.7891761e-05
  6.3208456e-05
 -2.6008091e-04
  2.3225356e-04
 -1.7259154e-04
  2.2718545e-05
  9.9942496e-05
 -3.6011799e-05
 -9.1533766e-05
 -1.7053088e-05
  1.6573400e-04
 -3.3915567e-06
 -3.5153666e-05
 -9.6767239e-05
 -1.8791323e-04
  1.0473510e+00
 -4.8730814e-01
  6.3473713e-03
  2.9749012e+00
  8.5936016e-01
 -4.5433395e-02
 -1.1352806e+00
  8.0738169e-01
 -1.7940734e-01
  4.9325201e-01
  1.1097686e-01
  9.6461590e-04
 -9.1504657e-01
  1.3407516e-01
  1.2033040e-03
  8.0152476e-01
 -1.0115701e+00
 -2.6805165e-01
 -4.9698862e-01
  1.3128115e+00
 -2.7373606e-01
 -2.9790873e-04
  7.2814568e-05
 -1.0940231e-01
 -3.1811240e-01
 -5.0360613e-05
 -1.6650197e-01
  4.0949923e-05
 -2.5828454e+00
 -1.4124537e-01
  2.6724546e+00
  7.3737276e-01
  2.5986729e+00
  8.0754745e-01
 -5.3737342e-01
 -3.2337042e-04
 -1.1325213e-01
 -1.4400080e+00
 -8.7896341e-01
  5.5927455e-01
  2.7808860e-01
 -4.1718529e-05
  2.0839852e-01
  9.4790709e-01
 -1.0640175e+00
  1.3866725e-04
 -8.5143140e-04
 -1.1026548e-02
  2.8344346e-04
  7.9203770e-02
  1.3916969e-04
  4.3910524e-05
  1.5721710e-04
  4.1211832e-01
  2.9689198e-05
  1.0374229e+00
 -1.5374449e+00
 -7.5591879e+00
  2.3987161e-01
 -3.9408961e-01
  3.7156630e+00
 -1.5068851e+00
 -3.6078756e+00
  8.5283269e-04
 -3.6109501e-01
  2.4957408e-04
  1.6896589e-01
 -3.6146280e-01
 -3.5662344e-01
 -2.5569114e-01
  1.0372078e-04
  1.4512625e+00
 -5.7235575e-01
 -6.7262816e-01
 -6.5385294e-01
  7.1596988e-02
 -1.1216385e-01
  1.5063162e-04
 -3.4643266e-01
  3.6415786e-05
  2.6976219e-01
  6.1736065e-01
  8.4335339e-01
 -2.5438678e-01
  3.0210736e+00
 -1.0202580e-01
  7.2275609e-05
  4.5182547e-03
  8.7607361e-02
  5.0488277e-04
  2.0390007e-04
  1.2223763e+00
  4.4890136e-01
 -8.3764452e-01
 -7.3937721e-05
 -6.6433436e-01
  3.1935595e-02
 -6.0230428e-05
  7.7559459e-01
  5.0430006e-04
  6.5230882e-01
 -2.2158260e-05
 -9.4010723e-01
 -2.2393160e-05
 -2.7270894e-04
  2.9262790e-06
 -1.1871938e-04
  7.5698638e-04
 -1.7728526e-02
  2.5632027e-01
  1.4209915e-02
  5.6569827e-01
  7.8883886e-01
  4.4413048e-01
  2.8814752e+00
  7.0794672e-01
 -1.0881330e+00
 -2.8824887e-01
  1.3576582e-01
 -8.5605371e-01
  1.7275389e-01
 -8.7377518e-02
  1.7053138e-04
  6.9206989e-01
  2.9835954e-01
 -3.4035429e-01
  5.5827726e-02
 -7.8979701e-01
 -1.4721022e+00
  8.3133554e-01
  1.5350739e+00
 -5.5331504e-01
 -2.3758905e-01
  3.7043634e-01
  5.0789263e-02
  4.2259291e-01
 -8.6486310e-02
 -4.2846435e-01
  3.3042023e-01
 -1.4978528e-01
  6.6458428e-01
  2.3249227e-01
 -6.5565234e-01
 -7.9677290e-01
 -1.9049300e-01
  1.2205587e-01
  6.9358349e-03
 -2.1300681e-01
  1.8924721e+00
 -4.0134524e-05
  1.3910422e-01
 -1.8946668e+00
 -2.9499950e-02
 -2.5232302e-04
 -2.7497287e-04
  4.2910125e-02
 -1.1185121e-04
  1.8028618e+00
 -4.8462625e-06
 -4.4552174e-01
 -4.4783591e-03
 -2.3555529e-01
 -2.1464981e-05
 -3.1274903e-04
  2.5440889e-04
 -8.5930536e-05
  2.7047772e-05
  6.5486081e-04
 -3.1300006e-05
 -1.8639688e-05
 -5.1130413e-04
  9.0473935e-05
 -1.0033329e-04
 -1.2830880e-06
 -1.0777511e-04
 -2.6405740e-05
 -6.9307112e-05
 -5.4610799e-05
 -6.9289847e-05
 -3.6541987e-05
 -4.2296080e-05
 -2.1737524e-05
 -1.5497900e-06
  7.0029302e-05
  4.9734337e-04
  7.6060176e-05
  3.0988976e-04
  9.8555138e-06
  1.6574741e-04
  2.7227030e-05
  8.0240621e-05
  8.1696217e-06
 -3.5300855e-05
 -1.3369106e-04
  2.8169487e-04
  2.3990998e-04
  1.4255225e-05
 -6.0261882e-05
  1.8251379e-04
  1.7301917e-04
  4.3331042e-05
  2.8328695e-05
 -1.8429400e-05
 -5.9857743e-05
 -2.3355128e-04
 -1.6631540e-04
 -5.1542680e-04
 -4.7027366e-05
 -9.6093543e-05
 -8.5864536e-05
  2.5042498e-05
  5.2046882e-05
  8.5891661e-05
 -3.9013499e-05
 -2.7758688e-05
 -2.9052950e-05
 -6.2035728e-04
  1.2377619e+00
 -2.8887160e+00
 -1.3028632e+00
 -2.1678761e-02
 -5.6418650e-02
 -1.4043658e+00
 -1.3340075e+00
 -8.5951918e-01
 -1.2496598e+00
 -9.8012930e-01
 -1.9455193e-01
 -1.7940594e+00
 -6.6809124e-01
 -1.5896962e+00
  1.3074088e-05
  1.1604778e+00
 -1.3490178e-01
  3.5739768e-01
  2.1192526e-02
  3.1107891e-01
 -5.8937121e-02
  2.1500224e-03
 -1.3963418e+00
 -4.1478375e-01
 -6.8274188e-01
  4.2915405e-03
  7.5550157e-01
  7.0558083e-01
  1.3471647e-01
  6.0320354e-01
 -5.1317611e-03
  2.4384324e-05
 -5.2174393e-02
 -2.7499741e-04
  3.5511348e-01
 -6.0457963e-02
  9.7605187e-01
  2.5338572e-01
  1.3376024e+00
 -1.0914586e+00
  5.8874011e-01
  8.2149655e-02
  5.1865178e-01
  4.0430767e-03
  3.9560335e-05
 -6.2088066e-01
 -7.6045346e-01
  2.2517268e-04
  1.5194593e-03
  1.0182627e-04
 -3.7643164e-01
  1.0762839e-05
  5.6175202e-01
 -6.8669870e-02
 -1.7221379e+00
  9.7206542e-03
 -2.9367692e+00
  1.4193792e+00
  1.0676000e+00
  7.6858497e-01
  5.4749489e-01
  2.5794485e+00
 -3.5061529e-01
 -4.9869201e-01
 -3.4112021e-01
 -1.3448596e+00
  3.0151305e+00
 -5.2169651e-01
  5.3039050e-01
  5.6283176e-01
  1.0793327e-01
 -1.3981263e-01
 -3.3853966e-01
 -1.4195597e+00
  1.6270466e-01
  1.4099940e+00
  8.1462687e-01
  5.8986413e-01
  4.2374295e-01
  4.9027601e-01
  7.9323232e-01
  1.9668332e-01
  2.4738762e-01
 -2.4092874e-01
  6.9877779e-01
 -4.0273660e-01
 -1.8575601e-01
  4.8439127e-01
  1.1182065e-01
  8.4938318e-01
  4.0162715e-01
  7.8499294e-04
  3.2229751e-02
 -4.7433887e-02
 -6.4893550e-01
 -7.3926955e-02
 -2.3078747e-01
  6.3753888e-02
 -4.6654284e-05
  7.8045946e-01
  2.1676373e-05
 -4.5094997e-02
 -1.2542429e+00
 -2.2876379e-03
  7.6742932e-02
 -3.8987073e-05
  8.1138968e-02
 -8.5579442e-05
 -2.0880005e+00
  2.0680487e+00
  1.6198067e-02
 -3.0000150e-01
 -1.4870250e+00
  6.1409622e-01
  1.4308227e+00
 -3.6944315e-01
 -3.0321302e-02
 -1.4864328e+00
  1.0009409e-03
 -2.8943858e+00
  2.8097074e+00
  9.3072402e-01
  1.2303717e-01
  3.3951575e-01
 -3.8859215e-01
  4.7319070e-02
  3.3842233e-01
  7.7802658e-02
 -4.6269187e-01
 -9.4322415e-05
 -2.9873810e-05
 -3.0763170e-01
 -4.4464520e-01
  5.6030687e-05
  1.0384538e-02
  1.1315521e+00
 -3.6743435e-01
 -3.8178691e-01
  1.1695517e-02
  1.2305195e+00
  3.5111621e-01
  1.2111999e+00
  1.0803574e-01
  8.0423802e-02
  1.0329795e+00
  2.7764183e-05
  3.0726755e-01
  2.0114084e-04
 -6.3051111e-03
 -1.3154960e-02
 -1.5163807e-04
  8.9984234e-05
  5.9270144e-07
 -2.1421060e-01
 -6.0925297e-05
  5.3592399e-04
  7.8535602e-05
  3.8236869e-04
 -1.2687406e-04
 -9.3276431e-06
  3.2965906e-04
  3.7371015e-04
  5.7611011e-05
 -6.5701926e-05
  1.5922751e-05
  7.0819791e-05
 -7.7063465e-05
 -7.1872869e-06
  4.3700536e-05
  3.4614586e-05
  1.3472077e-04
  8.8160428e-05
 -9.0889753e-06
  1.9804740e-04
 -6.9659131e-05
 -1.9037157e-05
 -6.1994433e-05
  1.2438089e-05
 -8.1208227e-06
  9.1306400e-05
  1.7612809e-04
 -4.5137625e-05
  1.2157924e-04
  2.6960686e-05
  1.3455261e-04
 -7.5614676e-05
  6.5893540e-04
 -7.6182580e-05
  3.1435789e-05
 -2.8729519e-05
 -2.0617141e-05
 -7.9685124e-06
 -1.1001775e-05
 -3.8974362e-05
 -1.1306608e-04
 -9.6274314e-05
 -2.7457723e-05
 -5.1521865e-06
  1.4305621e-04
 -9.8452831e-05
 -1.8015544e-05
 -2.1616983e-05
 -5.6818081e-04
 -1.2444775e-02
 -2.6123398e-05
  2.1488413e-05
 -3.1481488e-04
  1.3069673e-04
 -2.4666044e-05
 -9.5902891e-05
 -4.9482117e-04
 -8.4113854e-05
 -1.4112385e-05
  6.4789594e-05
 -3.6634254e-05
 -4.2642742e-01
 -5.1178163e-01
 -8.0401593e-01
 -8.6999559e-01
 -8.0955356e-02
  1.3772374e+00
  1.5852529e-01
  1.7713290e-01
 -2.1308225e-01
  7.5771469e-01
 -1.9029872e+00
 -8.3176929e-01
  1.9993252e-01
 -3.9961046e-01
  1.7485721e-01
 -8.3630562e-01
  5.9177226e-01
 -1.1583093e+00
 -5.0237393e-01
  5.0602460e-01
 -5.5279219e-01
 -2.4000072e-01
  1.1323689e-04
  7.5132221e-01
  2.2479783e-04
  1.2373763e-01
 -9.8602456e-01
  2.0403782e-01
  1.5331568e+00
 -8.0148977e-01
  6.7254412e-01
  3.7896129e-01
  8.9014363e-01
  3.6440995e-01
  8.4443194e-01
  6.8996400e-02
  8.1776649e-02
  2.8505307e-01
  7.1464330e-02
 -1.1525555e+00
 -3.2978111e-05
  3.7820956e-03
 -1.4957279e+00
  8.7796971e-02
 -1.6525519e-01
  7.8138408e-05
  2.5368836e+00
  3.3457264e-01
 -8.9312710e-02
 -8.3123239e-05
  1.7278560e-05
 -5.8362391e-02
 -1.4981374e-05
  3.4250497e-05
 -1.3636610e-04
 -7.6211832e-02
  1.0467611e-01
 -1.0210112e+00
 -2.9730511e-01
 -3.8489035e-01
  1.4604911e+00
 -1.4315597e+00
 -1.6694139e+00
  4.3424334e-02
  5.7992166e-01
  2.3368617e-05
 -1.3142760e-02
  2.3236271e-02
  2.6838254e-04
 -3.6478013e-01
  8.8302149e-05
  4.8240744e-02
  2.8079286e-02
  1.8699218e-01
 -3.0525710e-04
 -4.2122268e-05
  3.9802375e-01
  1.5222034e-03
  2.1712841e-03
 -2.2603181e-05
 -2.3975590e-02
 -3.2564494e-04
 -2.1529858e+00
 -3.8745460e-01
  1.0622662e+00
 -5.2041349e-05
 -8.8611716e-01
  4.9725594e-04
 -3.2191053e-01
  9.9519664e-01
  1.4817861e-03
 -3.5572460e-01
 -3.3820023e-05
  2.2477698e-01
  4.8498634e-01
  2.6523179e-04
  1.0979063e-02
  1.8836595e-03
 -6.3538998e-01
 -1.8610431e-04
 -3.7686050e-01
 -7.6051452e-05
 -1.1807678e-03
 -2.8236547e-05
 -6.7067602e-05
 -1.0036258e-05
 -4.7139711e-05
  1.1811752e-04
  1.3658789e-02
  5.3157201e-03
 -2.7291486e-01
 -9.6885371e-01
  1.0619754e+00
 -1.8761861e+00
 -4.4526815e-01
  5.7025462e-01
  1.7691209e+00
  8.6179900e-01
 -2.2883642e-01
  1.1992331e+00
  6.1463237e-01
 -9.5640935e-02
  1.2081583e+00
  8.2467926e-01
 -6.3897359e-01
 -3.7307464e-02
 -7.5736743e-01
  1.2492940e+00
  4.0981251e-01
  2.0703235e+00
 -3.8232293e-04
  1.7127870e-02
  3.3477929e-01
  6.2097085e-01
  1.1218156e-01
  1.0327761e-02
 -1.1073321e+00
 -4.1286680e-01
 -1.5617552e-01
  9.2858118e-01
 -3.1008288e-02
  1.6142916e-03
 -7.9456870e-05
  5.1218057e-01
 -8.2898930e-02
  2.5630655e+00
  8.9442856e-06
  4.7125655e-01
 -2.1913224e-01
 -3.1754306e-01
  7.1801662e-02
  2.3285474e-01
  7.1188188e-01
  3.7883223e-05
 -6.0533341e-05
  2.9875542e-04
 -1.1159884e+00
  5.8387583e-01
  2.5683235e-05
 -1.4643000e-04
  6.0901411e-06
 -2.4152647e-01
 -6.9782031e-01
  2.0428985e-02
  2.9020388e+00
  1.6074715e+00
  1.8107263e+00
 -1.4525117e-01
  1.6145776e-01
 -2.0883858e-02
 -1.6081829e+00
  6.1826907e-02
 -2.7262998e+00
  1.7113434e-05
  1.3312362e-01
  1.8486920e-04
  1.8811046e-01
 -4.3991226e-01
  4.9022615e-01
 -1.6605389e-05
  1.5513916e-03
  5.8658987e-01
 -8.6755864e-04
  8.8573641e-01
  3.0696354e-04
  1.9257386e-04
  4.2110663e-02
  3.1357124e+00
  4.9874978e-03
  1.3077626e-01
 -1.1386218e+00
  6.8176430e-01
 -2.7095178e-01
  3.1629632e-05
 -4.5443184e-04
 -3.7706699e-02
 -9.9801044e-05
 -3.2458666e-01
  1.6948364e+00
 -1.5805953e+00
 -2.2802106e-04
 -5.4267675e-01
 -2.4309486e-01
  6.3637588e-03
 -7.3043586e-05
  7.7045316e-01
  1.1916684e+00
 -7.0885275e-05
 -4.1074970e-01
  1.4877960e-04
  3.5829505e-01
 -7.5600419e-06
 -1.0312442e-05
  1.8522005e-05
 -1.4374371e-05
  1.0447783e-04
  1.0407999e+00
  1.7212250e+00
  6.3090312e-01
 -1.2733915e+00
  1.4199254e-01
 -1.1094798e+00
  1.4022809e+00
 -4.9007714e-01
  1.5059325e+00
 -6.6954178e-01
 -4.9276118e+00
 -8.3841151e-01
  1.6900864e+00
  1.5956661e+00
  2.9315490e-02
  4.2853174e-01
 -1.5427072e+00
 -2.8577614e-01
  1.3659350e+00
  5.9368497e-01
 -4.0997061e-01
  3.2200530e+00
  6.3207716e-01
  6.5451080e-01
 -6.6291040e-01
  5.1230210e-01
 -1.5854660e+00
  7.1973771e-01
  3.9419722e-02
  1.0733060e+00
  1.1284157e+00
  8.2799500e-01
 -2.7650270e+00
 -5.0589239e-04
  3.1198976e+00
  6.1735702e-01
  8.6357880e-01
 -3.8936868e-01
  1.8168306e-01
  1.9576386e-01
  9.2861446e-06
 -2.9697953e-02
 -8.1498541e-02
  5.5059098e-04
  3.5936490e-01
 -5.3716643e-04
 -2.4998882e+00
  1.0266538e+00
 -7.7457470e-01
  3.8887691e-04
  1.3508261e-04
 -7.5802714e-01
 -8.1625959e-04
 -1.3685236e+00
 -7.5564462e-01
  4.0068638e-01
  5.2702588e-01
  6.2884837e-01
 -6.7036968e-01
  1.9707814e+00
 -1.1613692e-01
  1.6582938e+00
 -2.5189605e-01
 -1.3343800e+00
 -1.1027770e+00
 -3.5484489e-02
 -8.7947667e-01
  8.9099896e-01
 -3.1538481e-01
  4.7221151e-01
  1.0787577e-01
 -6.8967521e-01
 -1.8235146e+00
  6.5477753e-01
  1.4288185e+00
 -1.8819586e+00
 -1.7995170e+00
  4.5485887e-01
  1.4771899e+00
  6.4863342e-01
 -1.3021375e+00
 -2.8195530e-01
  1.3148162e+00
  5.2032226e-01
 -7.9230294e-02
  2.0962776e-01
  6.5246552e-01
 -1.9218738e+00
 -1.4167283e+00
  6.5371060e-01
 -6.9789666e-01
  1.1041605e+00
  6.1963987e-01
 -1.1539184e+00
  5.4824179e-01
 -1.1172659e+00
 -3.8189709e-01
  9.4764912e-01
 -1.9602381e-01
  5.8425802e-01
 -1.1974362e-01
  2.8948379e-01
 -1.8881496e+00
  3.2191157e-01
 -7.8245630e-06
  2.8001904e+00
 -4.9642342e-01
  2.5013295e-01
  4.9237704e-05
  6.5040353e-05
 -4.6877114e-05
 -1.8751832e-02
  2.1310877e-04
  1.3822391e-06
 -5.5530074e-04
  9.9571783e-04
 -1.1602228e-06
  1.8502604e-05
  2.1824433e-04
 -2.7039230e-05
  5.8173056e-05
  2.3996292e-03
  3.6639169e-05
 -7.1817398e-05
  1.0317359e-05
  6.5297834e-05
  7.7042013e-04
 -1.1474834e-01
  2.4696440e-04
 -3.9309438e-05
 -8.3490588e-02
  4.3526532e-05
 -5.2081095e-04
  1.3628244e-04
 -7.9137915e-01
  6.4213255e-06
  5.0162365e-05
  4.6420882e-07
  9.9868057e-06
 -5.4676631e-05
 -9.9816162e-04
  4.4546078e-04
  1.1301553e-01
 -2.2495104e-05
 -4.1877593e-05
 -3.6611258e-05
 -3.0779927e-05
 -1.2430213e-01
 -5.9458755e-05
 -1.1372759e-04
  4.2488117e-02
 -4.6957204e-05
  2.8344053e-05
  1.7861927e-05
  1.2262218e-04
  2.1861935e-05
  1.3511929e-05
 -1.9189869e-05
 -3.9712538e-04
 -5.1304596e-05
  1.6903599e-05
 -7.7545366e-05
 -2.0368434e-05
  5.3496295e-01
 -1.9965274e-04
  6.2895948e-01
 -7.0230275e-01
 -3.6954638e-03
  4.4979921e-01
 -6.5337902e-01
 -2.5492522e-01
  1.3775899e-02
  5.0810672e-02
  4.6741119e-01
  1.8143672e-01
  7.5301905e-06
  1.2794371e-04
 -2.0743541e-04
  3.6996640e-02
  5.5856103e-01
  1.3554872e-04
  2.7434509e-05
 -2.2868224e-05
  3.9998022e-01
  2.1665028e-04
 -9.4704454e-05
 -1.8290026e-04
 -1.3020688e-04
  3.2888383e-05
  8.3513744e-02
 -4.3993786e-01
 -2.8083469e-03
 -8.1144822e-01
 -1.2509470e-03
 -3.2050517e-01
 -2.8809023e-01
 -1.8468482e-02
  1.1065934e+00
 -1.7899188e-04
  1.0936706e+00
 -4.0140268e-01
 -1.1954509e+00
  1.4900745e-04
 -2.7778903e-01
  4.7935018e-06
 -3.9678702e-01
  6.1944756e-04
 -1.4006240e-05
 -3.0599628e-04
  7.3461102e-05
 -1.3843257e-04
  7.6169985e-05
 -1.0525967e-05
 -4.3174099e-05
  4.1762055e-04
 -1.6087548e-04
 -4.1099715e-01
  2.0194034e-01
  8.2065010e-01
  2.4156746e-01
 -6.0057920e-01
 -6.2236039e-05
  8.4132851e-05
 -3.1454689e-03
  4.6654502e-03
  2.8130218e-02
  6.6258609e-01
  4.3979301e-03
 -1.4916818e-04
  9.8223227e-01
 -7.9240113e-02
  1.5703429e-01
 -1.8474251e-01
  2.1525471e-01
 -5.7052594e-04
 -1.4241874e+00
 -1.1294276e-03
 -5.0517153e-02
 -2.9690570e-01
 -3.4776461e-01
 -1.3836506e-01
 -2.9079747e-04
  1.8294820e-03
 -3.1106910e-01
  7.0915073e-02
  1.2580904e-02
  1.2229594e+00
  3.0032776e-05
 -2.7519009e-01
 -3.8264228e-05
 -1.3450154e-02
  4.5112200e-02
 -1.8580939e-05
  9.2507869e-01
 -1.2039584e-01
 -3.5568938e-02
 -1.5202685e-01
 -2.3356625e-01
  6.1272150e-03
  7.8328136e-05
 -1.0868608e-01
  1.2398412e-04
  1.8035455e-02
 -2.0625892e-05
  8.9123927e-02
  4.2747844e-05
 -2.8838602e-05
 -3.3455875e-05
  5.9356930e-04
 -7.7668481e-02
 -4.0873769e-05
  1.3642332e-04
  1.4637390e-04
 -1.8079308e-04
 -2.9986591e-06
  2.6607442e-05
 -1.1976514e-04
  4.0803847e-05
 -3.0778570e-04
  5.6018357e-06
 -1.0646238e-04
 -4.8473237e-05
 -1.5363371e-04
 -2.7118624e-05
 -2.6419653e-05
 -1.2754477e-04
 -6.7212072e-04
  7.4829120e-05
  2.7308321e-05
  1.5484362e-06
 -2.7092542e-06
 -1.3961658e-04
  2.8724284e-05
  7.7711748e-06
 -9.9259823e-06
 -3.6322708e-05
 -1.1211536e-05
  1.7541257e-05
  4.5997691e-05
  3.4287188e-04
  8.2475184e-05
 -5.8024380e-05
  1.8632389e-05
  9.7280727e-06
 -3.3259872e-05
  4.5975354e-05
 -1.7686065e-05
  1.3810166e-04
 -4.2204345e-05
  8.1343183e-05
 -1.3398577e-06
 -3.6944166e-05
 -2.8566830e-04
 -3.1275449e-05
 -9.7134485e-05
 -9.7019620e-05
  4.3627409e-05
  1.4361688e-04
 -2.9183091e-05
 -1.2163059e-05
 -4.8572986e-04
  7.5613651e-05
  2.4703353e-05
  5.9572169e-05
  3.5071556e-05
 -1.1261027e-05
 -2.9858740e-04
 -1.4904113e-05
 -1.2159655e-06
  2.2839308e-04
  5.5937351e-05
  2.3558832e-05
  4.4834494e-05
  2.3437211e-04
  2.0547575e-04
  6.4775122e-07
 -1.7566548e-04
 -5.2943342e-05
  3.4044690e-05
  3.2287244e-06
 -9.5766125e-05
 -2.5257172e-05
  2.7050173e-05
  7.7711884e-05
 -1.0989639e-04
 -1.4690516e-04
  2.2152444e-05
  1.2291718e-04
  3.9659299e-06
 -4.6623903e-05
 -2.7369440e-04
 -3.1906380e-05
 -2.3157136e-05
  6.0066290e-05
 -1.6581385e-04
  7.8501884e-04
  4.4249805e-06
  1.0119375e-05
 -1.7247460e-04
 -9.7165121e-06
 -2.7288258e-04
  1.2270677e-04
 -1.0743981e-04
 -4.2097967e-05
 -3.4728975e-05
  1.9156956e-04
 -1.2705477e-04
  3.5141191e-05
 -2.7393401e-04
 -1.1695111e-05
  5.7112105e-05
 -1.3609641e-04
  2.4609080e-05
 -5.6744320e-05
 -5.7520727e-05
  1.2850788e-04
 -6.0427737e-05
 -1.4038445e-04
  3.5408026e-01
  3.7783873e-03
 -3.1499550e+00
 -1.9685565e+00
  2.5604922e-01
 -3.9868015e-01
  2.2676039e+00
  1.9848282e+00
  2.5465149e-01
 -7.4584894e-02
  6.9719397e-02
  4.9067389e-02
  1.9413863e+00
  4.5167178e-01
 -7.2096892e-02
  2.9234135e+00
  3.8865414e-01
  1.2820328e-02
 -5.4024047e-01
 -2.3523521e+00
 -1.4608425e+00
  3.3044139e-01
  2.1673119e+00
  1.7658922e-04
  2.9330962e+00
  6.2141436e-01
  1.3967470e-02
  2.0418987e+00
  8.3997138e-03
  9.8809111e-01
  7.3822647e-01
  1.4243642e+00
 -9.0052545e-01
  5.4994130e-01
  3.0763963e-01
  5.8561951e-01
  3.5540953e+00
  3.3928281e-01
  1.8921971e-03
 -1.1715118e-01
  6.4870268e-01
 -8.8135719e-02
  2.6455683e-01
  1.4240545e-01
  7.3344328e-02
  5.6697842e-05
  1.0038993e+00
 -3.0098963e-01
  1.2529291e-04
 -2.7907752e-02
 -3.4399574e-05
  4.2322990e-01
 -5.4259994e-04
  1.6430718e+00
  9.1656540e-05
  1.5245350e-05
 -7.2554345e-03
  1.1431628e-01
 -2.2820641e-01
  5.7177399e-03
  8.1292927e-01
 -1.0026217e-02
  3.1031617e-05
 -2.3781453e-04
  8.3797708e-02
  4.8101701e-05
 -4.0851519e-05
  3.3718548e-05
  1.3361462e-04
  1.7248023e-04
  3.2217929e-04
  2.6291082e-04
  8.1242306e-06
 -1.3118289e-05
 -3.5995219e-04
  1.7395386e-04
  3.3187923e-01
  1.7499592e-04
  1.5528751e-02
 -1.5415474e-04
  9.8429882e-06
 -1.5464412e-04
 -3.1406875e-04
 -1.7466684e-01
  7.9156423e-01
 -4.9999065e-04
  2.0710249e-05
 -1.7294196e-04
 -8.2570508e-02
 -7.9023425e-04
  9.2071787e-06
  1.8645059e-04
 -1.7412443e-05
  3.2220533e-01
 -2.8141323e-04
  1.4520064e-04
 -6.5459125e-04
  2.5610590e-02
 -8.3785118e-05
 -1.4884248e-04
 -1.1209541e-02
  1.0908541e-05
  2.1044301e-05
 -3.3162883e-05
  5.5426321e-05
  4.0843352e-05
  1.4148491e-04
 -4.0967650e-05
 -5.7845080e-01
  8.6833376e-01
  1.0683997e+00
 -5.4254514e-01
  5.2284145e-01
  1.2936527e+00
 -4.3267977e-01
  4.9404624e-01
 -6.0418439e-01
 -3.7742047e+00
 -2.6301455e+00
 -3.7894712e-04
  2.8661566e-02
  9.7500724e-01
  5.8216274e-01
  3.9751166e-01
  7.5811017e-01
  1.6371788e+00
 -1.4913423e+00
  2.8376939e-02
 -6.4539230e-01
  5.6403589e-01
  2.4845330e-02
 -5.3520238e-05
 -5.5821931e-01
 -1.8797048e+00
  1.7669958e-01
 -1.7685125e+00
  1.5994197e+00
 -7.2757088e-02
  2.9530865e-01
  1.3291309e+00
  2.1459931e-01
 -9.5462066e-01
 -9.4401914e-01
  8.3467609e-01
 -3.6402965e-01
 -1.3133311e+00
 -1.3767010e+00
  7.2722906e-01
  1.5034448e+00
 -8.0770916e-01
 -1.4763050e+00
 -3.6051437e-01
  1.2917711e-01
 -3.5914145e-05
  1.1124988e+00
 -2.5500946e-02
  1.6267693e-05
 -2.7732388e-04
 -1.3618771e-04
 -1.2052225e+00
  2.6062351e-01
 -1.6538078e-04
 -3.5440668e-01
 -1.1187860e+00
  2.7198353e+00
 -6.3788623e-01
 -8.1022322e-01
  1.4531367e+00
 -3.3535612e+00
 -6.9915187e-01
  1.9609337e+00
  8.8548011e-01
  5.8621740e+00
  1.5352427e+00
 -1.3302571e+00
  2.9805251e-03
 -1.3767438e+00
 -2.9777551e-01
  3.5583434e-01
 -1.7651549e-01
  5.4633218e-01
  1.0500416e+00
  1.1103741e+00
 -4.0121805e-02
  2.7633516e-02
  5.2447903e-01
 -8.4147084e-01
  5.2656606e-03
 -3.4441721e-01
  7.3408440e-02
 -1.5324668e+00
 -8.0149239e-01
 -6.3557923e-01
 -9.9218249e-01
  1.2267340e+00
  4.3138820e-01
  4.9786562e-01
  7.3473060e-01
 -1.6211740e+00
 -5.3908968e-01
 -3.9341456e-01
 -1.4036169e+00
 -8.3046734e-01
 -6.9217193e-01
 -4.9315929e-01
 -1.2840363e+00
  5.6656206e-01
  1.3327964e-04
 -2.9481761e+00
 -6.3688964e-01
 -1.2826253e+00
 -6.0933179e-01
 -1.3347501e-03
 -4.6683484e-01
 -5.3088563e-05
 -8.8284934e-01
 -5.6709412e-02
  5.5567884e-01
  3.6453688e-01
 -1.4104156e+00
 -3.2741280e+00
  1.6216670e-01
 -4.3741208e-01
  1.1147673e+00
  2.3097458e+00
 -3.0911055e-01
  1.1213719e+00
 -4.4695270e-01
  2.3606203e-01
  2.1223452e+00
  8.6746025e-01
 -1.3595399e-02
 -6.3664156e-01
 -1.7457582e+00
  6.0235095e-01
 -2.5927691e+00
 -1.7111661e-02
  1.0619096e+00
 -8.4149532e-02
 -3.3823948e-02
  1.8213273e+00
  2.0075414e+00
  1.2368937e+00
  9.8893738e-01
  1.8324474e+00
  1.4177141e-01
 -1.4265902e-01
 -7.9399085e-01
 -1.8765610e-01
  1.5708289e+00
 -1.4496980e+00
  7.4099296e-01
  1.7536219e-02
 -3.0185714e-01
 -4.8739836e-01
 -3.9604393e-01
 -4.6809375e-01
 -4.6564159e-01
  7.1845926e-02
  4.7559497e-01
 -1.4243944e-01
 -1.6975243e-02
 -1.3672290e+00
  6.9613912e-04
  7.0326054e-01
  3.3410180e-01
 -2.6447331e-05
  7.0458718e-02
 -1.1588220e-03
 -2.6776043e-01
 -6.4001855e-05
  1.4770786e+00
  7.7371615e-01
 -1.9005930e-01
  4.2798382e-01
  1.5644166e+00
 -2.6183504e-01
  5.0208431e-01
 -9.9978864e-01
 -6.8802279e-01
 -1.9217012e+00
  4.7522303e-01
  6.6047510e-06
 -2.6338274e-05
  3.4373026e+00
  2.5700882e-01
  3.1209300e+00
  9.1178238e-01
 -1.8589201e+00
  2.8631213e+00
  2.5179943e-05
  9.9957442e-01
  3.0479529e+00
 -2.2896314e+00
  1.1095452e+00
  4.5356617e-05
  4.1377888e+00
  7.7866524e-01
  4.3348190e-03
  2.7678750e-06
  3.0263099e-01
  2.7169216e-01
 -7.3817658e-01
 -1.2917839e-05
 -2.1666994e+00
 -1.9078518e+00
  2.2760754e+00
 -6.9981384e-01
 -2.2981726e-01
  1.0670199e+00
 -4.1468138e-01
  6.3637537e-01
 -2.7330931e-02
  7.5073167e-06
  7.3606709e-05
  1.3524313e+00
  6.0826409e-01
 -1.2442575e+00
 -6.8290466e-01
 -4.7351503e-01
 -5.5551616e-05
  5.2569771e-01
  3.2249060e-01
  2.1667762e+00
  3.0450574e-01
 -1.5089663e+00
  3.7358561e-01
 -2.0021565e+00
  8.5558094e-02
  6.2390620e-01
  2.5469761e+00
  5.8098835e-01
 -1.7030396e-04
  1.3211633e-01
 -6.7368323e-01
 -3.0372027e-01
  4.0345952e-01
  7.2533363e-01
 -1.6122735e+00
  2.4974458e-01
  4.2265754e-05
 -2.1669638e+00
  4.4732824e-01
 -5.0271827e-01
  2.0460413e+00
  2.4013631e-05
  2.2662054e-01
  6.6634887e-01
 -1.4549335e+00
 -3.1990279e-02
 -8.2034534e-01
  1.3345393e+00
  2.1293523e+00
 -1.1937886e-04
 -1.0707188e+00
 -2.7798775e-01
 -6.4327210e-01
 -1.9516073e+00
 -3.4931847e-01
 -1.1016119e+00
  1.6274658e-01
  3.4380877e-01
  3.7617597e-01
 -1.6165705e-04
  6.6413432e-03
  6.0357785e-01
 -1.9944671e-01
 -1.1954650e+00
  9.2699772e-01
 -1.3680483e+00
  2.0766840e+00
 -6.4943153e-01
 -4.0485745e-04
 -1.3129317e+00
 -1.6285480e-03
  1.9072006e+00
  4.8473477e-05
 -1.8368966e-04
  6.7080628e-06
 -4.1978039e-02
 -6.1588456e-05
 -1.2549894e-03
  8.3945453e-04
 -6.0484087e-01
 -9.5354242e-04
 -2.2462977e-01
 -2.2008253e-04
  3.4139104e+00
 -2.5647938e-01
 -3.7567271e-04
  1.8446561e-03
  6.2450614e-02
  2.3561127e-01
 -1.0813738e-01
  6.2036113e-04
 -1.6685328e+00
  1.5162583e-04
 -8.4785360e-01
 -1.9609048e-04
 -2.9138608e+00
 -9.8308451e-02
 -9.5768556e-02
 -3.2416100e-04
  2.1676552e-01
 -7.4921989e-01
  6.1623534e-05
 -3.7170469e-03
 -7.4710399e-01
  9.1539085e-01
 -3.0912476e-02
 -1.6705818e-04
  9.4877064e-01
 -6.6325980e-01
 -3.1449625e-01
  1.6311253e-03
  6.5774649e-01
  1.5361198e+00
 -6.6510075e-01
  1.9680148e-04
 -5.5122161e-01
 -4.2142209e-01
 -2.5940958e-01
 -1.5646741e-02
  5.7728404e-01
 -3.5459943e-05
 -1.5183759e-01
 -8.0269378e-01
  4.3523997e-01
  1.0036992e+00
  1.2375989e-03
 -1.2691323e-04
 -1.1304615e+00
 -3.9349243e-01
 -3.8856417e-01
 -4.6281004e-04
 -4.5698869e-01
 -1.1463081e+00
 -2.9769391e-01
 -4.8702064e-01
  1.3327550e+00
  1.2720319e+00
  1.8593011e-02
  3.9349687e-03
  7.7191597e-01
  8.9232904e-01
 -2.1886482e+00
 -9.5940697e-01
 -3.2370536e+00
  8.4798522e-03
  6.5964735e-01
 -3.3413176e-04
  1.6655616e+00
  1.5001717e-01
  2.5150809e-02
  3.9155383e-02
  1.6577946e+00
 -3.6033702e-01
 -2.2230775e+00
 -1.2719544e+00
 -4.2792225e-01
  1.8608395e+00
 -1.1683682e+00
 -4.0835277e-03
  9.8293704e-01
 -6.3720745e-01
 -1.2705368e+00
  1.7366820e-03
 -1.0267621e+00
  2.3392770e-01
  7.1471149e-01
  3.3013773e-04
  3.7404370e-02
 -4.0093550e-01
  2.1044832e-02
 -4.6087417e-01
  2.9789078e-01
  1.4858800e-01
  9.4873577e-01
  2.0543042e-01
  1.1021000e+00
  9.0726966e-01
 -6.6433614e-04
 -1.5763036e-03
  3.9669569e+00
 -1.1787568e+00
  2.3481959e-01
  4.9625724e-03
  1.3546436e+00
  4.8870072e-01
  7.8788352e-01
  5.6701159e-04
 -1.9286053e+00
  1.7598846e+00
 -8.7709248e-02
  5.6779563e-01
  6.2334979e-01
 -6.5704072e-01
  1.0019754e+00
 -1.1454871e-03
  2.4353147e+00
  1.3726784e+00
 -6.1663485e-01
 -5.6991458e-02
  9.2325233e-02
  1.1530751e-01
  1.0601191e-02
  6.7006618e-01
 -7.6754183e-01
 -6.0579205e-01
 -4.3878470e-02
 -3.0683493e-04
  5.6244999e-01
  2.1855552e+00
  5.8376760e+00
 -8.4869540e-04
 -3.0874994e+00
  1.2670447e-01
 -1.1714466e+00
  4.0265158e-02
 -5.2483910e-01
 -4.3075120e-01
 -2.6082653e-03
 -5.1945448e-02
 -7.3239225e-01
  3.4429057e-04
 -1.0287442e+00
  1.7434877e-01
  6.3853842e-01
  1.9865540e-01
  1.0720334e+00
 -1.5014254e-02
 -1.5538039e+00
  1.0818137e+00
  2.5044775e-01
 -1.4605755e-03
 -1.0878104e-01
 -5.3099340e-01
  2.2694563e-02
 -2.2073324e-04
  3.4217741e+00
  1.2035250e-03
  2.2891278e+00
 -1.6792698e-03
  4.9388447e-01
  1.5475644e+00
  4.3791088e-01
 -7.7739197e-01
 -1.5089586e+00
  4.6236560e-02
 -9.3745649e-01
 -7.7114231e-04
  3.2274003e+00
  5.8713186e-01
  1.0830668e+00
 -5.1347230e-02
  1.7268600e+00
  3.2181493e-03
  6.4397538e-01
 -3.2439283e-03
  4.0209490e-01
 -7.8637280e-02
  7.4007934e-01
 -1.0385890e-02
 -1.4287642e+00
  3.8154498e-01
  1.7068262e+00
 -2.5124082e-01
  4.7203633e-01
  7.8442353e-01
 -1.2465915e-01
 -4.9287453e-03
  1.5458981e+00
  4.8645332e-01
  4.3587548e-01
 -9.1595417e-03
  6.3744241e-01
 -3.2521299e-01
 -1.0622381e+00
  3.1077439e-01
 -4.2642322e-01
  5.1363873e-01
 -4.3373138e-01
  2.0963869e+00
 -1.1501392e-01
  3.2285452e-01
 -9.8770782e-02
  2.7614056e-05
 -1.5990101e+00
  4.4281546e-06
  2.6095912e-03
  2.4097983e-02
 -4.0175311e-02
  1.7257018e+00
  2.4849674e-01
  2.8082957e+00
 -7.8606623e-01
  1.0715313e+00
 -4.4866529e-04
 -1.2413788e-03
  3.1894522e+00
  1.8953925e-01
 -5.4601824e-01
  4.0977821e-01
  5.2770274e-04
  4.0086079e-01
  1.0473289e-01
  2.5673721e+00
  1.0986654e+00
  1.5224276e-04
 -1.1571139e+00
 -1.0824512e-03
  3.1286380e+00
  1.5264001e+00
  1.8909274e+00
  7.3647183e-01
  9.1790164e-01
  1.7896945e+00
 -4.3806127e-01
  9.2020190e-01
  5.2516228e-01
 -1.4178295e-04
 -6.9719434e-01
  1.0323932e+00
  1.6702681e+00
 -1.9956137e-01
  1.7923737e-01
  1.4018874e+00
 -2.2888863e-01
 -2.0271357e-06
  1.0095648e+00
  1.0017392e-03
 -3.9405754e-01
 -2.4349945e+00
  1.2034433e-01
 -6.7425139e-02
 -5.5499041e-01
  8.3928335e-01
  6.6215940e-02
 -8.8232849e-04
  7.1489863e-02
 -6.2382853e-01
  3.2768038e-03
  1.6069270e-04
  6.5251984e-02
 -4.0661726e+00
  3.5997885e-01
 -2.2789291e-01
  1.2338268e-02
  3.7535910e-02
  1.0856589e-03
 -2.1444857e-03
 -1.8189032e+00
  7.7905995e-01
  1.5335819e+00
  4.4332156e-03
 -2.0090082e-01
 -1.1669240e+00
  8.9616477e-01
 -1.7643236e-01
  1.0843744e+00
 -1.9632764e+00
  8.6217600e-01
 -9.9122627e-03
  1.0592564e+00
 -1.4597712e-03
  3.8254395e-05
  3.8332304e-03
 -3.2199132e-01
  4.2485660e-01
  6.1660271e-02
 -2.0539695e-02
  8.7705827e-01
  2.3127193e+00
  1.1330141e+00
 -1.1585728e-01
  1.7868103e-01
 -1.3441426e+00
  2.6885679e-01
  2.6373884e-03
 -1.7516302e-01
  7.7670121e-01
  1.1757070e-01
 -2.6551965e-01
 -9.2236078e-01
  5.3133625e-01
 -1.0244415e+00
  1.9746467e-01
  6.4829785e-01
 -1.0038912e+00
  1.6408991e+00
 -5.0211046e-04
 -4.5675841e-01
  6.0572846e-05
 -2.7583592e-04
  3.5835040e-01
 -2.4367363e+00
  3.8609281e-02
  7.6996946e-01
 -1.7987904e-05
 -1.5750283e+00
 -7.3076761e-01
  5.0104570e-01
 -6.2178606e-01
  2.9159098e+00
 -6.4082868e-02
  1.7633889e+00
  4.8416245e-01
  1.2195387e+00
 -1.9732877e+00
  2.0982368e+00
  4.6963489e-01
 -2.2111018e+00
 -8.9485121e-01
 -6.1908734e-01
 -9.9042034e-01
  4.9150121e-01
 -1.2442567e+00
  2.7588347e-01
  2.7416432e-01
  2.9987264e+00
 -4.9837664e-01
  3.1125174e+00
  3.7203288e-01
 -2.4112183e-01
 -5.9734243e-01
  2.1516719e+00
 -3.0558965e-01
  2.0250799e-01
 -8.0832845e-01
  8.9396453e-01
  2.4180798e-01
  4.8628405e-01
  3.7285969e-01
 -8.9007276e-01
 -5.4735284e-02
  5.4599637e-01
  1.1154648e+00
 -2.1480377e-01
 -1.4716887e-03
  8.1377554e-01
  1.1081789e+00
 -8.3543686e-03
  2.4950916e-03
 -9.3326283e-01
  4.0918439e-07
 -2.8727710e-01
 -1.8038620e-01
 -3.3653855e-01
 -1.6636182e+00
 -7.7794808e-01
  9.9882811e-02
  4.3284020e+00
  3.0025947e+00
  4.8930413e-01
  7.4453354e-02
 -9.2019546e-01
  9.2989397e-01
 -6.4416605e-01
 -1.0694697e+00
  9.4185275e-01
 -8.0780491e-02
 -1.0818493e-03
  1.8809479e-01
 -3.1579584e-01
 -9.3945718e-01
 -1.3508812e+00
  1.3485867e-01
  1.7658906e+00
  8.6204660e-01
 -5.0358790e-01
 -2.2903606e-01
  5.3980160e-01
  1.8076698e+00
  4.9785128e-01
  5.3700481e-02
 -2.3131285e+00
  5.0536502e-02
 -1.0256486e-01
 -7.4397230e-01
 -2.5330555e-01
 -1.0474802e+00
 -3.9165506e-01
  4.3083039e-01
 -7.8901356e-01
  1.4466417e-01
 -1.2552133e-01
 -5.1787567e-01
 -2.9706517e-01
 -2.9502019e-01
 -3.9571438e+00
 -6.0614362e-02
 -3.9343510e+00
 -3.0408270e-04
 -3.2850645e-02
 -7.3495501e-04
 -5.9272522e-01
 -7.7038556e-01
  7.6621706e-03
 -5.9684092e-04
  8.4010410e-01
 -2.3866527e-02
 -3.4460194e+00
 -1.5043773e-01
  3.8188684e-01
  1.9695158e-01
 -1.5205969e+00
 -4.0479279e-03
 -1.6109397e+00
 -1.2284508e+00
  9.8108208e-01
  1.3696119e-03
  2.1199115e-01
 -1.5520908e-02
 -1.2361238e+00
 -8.1323689e-01
  1.4217794e+00
 -1.4015582e-01
 -1.6172818e+00
 -1.3459833e-01
 -7.3877931e-01
 -1.1941049e+00
 -1.2062220e-01
  1.6236888e-01
  1.9163893e-01
 -1.4973694e+00
 -8.7225370e-02
 -5.8608133e-01
 -6.2152046e-01
 -1.7113177e+00
 -7.5876839e-02
 -6.4107601e-04
 -2.8127220e-02
 -8.8991769e-02
  7.6765865e-01
 -1.0026339e-03
 -5.6289470e-01
  3.9633157e-04
  5.0571841e-01
  1.5781784e-03
  5.9782451e-01
  3.2468762e-02
 -5.3673512e-01
  6.8815422e-01
  6.6320068e-01
  7.1616441e-01
  7.6435286e-01
  5.1254690e-05
 -7.7183294e-01
  6.4687401e-01
  2.2729824e-04
  5.1495759e-04
 -7.3158222e-01
 -5.1688784e-01
 -4.7524055e-03
  6.9811535e-03
  1.2587132e+00
  2.0957624e-03
  3.6804503e-04
  3.4510763e-04
  2.8656065e+00
  2.1455680e-01
 -1.0697439e-02
  9.5518655e-04
  1.6566016e-01
  1.1092589e+00
  1.4650680e+00
  1.7129514e-01
 -1.3565177e+00
 -5.7120967e-01
  4.6370605e-01
  1.4549912e-03
 -1.1606536e+00
 -9.1631454e-01
 -1.8995810e-01
  9.5719157e-04
  7.7120715e-01
 -8.8065308e-01
 -2.3703411e-01
  3.8478634e-01
  3.5298412e+00
  2.1099183e-01
 -4.6884558e-01
 -3.0509895e-04
 -4.9213710e-01
  2.4513440e+00
  9.9172789e-01
  9.4159935e-03
 -1.1738454e+00
  1.0803167e+00
  1.1675498e-04
  5.9326673e-01
  3.6118472e-01
  4.2143244e-01
  2.4872819e-01
 -8.5748404e-01
  2.1519039e+00
  2.4454880e-01
  8.7066847e-01
  4.0461161e-04
 -1.1345234e+00
 -2.5317070e+00
 -6.3223797e-01
 -2.0924765e-01
  9.9602407e-01
 -3.9349839e-01
 -1.4422251e+00
 -5.2968508e-01
  2.3283076e+00
  1.0766486e+00
  1.3619163e+00
  5.8930850e-04
  5.0749546e-01
  1.6193054e+00
  1.4886479e+00
 -2.1358119e-01
 -1.2312813e+00
 -2.1350069e+00
 -1.8579041e+00
 -4.3525246e-01
 -2.2186022e-01
 -2.4690199e+00
 -1.6684784e-01
 -2.0765141e-03
  1.9865050e+00
  4.0868029e-02
  6.2385661e-04
 -6.8749005e-01
  1.1001055e+00
  2.3181930e+00
  7.4174947e-01
 -3.6748198e-01
  2.2785106e-01
  2.5297835e+00
  4.5818213e-01
 -4.7409874e-03
  4.3116608e-01
  8.6914796e-01
 -3.3456844e-01
 -2.6483944e-01
  4.1041252e-01
 -1.2453678e-01
 -9.1710985e-01
 -1.1477166e-01
  3.8811335e-01
  2.1409516e-01
 -4.9802881e-02
  8.9173090e-01
  4.3355408e+00
  1.2509017e+00
 -1.3152894e-01
  4.8995449e-04
 -4.0584850e+00
 -5.8986135e-02
 -2.3200393e-02
 -2.9936509e-04
 -1.6168113e+00
  9.5753133e-01
 -1.6315242e+00
  7.5583309e-01
  7.2459900e-01
  2.6136940e+00
 -2.2709444e+00
  2.2735995e-04
 -5.6606555e-01
  9.8399676e-02
  1.7422080e-01
 -8.4600301e-04
 -2.7417085e-01
  1.1521569e+00
  4.0772638e-01
  7.2377831e-01
 -1.4102198e-01
  6.1030805e-01
 -3.0954711e+00
  1.6147322e-03
  1.2164923e+00
  6.5415365e-01
 -8.8592416e-01
  6.5915775e-04
  1.2554712e+00
  3.4149107e-01
  8.1425048e-02
  4.3708691e-04
  1.2183743e+00
  1.9274712e+00
 -2.9248592e-01
  1.0390251e+00
  1.3857223e-02
  7.2606856e-01
  4.7693379e-02
 -4.4676242e-03
  1.4434177e-01
  9.6525198e-01
 -7.4593651e-01
 -1.6293319e-01
  1.4593585e+00
 -4.0816414e-01
 -1.1428844e+00
  2.6804200e-04
  1.9569910e+00
  7.7062511e-01
  1.4245631e+00
  2.4140498e-03
 -6.0047932e+00
 -1.3820863e-01
 -8.4657592e-01
 -6.6780119e-04
 -3.5504448e+00
 -1.6607087e+00
 -6.7106146e-01
  5.4419589e-01
  3.5151200e+00
  4.3899351e-01
  9.2548174e-01
 -1.8374764e-04
  5.2714393e-02
  1.8816985e+00
  2.3952034e+00
 -8.3470464e-01
 -5.4996314e+00
 -4.3686566e-01
  9.6452862e-01
  5.9598583e-01
 -2.2998023e+00
 -8.0652088e-01
 -1.9738103e-01
 -4.2081466e-03
  2.1378560e+00
 -3.7973234e-01
  6.6181487e-01
 -6.8143383e-02
  2.9731171e+00
  1.0952491e+00
  5.9875315e-01
  8.1639685e-02
  1.4539963e+00
 -4.2516640e-01
  9.5904237e-01
  1.4942879e-03
  1.4214405e+00
 -3.6681160e-01
 -3.0956715e-02
 -3.2658506e-02
  2.6141229e-01
 -6.4137405e-01
  1.7399254e+00
  2.2880428e-01
  6.1707605e-02
  4.6817061e-01
  2.0236790e-01
  4.3426735e-06
  1.3851860e-02
  8.1593543e-04
 -1.0218992e+00
  6.2438735e-04
 -7.1224040e-06
 -3.5267824e-03
  1.6623838e+00
  3.0204046e-01
  2.5922292e-01
  1.1389366e+00
  3.4154017e+00
  6.9984943e-03
 -8.8604474e-01
  1.4821111e+00
 -8.0354363e-01
 -4.2226669e-01
 -1.7001979e+00
 -3.6801736e+00
 -1.7147913e+00
  3.3202270e-01
  1.6770616e+00
  1.4852368e+00
  1.7478342e+00
  4.6932024e-01
  5.1555276e-01
  6.3627905e-01
  8.1280506e-01
 -5.5502367e-01
  6.3593060e-01
  5.5114937e-04
 -2.1476939e+00
  4.3606018e-03
 -3.9363307e-01
  3.3704710e-01
  5.9929770e-01
  6.2143803e-01
  4.6775416e-01
  1.8933964e+00
  7.4975275e-02
 -2.3183767e-01
  3.1634407e+00
 -4.3582015e-02
  7.3001164e-01
  4.4130508e-02
  2.1937008e+00
 -2.9825774e-01
  6.5346599e-01
  4.9546873e-04
  1.8482068e+00
  6.6913646e-01
 -1.0777123e-01
  5.0300540e-04
  9.5545650e-03
  2.1187440e-01
 -1.2218906e+00
  1.7083616e-03
 -2.8927188e+00
  3.4461910e-04
  7.2105743e-02
  5.8295142e-02
 -2.5792429e+00
 -1.7256495e+00
 -1.1062067e+00
 -1.9366452e-03
  3.4704003e-01
  3.7341790e-05
  9.6907765e-01
  9.2297740e-02
  8.5938975e-02
  1.3148433e+00
 -6.4531535e-01
  1.7497471e-01
 -1.1774343e+00
 -1.8919356e+00
  3.1889474e+00
 -5.3180057e-01
 -3.8926163e-01
  1.7633292e-01
  3.8595912e-01
  1.1260790e+00
  1.7063550e+00
 -5.3316528e-01
  1.0205622e+00
  5.3537831e-05
  5.9005433e-01
  2.4629486e+00
 -4.2918786e-01
 -1.9587602e-03
 -2.3517222e+00
  2.6427278e-01
  3.6278696e+00
  4.5689428e-04
  2.9555025e+00
 -1.0745944e+00
 -1.6024446e-02
  3.4606720e-03
  3.6123815e-01
  4.3788496e-01
  1.5700635e-01
 -1.5441753e-04
  3.7507889e-01
 -1.3855455e+00
 -1.1020061e-01
  2.8343538e-02
  2.8922849e+00
 -2.2646372e-01
 -4.5770913e-01
  5.4195210e-05
 -5.6800091e-01
  1.0140933e+00
  3.0596089e-04
 -2.2949642e-02
 -2.8885367e+00
  9.0069342e-01
 -1.3213510e-03
  4.7642580e-01
 -2.1392231e-01
 -4.1195801e-01
 -9.5326889e-01
  5.7645494e-01
  3.7389081e+00
 -6.2645175e-03
 -1.0635906e+00
 -5.7491451e-03
  1.1802423e+00
  9.0264446e-01
 -3.3353736e+00
  4.5947272e-02
 -4.0088434e+00
  8.6397040e-01
 -2.4060116e-03
  1.6378872e-01
 -1.5679127e+00
 -2.9952437e-01
 -4.6187019e-01
  3.3066343e-03
 -1.8290389e+00
 -2.1294286e-04
 -6.3760769e-01
  4.9835438e-04
  6.4619875e-01
 -1.7725992e+00
 -1.2203702e-02
  4.6897912e-03
 -1.6940308e+00
 -5.3189177e-02
 -1.8912785e-01
  5.4472274e-01
 -2.6386172e-01
 -7.2570014e-01
 -6.9528013e-01
 -8.6508982e-05
  5.4379481e-01
 -3.2763761e-03
 -1.9368343e-01
 -8.0312561e-04
 -9.4791991e-01
 -1.1931988e-03
  1.2684424e-03
  1.1505408e-03
  4.6506824e+00
 -2.3479629e-01
  3.0266188e-04
 -6.0001895e-04
 -2.3245154e-01
  3.4278982e+00
 -2.6388401e-03
 -7.0130668e-04
 -1.8291916e+00
 -5.5493540e-01
  7.9847984e-02
  1.7110913e-01
  4.1674361e+00
 -3.0750296e+00
 -5.7110173e-01
 -3.0032647e-01
  1.1284388e+00
  3.0652273e+00
 -5.2268052e-01
  3.1063656e-04
 -2.0903242e+00
  1.0393457e-02
  1.8530486e-02
  3.0358901e-02
 -1.9742768e+00
 -9.2228055e-01
 -1.7989387e-01
 -1.1140022e-01
 -8.3900303e-02
 -9.2077460e-03
  2.3835807e-01
 -1.5234436e-01
  2.6660264e+00
 -1.1423066e+00
 -1.3613466e+00
  6.4301986e-04
  1.7601677e+00
  8.1334275e-01
 -1.3866060e+00
  1.6791382e-03
 -1.8022884e+00
  9.1698229e-01
  3.7791532e-01
 -1.1782673e-01
 -4.9509411e+00
 -1.2163937e+00
  1.6419069e+00
  4.8665324e-01
 -8.5010505e-01
 -8.2517327e-05
  1.1006263e+00
  1.8175545e-03
 -1.3421034e+00
 -1.6155661e+00
 -1.4132769e+00
 -1.8494074e-03
 -6.1970735e-01
 -3.3714535e+00
 -9.5306508e-02
  1.8386416e+00
  1.9917696e+00
  1.3325585e+00
  2.0532589e+00
  4.1922955e-03
  1.2913507e+00
  4.3650573e-01
  1.6204419e-03
 -3.4613008e-04
  2.4427542e-01
 -3.3852813e+00
  3.0334830e+00
  1.5447973e+00
 -2.9922862e+00
 -1.6919352e+00
  1.5824586e+00
 -1.0069156e-01
  2.0528579e+00
 -6.2597692e-01
  2.0010109e+00
  1.2420872e+00
 -3.7687445e-01
  2.1716526e+00
 -4.2586848e-01
  4.7655955e-01
  1.7221739e+00
 -1.5802254e-01
 -8.5930234e-01
  5.9608882e-04
  3.7752792e-01
  6.5408134e-01
 -8.5217023e-01
  8.5706955e-01
  3.3050686e-01
 -6.7530908e-02
  1.1911419e-01
  1.1004538e-04
  2.2800865e-02
  2.2800865e-02
  2.2800865e-02
  2.2800865e-02
  2.2800865e-02
  2.2800865e-02
  2.2800865e-02
  2.2800865e-02
  2.2800865e-02
  8.7079303e-03
  8.7079303e-03
  8.7079303e-03
  8.7079303e-03
  8.7079303e-03
  8.7079303e-03
  8.7079303e-03
  8.7079303e-03
  8.7079303e-03
  3.4639628e-03
  3.4639628e-03
  3.4639628e-03
  3.4639628e-03
  3.4639628e-03
  3.4639628e-03
  3.4639628e-03
  3.4639628e-03
  3.4639628e-03
  4.3649515e-03
  4.3649515e-03
  4.3649515e-03
  4.3649515e-03
  4.3649515e-03
  4.3649515e-03
  4.3649515e-03
  4.3649515e-03
  4.3649515e-03
  3.0723554e-03
  3.0723554e-03
  3.0723554e-03
  3.0723554e-03
  3.0723554e-03
  3.0723554e-03
  3.0723554e-03
  3.0723554e-03
  3.0723554e-03
  5.8552343e-04
  5.8552343e-04
  5.8552343e-04
  5.8552343e-04
  5.8552343e-04
  5.8552343e-04
  5.8552343e-04
  5.8552343e-04
  5.8552343e-04
