nep4 2 Mo S 
cutoff 5 5 26 26
n_max 8 8
basis_size 12 12
l_max 4 2 0
ANN 50 0
  1.6688516e-02
  4.8963480e-02
  4.7925574e-01
 -6.4540040e-01
  2.8175923e-01
  5.1003844e-01
 -1.5937999e+00
 -1.3679855e-01
 -1.0707636e-02
 -1.8922017e-04
  1.8480609e-03
  8.8532528e-05
  1.4165940e-03
  1.7385789e-03
 -3.5152343e-04
  2.7877053e-03
  6.2822277e-04
  8.5031605e-01
 -3.0797842e-01
 -3.5765558e-01
 -1.6908372e-03
 -1.6773877e-03
 -3.6323386e-01
 -4.4364545e-01
  6.6600859e-01
 -2.2503135e-01
  1.0472356e-03
 -1.4858102e-04
  3.2040551e-02
  8.5066116e-05
 -1.3154077e-05
 -3.5218254e-01
 -2.3347123e-01
 -8.0666937e-02
 -1.4685873e+00
 -2.2740764e-04
  6.9349394e-03
 -4.0244699e+00
  3.3035836e-01
 -8.5612824e-05
  1.1032086e-01
 -1.6566776e-01
  6.2693536e-01
  6.8170083e-01
  1.4714078e+00
 -2.3071349e-04
  4.1228530e-01
 -1.9750118e-01
  1.0770385e-04
 -5.5283330e-05
 -4.2170420e-02
  7.7193538e-03
  2.5870797e-01
  1.8525039e-01
 -1.8054008e-01
  2.9221040e-01
 -1.9026369e-01
 -3.4114547e-02
  5.6568295e-01
 -2.6545942e-01
 -1.4605875e-01
  9.1414559e-01
 -2.0277749e-01
 -3.1681600e-04
 -2.1593556e+00
 -3.5336336e-01
 -1.4576415e-03
 -6.7945344e-05
 -2.0887523e+00
  2.6388782e-01
  9.5895410e-02
 -7.5561428e-01
  1.9534062e-01
 -9.8145121e-01
 -4.6690580e-02
 -7.4203163e-01
 -5.6298339e-01
 -5.0228846e-01
 -1.1336516e+00
  2.0676944e+00
  2.8620723e-01
 -1.1596249e+00
  3.5075149e-01
 -5.7727993e-01
  9.0270108e-01
 -3.6873829e-01
  2.0396490e-02
  7.7543920e-01
  8.7777573e-01
 -2.3623583e+00
 -1.8833899e-01
 -1.5317160e-01
 -4.5065907e-01
 -1.4620347e-01
 -1.0618347e+00
  4.5715243e-01
 -2.2996433e-01
 -5.6954116e-01
  1.2959214e-01
 -5.1452887e-01
  5.0075269e-01
 -4.5719624e-02
  6.3468355e-01
 -5.1090288e-01
  3.2946438e-01
  2.1281321e-01
 -4.9823105e-01
  1.1085790e-01
 -1.3377436e+00
  3.7802762e-01
 -1.0296216e+00
  9.0664762e-01
  5.6275178e-02
  1.5678983e+00
  4.9052170e-01
 -1.5991041e-01
  5.6026506e-01
  2.0794546e-06
  1.3833395e-02
  1.3878849e+00
 -6.0243241e-04
  7.6578171e-03
 -5.0781429e-04
  4.3794923e-02
  9.8889703e-03
  5.4130000e-01
 -4.9064945e-02
  5.2568816e-02
  1.7443264e+00
 -6.8747622e-01
 -8.6381137e-01
 -5.5591196e-01
 -1.4842346e-01
  7.7366465e-01
 -5.8211470e-01
  1.0073532e+00
 -1.5027319e+00
  2.4653725e-01
  1.6841166e-02
  1.5619284e+00
 -1.2896667e-01
  6.7928893e-05
  4.2017007e-01
 -4.8701465e-01
 -1.0472885e+00
  4.4756763e-02
 -6.4255923e-01
 -5.0956965e-03
  3.2237890e-01
  1.3964176e+00
 -9.9599850e-01
 -4.2022777e-01
  1.0782571e+00
 -1.3953467e-03
  1.1631167e+00
  3.9707354e-01
  9.3631417e-05
  2.8447658e-02
 -6.4157426e-01
  8.0917162e-05
  1.3778450e-01
 -3.0471608e-01
 -3.7111629e-02
  2.6458732e-04
 -5.2556910e-02
 -2.1088991e-01
 -1.8487358e-01
 -6.4335397e-04
 -1.1850568e-03
 -7.9321786e-04
  3.0372545e-04
  5.2445941e-04
 -1.0262061e-03
  8.4893557e-04
  4.4854332e-06
 -5.3478125e-05
 -2.3885870e-04
  1.0098999e-04
  6.0177805e-05
 -5.3338683e-04
  7.7762274e-04
  7.6647411e-05
  1.1563987e-01
 -3.2396353e-04
 -2.3147340e-03
 -2.1726439e-02
  2.0605735e-01
 -2.0269929e-03
 -3.0689282e-04
 -9.9507580e-04
 -9.0176408e-04
  1.5133985e-02
  2.0927242e-03
 -6.4173172e-04
 -1.7989401e-04
 -1.7701102e-04
  2.3296904e-03
  1.2950506e-03
  8.1943384e-05
 -3.3463372e-04
 -7.7974706e-05
 -2.3808256e-04
 -3.4753251e-04
  7.3579792e-04
  9.0532281e-05
  1.7599936e-03
 -4.7121011e-05
 -3.4601233e-04
 -3.0611822e-04
  3.3646051e-04
  3.0855366e-04
 -8.5210493e-05
 -8.6727407e-05
  8.3790679e-04
 -4.0264963e-04
 -9.9507556e-04
  5.1588857e-01
  5.2587450e-01
 -2.2763741e+00
 -1.1122499e-01
 -1.5317795e-01
  2.9725659e-01
 -7.7612573e-01
  5.4856330e-01
 -6.2400792e-02
  5.3146458e-04
 -8.6163366e-01
 -6.2417917e-02
 -7.1550434e-04
  1.0465442e-03
 -6.2850099e-03
 -9.0334542e-02
  1.7244887e-02
  1.4775472e+00
  2.1169219e+00
  3.9820433e-01
  8.1837976e-01
 -5.5053824e-06
  1.3990155e+00
  3.9130190e-01
  8.7871730e-02
 -1.3876164e-01
  2.3696169e-02
  3.4508437e-01
  1.0795300e+00
  3.5997562e-02
  5.7085810e-05
  5.3444603e-03
 -2.7087581e-01
 -2.1390768e-03
  1.4675438e+00
  2.4865415e-02
 -2.7778941e-01
  4.5886010e-02
  4.6450043e-01
  5.7019276e-04
  2.8449751e-03
  7.8682268e-01
  1.1263301e+00
  1.4991465e+00
  9.4271517e-01
 -3.3934519e-02
  2.4704716e-01
 -8.4426558e-01
  1.3400440e-03
 -1.0986247e+00
  1.3857745e+00
  5.0377828e-04
 -4.4489870e-04
 -1.3711022e+00
  2.6045427e-01
 -7.6614656e-02
 -3.5260540e-02
 -4.3315582e-02
 -1.0604250e-01
 -1.8457448e+00
  5.0888911e-02
 -5.9065238e-02
 -2.6223049e-01
 -4.5187742e-05
  4.1492074e-03
  1.4205774e-02
 -9.1183858e-05
 -1.2172562e+00
  6.8867212e-04
 -1.5827101e-04
 -1.3573983e+00
 -7.8196317e-01
  1.1472064e-02
  5.7607782e-01
  6.7008674e-01
 -2.5195659e-03
 -7.8008473e-02
  2.7461040e-01
 -1.7497616e-01
  1.7045962e-02
 -5.7164633e-01
 -4.2196545e-01
 -6.2755007e-01
  8.1883281e-01
  3.2636649e-03
 -1.4163627e-03
  3.5568550e-01
  1.3829829e-04
 -1.2898475e+00
 -5.0128591e-01
  5.3232586e-01
 -4.4999614e-01
  4.6269007e-02
  2.2630543e-03
  3.5152376e-01
 -3.6334124e-01
 -1.7754602e-01
  5.5618167e-01
 -1.8243958e-03
  1.3319358e-01
  4.3743399e-01
 -5.2922457e-01
 -4.1708420e-03
 -9.1361754e-02
 -9.3156055e-02
  2.3864503e-01
 -3.2991546e-04
 -1.1569183e-01
  9.4312713e-02
 -2.6522085e-01
  9.7824001e-01
  6.9127673e-01
  4.5269197e-01
  2.4663220e-01
 -2.1999708e-01
  2.3062880e-01
  3.5403964e-01
 -3.7759860e-04
  2.9241620e-04
  1.4704352e-04
 -1.2456238e-03
  1.2211591e-03
 -1.0774274e-03
  9.5255201e-04
  1.6168790e-03
  3.5869030e-04
 -3.0885508e-02
  2.6049607e-02
 -6.5151763e-01
  2.3509555e-03
  5.4132375e-05
 -4.4158044e-01
 -3.2343310e-01
  3.4285593e-01
 -5.7352102e-01
 -7.5210232e-01
  5.9611648e-01
 -2.3205513e-01
  3.5489103e-04
 -5.4176813e-03
  7.3864695e-04
 -5.7178934e-04
 -7.6946223e-01
  1.3749500e-01
 -9.2007840e-01
 -1.1883993e+00
 -7.1535127e-05
 -9.6073543e-04
  6.5518892e-04
 -6.3729212e-02
  3.1156233e-01
 -2.1463480e-02
 -5.4404527e-01
  2.0797637e-03
 -5.8627536e-04
  1.0976972e-03
 -4.3081960e-05
 -2.0751025e-04
 -8.9843655e-01
 -3.5784047e-04
 -2.6168008e-04
 -7.3462022e-03
 -1.4781674e+00
 -1.7956072e+00
 -4.1487761e+00
 -1.7676325e+00
  4.0515308e+00
  5.3769374e+00
  1.0945211e-01
 -9.5231628e-01
 -1.2131228e+00
  4.1591644e-02
  1.8018855e-04
 -4.5785835e-01
 -1.3594936e-03
  7.8394849e-05
 -2.1418682e-03
 -1.1653122e-03
  2.6264865e-04
 -2.2530342e-02
  3.2824627e-01
  8.5020989e-01
 -9.3755096e-01
  8.9788088e-04
  3.3820939e-01
 -6.5502858e-01
  3.1176418e-01
 -1.4816791e+00
  3.7308433e+00
  6.7366230e-01
 -1.5885255e+00
  9.4429678e-01
  6.3081920e-05
 -2.1062647e-01
 -2.6980412e-01
 -3.0858311e-01
  2.5531766e-01
  1.4945123e+00
 -6.7040557e-01
 -4.3705726e-01
  5.0178733e-06
 -2.4303618e-01
 -2.1027996e-01
  9.8949271e-01
 -3.4772927e-01
  3.8576255e+00
 -9.2796862e-01
 -4.3168230e+00
 -1.1745177e-02
  3.5187259e-01
  2.1427482e-01
  1.0841268e-01
  1.9973570e+00
  2.4289871e-02
 -1.1369421e+00
 -1.5044711e+00
 -1.2028701e+00
  2.8138292e-01
  1.9216359e+00
  1.1776717e+00
 -7.5259723e-02
 -5.1900280e-01
 -4.6252516e-01
 -4.1044164e-01
 -6.6810250e-01
 -2.7499134e-03
  2.7758303e-01
  1.8650897e-01
  2.7757289e-04
 -1.8585750e-01
  6.5547717e-03
  5.3673512e-01
  8.0495240e-04
  3.3147403e-04
 -1.5026617e-01
 -1.3695328e+00
 -2.0822067e+00
 -5.4619253e-01
 -1.4017105e+00
 -7.0191360e-01
  4.4592050e-01
  1.6133471e+00
 -1.4807966e-02
 -2.6142504e+00
 -5.0967783e-01
 -8.6394107e-01
  5.8487465e-04
  1.5895751e-01
 -1.9863373e-01
  5.7305992e-02
 -2.5022987e-01
 -1.3928242e-01
  3.6140361e-01
  2.7268818e-01
  1.4861946e-01
 -9.6457358e-03
  2.1137612e-01
 -5.8306420e-01
  5.4396154e-05
  2.0283272e+00
 -1.0263422e+00
  2.1741284e-01
  2.0851733e-02
 -9.3421942e-01
  6.5426185e-04
  3.2355756e-01
  5.1826662e-01
  1.1557269e+00
  7.1739523e-05
 -2.1738680e-01
 -6.4095205e-01
 -4.2391860e-01
 -4.6257827e-01
 -8.8719243e-01
  4.3762091e-01
 -2.3113176e-01
 -9.8124079e-02
  7.9660064e-01
 -6.2371612e-01
  3.2049770e-04
 -4.2163745e-05
 -4.7789424e-04
  8.0239799e-05
  7.5942499e-04
 -2.2464371e-03
  6.0090297e-01
 -2.4064840e-04
 -1.4161487e-05
 -5.1496273e-01
 -8.9920647e-03
  7.5044948e-01
 -9.5194304e-01
 -3.7644449e-01
 -1.0093746e+00
 -1.0833102e-03
 -1.7056438e+00
  4.6123093e-01
  3.6215415e+00
 -6.3640618e-01
  1.5992488e-04
  7.8889513e-03
 -7.6552860e-02
  3.0094665e-01
 -9.7708392e-04
  1.6459685e-02
 -5.6189399e-02
 -1.0111474e+00
 -4.0759277e-01
  1.2282932e+00
  4.7048015e-04
  2.5438463e-05
 -7.9352009e-01
  7.9832884e-04
  1.3328588e-01
  1.6116190e-01
 -8.1597102e-01
  3.0593818e-01
  5.8288544e-01
  1.4959625e-04
  2.0686923e-05
  7.6902080e-01
  8.4927608e-04
  1.9284645e-04
 -1.9774517e-01
 -1.7328289e+00
 -4.0434849e-01
 -7.1872354e-02
  8.4136915e-01
  1.5293579e-01
 -9.4697252e-02
 -4.4590226e-01
  2.7018800e-01
 -7.9698277e-01
 -5.9746439e-04
  1.6829461e+00
  4.9972644e-01
  8.7484601e-04
  9.6029490e-01
 -2.1832841e-03
  9.4999385e-01
 -8.9788885e-04
 -1.1910803e-01
 -1.1039013e+00
  6.4756483e-01
 -1.5015631e+00
  1.7001562e-01
 -5.6691664e-01
 -1.5758965e+00
 -4.6107775e-01
  9.8394108e-01
 -1.4260451e-01
 -1.2466718e+00
  6.4517277e-01
  4.8035342e-01
 -5.1301742e-01
  1.1531186e+00
  2.3215984e-01
 -9.6848965e-01
  2.8474886e-02
 -2.0996287e-01
 -1.6923854e-01
  4.9365848e-01
 -4.3457043e-01
 -2.5316826e-01
  9.9570215e-01
  2.0939323e-01
  4.1341328e-04
 -1.1797231e+00
  1.5311685e-01
 -4.5832094e-02
  5.9143412e-01
 -9.8783118e-01
  3.0121073e-04
  6.2407598e-02
 -1.0301679e-01
  1.1684539e-01
  4.0516493e-01
 -3.4773862e-01
 -1.1234288e-01
  1.3894393e+00
 -3.0765024e-01
 -1.3967608e-01
 -4.3483421e-01
  3.2357448e-01
 -1.5254445e+00
 -1.0496682e+00
 -3.6866989e-03
 -6.7941332e-04
  2.3929849e+00
 -8.0694741e-04
 -2.4248038e-03
  6.2127351e-03
 -5.6246203e-01
 -9.2130853e-03
  1.6451575e+00
 -1.5057044e+00
 -2.1651976e+00
  1.1731018e+00
  1.0736830e+00
 -3.9009660e-01
  6.7948812e-01
 -4.3612376e-01
  1.4442988e-01
 -5.4597083e-02
 -5.8708772e-02
  1.1240339e+00
 -8.2996076e-01
  7.8644687e-01
 -3.1449189e-04
 -6.1424375e-01
 -3.1316344e-02
  1.8910919e-01
  2.8812001e+00
  3.0554142e+00
  1.8742666e-01
  1.0961767e+00
  1.3286296e-01
 -1.2532920e-04
  2.4502513e-01
  4.3377388e-01
  1.9950417e-01
 -1.0629449e+00
  2.8335434e-01
  7.2972888e-01
  5.1717561e-01
 -6.6410244e-01
 -1.7492538e-03
  6.8186480e-01
  3.5499728e-01
  8.2298058e-01
  1.4633174e-03
 -4.6614048e-01
 -2.0487116e-01
 -3.4726936e-01
  3.3902329e-01
 -4.9092412e-01
 -4.6836215e-01
  3.3114187e-02
 -2.1456273e+00
  3.5340142e-01
 -1.3157256e+00
  3.9831272e-04
 -1.2434901e-02
  5.7941180e-04
  1.1780324e-04
 -5.0276885e-04
  2.6533584e-04
 -1.2782696e-03
  1.6241873e-04
 -3.1423956e-04
  3.9926013e-01
 -1.6731994e-02
  2.1693490e-01
  1.1097889e-03
  5.6297320e-01
  5.7021958e-01
 -3.6926535e-01
 -1.0719085e+00
  1.3829724e+00
  1.0609422e-03
  8.5903630e-03
  4.2111731e-01
  4.9529845e-01
 -5.9793677e-02
  8.4868014e-01
 -8.7891545e-05
 -2.9466312e+00
  5.0437677e-01
 -1.9050214e-01
 -1.5271374e+00
 -3.1025107e-03
  2.4209303e-04
  9.9470338e-04
 -2.0861151e-03
 -5.4870427e-01
  4.9750316e-03
  1.1468272e+00
  8.1629449e-01
 -6.7906463e-01
 -1.1838290e-02
  5.1401957e-04
 -1.2312058e+00
 -1.0701057e+00
 -1.0667002e+00
  4.3382024e-04
 -4.2395732e-01
 -1.9684343e-01
 -1.1438122e+00
 -5.3382482e-02
  6.1507386e-01
  4.4956568e-01
 -5.0120854e-01
 -1.8608335e-02
 -2.7912589e-02
  1.2539159e-01
  1.3955709e-01
  5.7293050e-04
  3.9541032e-04
 -1.1291783e-04
  3.1795329e-04
  2.2286388e-04
 -3.8856432e-01
  2.3285655e-04
  8.9810923e-04
  1.8956988e-01
  1.3268733e-02
 -2.1221890e-01
  9.7214943e-01
 -4.2738965e-01
  5.7090342e-01
 -1.6804677e-01
 -3.0963328e-01
 -5.1076251e-01
 -5.2137256e-01
  1.3301119e-01
  5.4586065e-01
 -9.4371386e-02
  6.2322628e-01
  4.8711784e-02
  9.7659074e-02
 -2.0949689e-01
 -8.4743984e-03
  6.0760118e-02
  1.7277169e-01
 -1.3088153e-03
 -2.3379475e-02
 -1.0519052e+00
 -1.8455468e-01
 -1.5234117e-01
 -1.5207259e-02
 -1.2817266e+00
  2.4977835e-01
  8.4061310e-02
 -5.1541483e-01
  4.8072520e-03
 -1.2047014e-01
 -2.5859076e-01
 -1.2770457e-02
 -9.1918188e-01
 -2.1343318e-01
 -3.2637888e-04
 -1.8526544e-04
 -4.0860257e-05
  1.3837545e-03
 -5.8167300e-04
  8.9238674e-05
 -8.6115739e-05
 -2.0626203e-04
  2.8817993e-04
  1.1601251e-04
 -1.1995551e-04
  1.6358636e-04
 -3.4351577e-04
  1.9888462e-04
  3.8198452e-04
 -2.5033145e-04
 -6.0959480e-04
  3.5328837e-04
 -6.7789183e-04
 -5.3569989e-04
 -6.6251865e-05
 -6.7515677e-04
 -1.8309917e-03
 -1.0317133e-03
 -6.3307554e-04
  4.3899333e-04
 -4.7701360e-06
 -1.8212846e-03
 -1.5710586e-03
 -3.6735210e-04
  9.9290592e-06
  2.3545442e+00
 -4.8704035e-04
  6.2797853e-04
 -1.8617712e-04
 -1.0666384e-03
 -1.1361390e-03
  5.8576395e-04
 -3.6615477e-04
  3.0083739e-04
 -7.7382225e-04
 -5.0687930e-05
  5.9436652e-04
 -9.6768228e-04
  3.2941639e-04
 -4.7312904e-04
 -5.9188541e-04
 -5.9505005e-04
 -7.3402094e-05
 -2.1000233e-04
  2.1901619e-04
  6.0606151e-05
 -1.5232180e-03
  6.4759603e-05
 -1.4342699e+00
 -9.2175424e-01
  3.2788688e-01
  4.1605255e-01
  4.2077929e-01
  1.0887382e+00
  5.5505753e-01
  1.1097899e-01
  7.3227996e-01
  5.1892285e+00
 -7.4231372e+00
 -2.5952625e+00
 -1.1844751e+00
  2.0250654e+00
  1.0828295e+00
  2.5319138e+00
  1.0795965e+00
  2.2448363e+00
 -5.7658583e-01
 -3.1611025e-01
 -5.4059941e-01
 -2.2176521e+00
 -1.2235200e+00
  4.3238606e-03
  1.0573559e+00
 -1.2814944e+00
  7.6708221e-01
  1.6250107e-01
  1.2899609e-01
  7.4841589e-01
  9.6864408e-01
 -1.1360168e+00
 -1.0658003e+00
  4.8701718e-01
 -6.8979412e-01
  1.2086152e+00
  5.7183886e-01
  2.0119271e-01
  2.8363779e-01
  2.0061162e+00
 -4.7500533e-01
 -7.9433852e-01
 -1.1833848e+00
 -1.1830834e+00
 -5.3270942e-01
  3.5937395e-02
 -2.5473288e-01
  3.2813919e-01
 -1.6375510e+00
 -5.6194675e-01
  2.1335050e-01
 -8.1915790e-03
 -2.4030118e-01
 -7.7780560e-02
 -1.0873599e-01
  1.4423410e+00
  7.0058078e-02
  2.0043989e-01
 -3.6345267e-01
 -1.9912766e-01
  3.0494148e-01
  3.8937998e-01
 -1.0390166e-01
  1.9240523e-02
  1.2123541e+00
 -1.0484344e+00
 -3.6006869e-04
  1.6209434e-04
 -7.7939320e-01
 -1.0284848e+00
  1.5616596e+00
  7.1437120e-01
 -2.0727023e-01
  2.8027511e+00
  2.8292540e-01
  9.8131591e-01
 -1.1311015e+00
 -6.5398562e-01
  4.0973008e-01
 -8.8169873e-02
 -1.4221858e+00
 -6.5000641e-01
 -3.7663758e-02
  3.5039478e-03
  4.3023738e-01
 -3.7763596e+00
  2.7342519e-01
  4.1004349e-02
 -1.2939806e+00
  1.4531574e-01
 -3.6990103e-01
  1.6543283e-01
  4.1630378e-01
  5.6393845e-03
 -4.3351800e-04
 -5.3786688e-02
 -7.3487139e-01
 -8.0890012e-01
  1.0845537e-01
 -2.7723249e-02
 -1.8241672e-01
  1.7439693e-01
  9.3803304e-01
 -1.5323967e+00
  1.3711248e-01
  1.9779854e+00
 -1.3161304e-04
 -3.4479648e-02
 -5.3109360e-01
 -5.7774550e-01
 -8.1999905e-02
 -9.0398885e-02
  9.1349334e-02
  2.3572960e-01
 -3.4173515e-02
  7.6396835e-01
 -8.9455545e-02
  8.3437175e-05
 -3.1768013e-04
 -1.3060530e-03
 -3.7527981e-04
  3.5702274e-03
  3.1296877e-06
 -5.3627788e-05
 -5.1414926e-04
  1.2088311e-03
 -2.1832134e-03
 -3.9278766e-05
 -2.6686835e-01
 -1.7815264e-04
  8.5420601e-02
  6.8281427e-02
 -2.3810114e-01
 -3.5709835e-04
 -2.5022911e-02
  1.0100479e-04
  1.1664495e-01
 -5.5076463e-05
 -4.3112171e-04
 -4.7507064e-04
 -3.1449530e-05
  4.0131115e-04
 -6.0141776e-02
  8.3293318e-04
  1.1799355e-03
 -7.0620529e-02
  3.5278282e-01
 -3.1834698e-04
 -4.2183071e-04
 -3.0545858e-04
 -2.1631883e-04
 -1.4685987e-03
 -3.0610642e-01
  7.2510552e-01
  6.1225306e-02
  4.3027225e-04
  1.3869021e-03
 -9.9405588e-05
 -1.8240811e-01
 -1.3046917e-04
  1.6625108e-04
 -1.8198339e-04
  1.2343773e-01
  2.1375978e-04
  2.3093487e-01
  2.2475800e-04
  5.7007927e-01
  1.8136050e-05
  5.4974156e-05
  2.7128239e-04
  2.7584005e-02
  1.7135264e-04
 -6.3956875e-05
  2.6723312e-04
 -1.5644834e-04
  1.9754904e-04
  3.1245378e-05
  3.8801643e-04
 -4.6733083e-04
  2.3819059e-04
  1.4966882e-04
 -1.5283218e-03
  6.8702930e-06
  9.8110904e-06
 -2.4767822e-04
 -9.5211552e-04
 -5.1839306e-04
 -3.5665435e-04
 -6.5095030e-04
 -4.9680646e-04
 -4.7836912e-01
  7.1126240e-05
 -4.0848640e-04
  2.4285595e-04
 -6.3007209e-04
 -1.4181818e-04
 -1.4646787e-03
 -1.1505940e-03
  2.1378910e-05
 -8.5873462e-02
 -3.3712189e-04
 -1.4325865e-03
  1.0231815e-03
 -8.0542179e-04
  5.2765239e-04
  1.4721270e-03
 -5.7358184e-04
 -4.5158542e-04
 -1.0424888e-03
 -6.7472254e-04
  6.3412602e-04
  3.6040862e-04
  1.7820874e-05
 -1.0487208e-03
 -9.2656579e-04
  3.1858921e-04
 -4.2374137e-01
  2.6598510e-01
 -2.0068868e-01
  5.8847096e-02
 -7.4631459e-01
 -1.8824910e-01
  2.0057836e-01
  1.3745722e-01
 -6.7301504e-02
 -1.2827003e-03
  1.3117366e-01
  2.0488694e+00
  2.1804962e-03
 -2.0216496e-05
  2.0889305e-02
  5.5494625e-03
 -5.6439388e-01
 -7.2752625e-01
  1.5051832e+00
 -1.3831258e+00
 -5.6955338e-01
 -3.6373973e-02
 -2.0926163e-01
  1.2237754e+00
  5.0513847e-03
  1.0875800e-01
  8.7022386e-02
 -3.1149414e-01
  5.9716696e-01
  1.1211381e-02
  8.4275752e-02
  1.5644746e-01
  1.0799454e+00
 -7.6389921e-01
 -2.6403981e-01
  1.9893642e-03
  2.4082665e-01
  3.7195465e-01
 -2.8614024e-02
 -2.7751604e-01
  4.7397327e-01
 -5.5606321e-02
 -2.6881178e-03
  7.7465856e-01
 -2.2779086e-01
  5.9636712e-01
 -1.9427593e-04
 -6.2946570e-01
 -7.8369987e-05
  1.6510113e-01
 -4.5842460e-01
  1.9475138e-02
  8.4623946e-03
 -2.6325756e-01
  6.6681409e-01
 -4.4083700e-01
  2.9535496e-01
 -3.7150601e-01
 -1.9187808e-02
  8.4849286e-01
  2.7374700e-01
 -1.1669119e-01
  5.4330999e-01
  2.3903095e-03
  1.4859597e-01
 -3.2059878e-02
 -1.3294698e-04
  7.6695631e-04
 -4.1550484e-01
  9.8605789e-03
 -2.1432588e-01
 -3.3617258e-02
 -2.7266961e-01
  7.7302232e-02
  6.3294291e-01
 -1.9615994e-01
  9.1665584e-01
  2.1478314e+00
 -9.5492385e-02
  1.5963043e-01
  1.4896767e-01
  1.7012164e-01
  1.8874481e-01
 -3.6219636e-01
  6.7019358e-04
  6.3191211e-01
  9.8652251e-02
 -5.1694918e-01
  2.0455374e-01
  3.0501640e-01
 -4.0361619e-01
  3.9073694e-01
  3.0202454e-01
  2.8352845e-01
  1.0235984e-03
  5.0678569e-01
 -1.1343693e+00
 -3.6219910e-01
  5.3052765e-01
 -1.1191382e+00
 -5.0912547e-01
  2.5936710e-02
  2.7329198e-04
 -3.4650281e-01
  3.9545810e-01
  1.5804373e-01
  2.2883263e-01
  1.4051338e-02
 -3.2531342e-04
  1.7165770e-04
  2.2968388e-04
  5.7309092e-04
 -6.8220818e-01
 -1.4920036e-04
  1.0216540e-03
  3.8534809e-02
  2.9060760e-04
  3.3175352e-04
  1.5156600e-04
  4.2009800e-05
 -8.2381543e-05
 -9.7399607e-04
  4.3323682e-05
 -4.3241156e-04
  2.0070492e-04
 -6.8637979e-04
 -3.5271866e-04
 -1.1920493e-04
  6.5706798e-04
  2.1070117e-04
 -1.3304461e-03
  8.1795600e-04
  6.6385011e-04
  3.8931350e-05
 -1.5300927e-03
  3.3228000e-04
 -5.2776979e-04
 -5.9062604e-06
 -3.9478723e-04
  1.6551495e-04
  2.5659427e-04
  7.5667375e-04
 -4.7085938e-04
  1.4153227e-03
  1.1590800e-04
  4.6082976e-04
  3.6599697e-04
 -6.3125178e-04
  2.9140382e-04
 -3.7964646e-04
  5.7233112e-05
  1.1625524e-04
 -6.4946498e-06
 -3.8345950e-04
 -2.3955782e-04
 -1.6296144e-05
  1.1080385e-03
 -2.5581018e-04
  3.9438807e-04
  5.0722109e-04
  5.6944460e-05
 -5.2194670e-04
  1.2166949e-01
 -6.5501451e-02
 -4.5356151e-01
 -1.7950174e-01
 -1.4607584e-01
 -1.8212047e+00
  1.2372443e-01
 -7.0632868e-02
 -9.1781712e-01
 -9.5893729e-01
 -6.2634885e-02
 -5.0627685e-01
 -1.2455996e-03
  1.4602710e-03
 -2.8405187e-03
  7.8145224e-01
 -4.0644783e-01
  1.3252434e-01
 -4.8769414e-02
 -2.0141473e-01
 -2.7876320e-01
 -2.1104805e-02
 -2.8019059e-01
  5.5746782e-01
 -2.4229987e-01
  1.9466940e-01
  8.1102198e-01
 -2.1564128e+00
  1.3217509e-01
 -1.8020236e+00
 -9.8633589e-03
  1.6355428e-01
  3.1939179e-01
 -1.4963180e-01
  8.9261609e-01
  3.2398954e-01
 -6.8063781e-02
  1.8856270e-02
 -1.1354908e+00
  6.1057973e-01
  3.4875250e-01
 -8.4724478e-02
  8.5487477e-02
  2.5644192e-01
 -3.2324073e-01
  5.4996073e-01
 -2.6442006e-01
 -9.1530569e-02
 -2.5708299e-02
 -1.8497093e-02
 -3.0853713e-01
 -4.6109771e-03
  4.7254056e-01
  4.2645967e-01
 -4.7013119e-02
 -3.5295931e-01
  2.0821023e-01
  5.6564987e-01
  1.1280677e-01
 -2.5362083e-01
 -8.6213544e-02
 -1.8292136e-01
 -1.9570954e+00
 -6.0882309e-04
  3.9129367e-01
  1.3261662e-03
  3.4833307e-04
 -1.5889517e-04
  7.0290676e-05
  2.4105425e-04
  3.0059472e-04
 -6.9783386e-03
 -7.2831199e-02
  3.0027369e-01
  1.7341709e-03
 -2.3096325e-02
 -2.1064665e-02
 -2.2563793e-01
  4.3731965e-02
 -4.0717959e-01
  2.4211492e-01
  2.5994745e-01
 -1.5286321e-02
  5.2115813e-02
  2.9781536e-04
  1.1105477e-03
 -1.5147930e-03
  6.2758819e-04
  5.9031998e-03
  2.7041147e-03
  2.4362896e-03
  1.1173256e-01
 -5.3972234e-03
  9.1145769e-02
 -6.5335706e-02
  6.2549494e-02
 -2.3586089e-02
 -2.5284833e-01
 -5.6786189e-04
  9.8938708e-06
 -1.9725232e-04
 -5.9273332e-02
 -9.9398589e-05
  2.7775407e-02
 -8.5315406e-02
 -2.3967170e-04
  9.0242719e-04
 -1.2490259e-02
  4.4089602e-03
  2.0596960e-01
 -3.7525845e-01
 -1.7761518e-01
  3.4898555e-01
 -7.4003279e-01
  3.9719591e-01
 -9.5227242e-02
  6.2806851e-01
  3.4417295e-01
 -1.3475292e+00
 -1.4062519e-03
  1.4020121e-04
  2.5868785e-01
 -3.5722257e-04
  4.6014427e-03
  3.3414358e-01
  6.5604562e-01
 -1.0277976e+00
 -2.9699486e-03
 -1.1889852e+00
  1.5536854e+00
  8.6477357e-01
 -8.4487158e-01
 -8.6127943e-01
 -1.0741676e+00
  5.5108923e-01
 -1.4189018e+00
 -7.7194566e-01
 -1.1489303e-01
 -1.2969545e-01
  4.4460759e-02
 -1.0648412e+00
  2.5014874e-01
 -4.1533715e-01
  3.6310762e-01
  7.6291293e-01
 -2.2364198e-03
  3.7180024e-01
 -9.3138272e-01
 -5.2093577e-01
 -6.5155196e-01
  1.2980703e+00
 -1.3152633e+00
  1.4720438e-01
 -1.3618187e+00
  4.9259153e-01
 -2.4619532e+00
  8.7270240e-04
 -3.3639872e-01
  2.1832211e-01
  6.5306318e-01
  1.3142115e-03
 -1.9800643e+00
  9.3665764e-02
  4.4835612e-01
  1.3342330e+00
  3.5064098e-01
 -6.9762833e-02
  7.6713830e-01
 -5.8417094e-01
 -5.7707810e-01
 -1.7165031e-01
 -1.1980111e-03
 -7.8186364e-05
 -6.3275424e-05
  6.2446902e-04
 -1.9723045e-02
  7.2943681e-01
  2.0009367e+00
 -1.4514800e+00
 -4.1096840e-02
 -2.3240446e-01
  4.6822628e-01
  1.4417412e+00
  2.8522214e-01
 -4.8926112e-01
  1.9844167e-01
  1.3380864e-02
  4.5322824e-01
 -1.6712269e+00
  1.0845892e+00
 -6.9143903e-01
  6.4907116e-01
 -2.3048944e-04
  6.2023234e-01
  7.3957384e-01
 -6.1660185e-02
  2.7856454e-01
 -1.7749727e-01
 -7.7504605e-01
 -1.2868002e-01
  1.1047329e-01
 -4.9214524e-01
  6.8934524e-01
  1.6477235e-02
  3.9380342e-01
  1.1205248e+00
 -9.4060427e-01
  9.7762287e-01
  8.0606985e-01
 -7.2017521e-02
 -1.0510774e-03
  7.7075355e-02
  6.3643849e-01
  5.7905394e-01
  2.3765808e-01
 -9.5219836e-02
  2.5369205e+00
  1.0474117e+00
 -7.5855553e-01
  3.8480890e-01
  3.6101025e-01
  4.9526587e-01
 -9.6516436e-01
  4.7037783e-01
  1.0537836e-01
  4.9158105e-05
 -7.0631117e-01
 -8.0354774e-04
  1.8021186e-04
  2.8264942e-04
  1.2833056e-03
  2.9008209e-03
  1.8785393e-04
 -4.3207951e-05
  9.2296052e-01
 -1.0008355e-04
  1.1849917e-01
  2.9322726e-04
  8.3494652e-03
  7.3159522e-01
 -1.1008314e-04
 -1.2002293e-04
 -2.1901719e-01
  7.2388496e-04
 -3.2854617e-01
 -1.3369310e-04
 -3.2631753e-04
  9.8451898e-02
 -7.3359534e-02
 -1.8821746e-01
  1.1806839e-01
  2.9627923e-03
  2.9678011e-01
  7.4795747e-01
 -2.2473123e-03
 -1.3087578e-05
  8.3389539e-05
  6.3153297e-02
 -1.4400771e-03
  1.7057694e-04
  4.6700388e-01
  3.5334896e-02
 -1.9050328e-04
 -6.3483529e-02
 -3.1937720e-04
 -2.4636259e-04
 -5.9403153e-03
 -5.4461840e-03
  3.0338815e-05
 -3.7937963e-01
 -2.2775002e-01
 -6.1499870e-01
  1.4801012e-01
 -1.5165326e-03
  6.7412519e-01
  3.8182586e-01
  1.2367609e+00
 -3.5295722e-01
 -1.1110163e-01
  2.4148045e-04
  6.0550538e-03
  4.4717873e-04
 -2.1117407e-05
 -2.0806423e-04
  1.2457810e-03
 -2.2245192e-03
  1.3489693e-03
 -3.0694824e-05
 -8.8333207e-01
  2.6052620e-04
  3.1017458e-01
 -1.5196903e-04
 -7.1904814e-01
 -3.2717192e-01
  5.9743840e-03
 -4.3269447e-03
  4.2662919e-01
 -1.6496378e-01
  1.0821866e+00
 -5.3956511e-04
 -2.3795229e-04
  5.6681317e-01
  4.7679275e-04
 -9.5502182e-04
 -8.3128953e-01
 -9.8976530e-03
  1.0058694e-01
 -6.0726291e-01
 -4.0380337e-04
  1.0821372e-01
 -4.4950273e-05
  6.7431766e-01
 -5.1512010e-03
  7.1409762e-05
  4.2259932e-01
  1.1216363e+00
  2.3069836e-03
  4.5666709e-03
  3.2524491e-05
  4.9849326e-04
 -3.6347859e-02
  1.3316731e-02
  3.5198848e-04
 -2.4691333e-01
 -2.6835466e-04
  3.3084498e-04
 -9.3279332e-02
 -3.5288873e-01
 -5.7762463e-02
  2.5194418e-01
 -2.5886978e-04
 -1.6765833e-04
  3.8059421e-02
  4.7562422e-05
  1.2600183e-03
  1.3138108e-03
 -4.7606017e-04
 -1.5677224e-03
  4.3137433e-04
 -9.6801276e-05
  2.8672701e-04
 -2.8432914e-04
 -3.9922637e-05
 -1.9900143e-04
  5.6054276e-01
 -1.5522119e-01
 -3.7424709e-04
 -2.0883521e-03
 -1.0374861e-04
  7.8650669e-04
 -3.6297721e-04
  5.7570630e-04
 -2.4655368e-05
  1.6905713e-03
  2.6404086e-04
 -1.8575203e-03
 -3.0586566e-04
  1.5732461e-04
 -1.1803248e-04
  9.9942402e-04
 -1.5579294e-04
  2.6814508e-01
  2.4308292e-03
  4.6695498e-04
 -1.0051986e-03
  1.3728633e-04
 -1.3237925e-04
  5.2527466e-04
  2.8896259e-02
 -4.3919194e-04
 -8.3231454e-04
 -5.5099442e-04
  1.3913208e-02
 -1.7413634e-04
  2.8851242e-03
  2.3217690e-04
 -2.7731518e-04
 -5.2523334e-04
  6.7540407e-02
 -2.2461967e-01
 -3.0314550e-02
 -6.6083685e-02
  5.1835582e-02
 -4.3202314e-01
  3.3469206e-01
 -1.5000141e-01
 -3.6059320e-02
  5.9825885e-01
  7.5139548e-03
 -2.5121579e-01
  1.2515129e-04
  1.7764217e-01
 -2.4631454e-01
 -3.5740831e-01
  1.7604260e-02
  9.5587337e-01
 -1.0261212e-01
 -6.0202545e-01
 -1.9098176e-01
 -2.8141317e-01
 -7.8256220e-01
 -8.1758536e-02
 -1.8724245e-01
 -7.7327931e-01
 -7.6521911e-02
  2.8858343e-01
  2.9991548e+00
 -3.2119724e-01
 -3.8235856e-04
  2.4370428e-02
 -1.2320582e+00
 -4.5955822e-01
  1.2500235e-01
  3.9103633e-01
 -5.8826685e-01
  6.3926570e-02
  5.0969791e-01
  1.7447665e-01
  4.4902045e-01
  7.1910334e-01
 -1.1543612e+00
 -4.3231758e-01
  2.9996130e-01
 -1.2831724e+00
  4.9625701e-01
 -6.3139826e-01
  4.3190539e-02
 -1.3034494e-02
  3.0676892e-01
 -3.8775186e-05
  1.2267929e-02
 -4.3485640e-04
  8.7786309e-02
 -3.7070196e+00
 -3.4441414e-01
  5.2381450e-01
  1.7320533e+00
 -3.2146811e-01
  1.3423150e+00
  1.0508574e+00
  7.4571049e-01
 -4.4679460e-03
  3.7257027e-02
  1.6720638e+00
  2.4524666e-04
  7.9801345e-01
  1.0149070e-02
 -1.0165623e-03
  5.2459657e-01
 -9.8304361e-01
  7.3793523e-02
  4.9680015e-01
 -5.7241553e-01
 -8.5817772e-01
 -3.3107784e-01
 -1.0662025e+00
 -4.8771006e-01
 -8.2230002e-01
  5.1296508e-01
 -9.3834126e-01
 -2.5461712e-01
  1.1423486e+00
 -4.5495987e-04
  9.5568562e-01
 -9.6781880e-01
 -1.8758394e+00
  1.4295285e+00
 -1.4182799e+00
  2.1375900e-03
  5.6674528e-01
  1.8212779e-01
  4.9648806e-01
 -7.2759539e-02
 -1.0020307e+00
 -5.8286600e-02
 -3.4857476e-01
 -3.7861362e-01
 -6.5178261e-03
 -5.2789515e-01
 -6.5005577e-01
 -3.7528247e-01
 -1.4632088e-03
  4.9641398e-01
 -4.2948472e-01
  1.0502152e-04
 -8.3274108e-01
 -8.5905504e-01
 -1.1605982e-01
  3.6995664e-01
 -1.2735096e-01
 -1.8782461e-01
  1.6647470e+00
 -6.2682349e-03
  3.9800134e-01
  3.5548395e-01
  1.5125717e-03
  4.5108163e-01
 -3.1638730e-02
 -3.7658042e-03
  1.0253449e-01
 -1.5717674e-03
 -3.8381349e-03
  4.9420297e-03
 -2.4417839e-05
 -4.7485209e-01
 -1.0708921e-03
 -3.4663197e-01
 -7.3462536e-05
 -7.2700217e-02
 -2.2008014e-01
  4.0778800e-04
 -2.8233571e-02
  5.6491286e-01
  1.4803246e-02
  5.3980619e-01
  8.9396708e-02
  8.4484107e-04
  3.9842191e-01
  2.6284361e-02
  1.4069748e-01
 -3.9711174e-01
 -2.5266154e+00
 -3.6694571e-01
 -5.9406650e-01
 -2.1260129e-02
  4.3304282e-01
 -4.0704581e-01
  1.7265190e-01
 -6.1592815e-04
 -1.7709455e-01
  2.3432224e+00
  5.3118783e-01
 -1.6477919e-01
  2.0529829e-04
 -2.6462926e-04
  4.1394690e-01
 -5.9182957e-02
  5.3542775e-01
  1.1589883e-04
  4.7051040e-03
  6.2020761e-01
  3.5146943e-01
 -1.1782697e+00
  5.0132453e-02
 -5.7301465e-02
 -5.5068296e-01
 -2.0736883e+00
 -1.6799819e+00
  2.5355831e-01
 -2.3129925e-03
  1.3030970e-03
  2.0719483e+00
  5.1959488e-03
 -1.2334110e+00
 -6.6176146e-01
 -2.1426701e-03
 -4.5517594e-01
 -2.2393379e+00
 -3.0254617e+00
  7.3999321e-01
 -8.8697374e-01
 -1.7504056e-01
 -2.9360621e+00
 -1.2222338e+00
  2.1942041e+00
 -3.9866582e-01
  1.7010257e+00
 -1.3100469e-01
 -7.4803062e-02
  1.6282334e+00
 -7.6501870e-01
 -8.1699383e-01
  8.3728033e-01
 -1.4303716e+00
  4.5763049e+00
  6.0645655e-02
  1.5744828e+00
  2.9284394e-01
 -1.6443489e+00
  5.9017944e-01
 -2.5480610e-01
 -9.7863287e-01
 -4.4787291e-01
  9.6780115e-01
 -1.8352139e-01
  3.7563376e+00
 -1.6781465e+00
  2.1480563e-01
  1.2554567e-01
 -1.5625720e+00
  9.5515274e-02
 -9.9705112e-01
 -9.9995866e-02
 -5.8873284e-01
 -1.9607051e-04
 -9.6944638e-04
 -6.3178589e-04
  6.7121582e-05
 -3.0898009e-05
  7.1505845e-01
 -2.6587790e-04
  9.0620236e-04
 -9.0365874e-04
  6.1747554e-04
 -3.3931201e-04
 -3.5688179e-04
 -6.3880929e-04
  3.4842640e-04
  1.9065690e-03
 -7.1278261e-04
 -5.1021176e-05
  7.6714379e-04
 -2.1934921e-04
 -1.7007670e-04
 -1.9137384e-04
  1.4386848e-03
 -9.3491699e-06
  1.6193934e-04
 -3.8781040e-04
  1.6311213e-04
  2.3757758e-04
  3.6219691e-04
  7.6855242e-05
 -2.6387075e-05
 -1.5643520e-05
  4.8674241e-04
 -2.3148743e-05
  2.3261347e-04
 -1.6649793e-03
  3.4340523e-04
  1.6263266e-04
  5.6944229e-04
  1.0453010e-04
 -2.6009156e-04
  8.9534951e-05
  2.3916567e-04
  6.6511024e-04
  2.5412114e-04
 -2.7537707e-04
 -1.0722772e-04
 -3.1378877e-05
  1.6463581e-04
 -8.1507016e-05
 -9.4408082e-04
  3.6451544e-05
  3.7023675e-04
  2.7184384e-05
 -8.6569058e-04
  1.8739419e+00
 -4.8316658e-01
 -1.1766099e+00
  1.0712323e+00
  3.3548968e+00
  2.8935914e+00
  2.2030875e-01
 -1.9648166e-04
 -1.0397410e+00
 -2.1890653e-05
  1.8424894e-04
 -2.7358659e-05
 -4.9662376e-06
 -3.7298596e-04
  4.9460289e-04
  1.8587481e-03
  3.8934246e-05
 -2.4213146e-03
 -7.0302602e-05
 -5.2537641e-04
  5.4617663e-04
  1.7236962e-06
 -3.7737479e-04
 -1.4897344e-04
  3.2310680e-04
 -2.3577700e-04
 -3.1755047e-03
 -1.2635521e-03
 -1.8467680e-02
 -1.2765343e-03
 -1.0264208e-04
  1.0425283e-03
 -4.9785133e-03
 -3.0879906e-04
 -2.3355012e-01
 -6.4200634e-05
 -1.2160451e-04
 -1.0607675e-01
 -5.3488842e-04
  1.0299524e-03
 -1.0341383e-03
  3.0944141e-04
 -3.5084545e-04
 -8.2554342e-04
 -5.4795190e-04
 -4.0207739e-04
 -2.3791892e-04
 -3.4713969e-04
 -9.2577754e-04
 -5.0669372e-05
  2.8002323e-04
 -3.2256622e-04
  1.8815663e-04
  3.7706143e-04
 -2.3496099e-01
  4.2792358e+00
  4.9108632e-02
  8.0758595e-01
  2.5208253e-01
  7.9038751e-01
 -2.3040342e-01
 -1.0809025e+00
  1.4968302e-02
 -7.0616056e-04
 -4.8653850e-01
  1.5122494e+00
  3.8677651e-01
  2.1057425e-01
  6.2591034e-01
 -1.1445118e-04
 -1.2199945e+00
 -1.2385734e+00
  9.4119239e-01
  6.9844872e-01
  1.1152607e+00
  2.2454822e+00
  8.4694576e-01
 -9.8385149e-01
 -2.3284667e+00
 -7.1766388e-01
 -5.4473705e-03
  2.1108878e+00
  1.6254677e-01
  1.6202252e-01
 -7.0676845e-01
 -1.6323071e+00
  5.1263541e-01
 -6.8882918e-01
  1.2872058e+00
 -6.2807894e-01
  3.2076421e-01
  5.4808520e-02
 -9.6229300e-02
 -1.7028048e+00
  1.9087566e-01
  2.2008859e-01
  7.5335228e-03
  9.8753232e-01
  1.8317170e-01
 -1.1660671e+00
 -8.1405766e-02
  3.8331160e-01
  3.5672849e-05
  1.6076742e-01
  1.7322620e+00
 -4.5007312e-01
 -2.2083409e+00
 -4.3901391e-02
 -7.5654207e-05
  3.0140372e-04
 -8.7065200e-07
 -8.8907756e-05
  9.2383862e-01
  2.1545705e-03
 -3.6012023e-04
  3.4453806e-06
  1.4918406e-03
 -5.3073285e-04
 -1.7357392e-04
 -4.0132254e-06
 -1.7310028e-04
 -2.1196580e-01
  6.4081192e-04
  1.0482336e-03
 -1.7793839e-04
 -4.9181451e-04
  5.1807961e-04
  5.6697248e-04
 -9.7768090e-04
  5.0474692e-04
 -9.6496893e-04
  7.7603484e-04
  4.0386582e-04
  5.2950566e-04
 -3.9675084e-05
 -4.4229073e-05
  6.6976376e-05
  2.7821850e-05
 -4.1203377e-05
 -4.3941973e-04
  8.5975620e-04
  2.4402996e-04
 -1.0416049e-03
 -7.7100987e-05
 -3.8331051e-04
  8.4029866e-04
  1.1292574e-04
 -1.4556885e-03
 -4.7912769e-04
 -6.0508144e-05
 -6.5010390e-04
 -6.0852792e-05
 -4.0891671e-04
  1.8113528e-04
  2.0458538e-04
  6.7629655e-05
  7.0165878e-04
  1.4313303e-03
 -6.1034574e-04
  1.1360822e-03
 -3.6492656e-05
  2.6957053e-04
 -2.7737841e-01
  1.1706562e+00
 -6.6044283e-01
  1.8366284e+00
  7.2107929e-01
 -2.8752595e-02
  9.6252483e-01
 -1.1680636e+00
  5.3254706e-01
 -1.0188078e-03
 -1.2803762e-04
 -1.7226339e-04
 -1.1895376e-04
  2.1973538e-05
 -4.9306138e-04
  1.0489876e-04
  5.6555279e-02
 -3.9506583e-03
 -2.9015255e-01
 -4.8464355e-01
 -8.5432130e-01
  6.1667073e-05
 -4.2052189e-01
 -5.8177149e-01
 -5.1086372e-01
 -2.4169393e+00
 -6.1172658e-01
  6.2016690e-01
  1.4968942e+00
  6.3450017e-04
 -5.9459120e-04
  1.7881137e+00
 -1.1659816e-02
  2.2881957e-04
 -1.0575006e+00
 -9.8869109e-01
 -2.4758471e-02
  3.7450254e-01
 -1.1372082e+00
 -2.2291756e-01
 -1.4950208e-02
 -1.4419509e-01
  9.7564637e-04
 -1.2340059e-01
 -1.9680887e-01
  9.0530328e-04
  2.4060757e-04
 -6.2737066e-01
  5.4018415e-04
 -1.6754962e-04
 -1.9429695e-02
 -2.3350036e-01
  2.9110053e-05
  8.8937545e-01
 -1.7624237e-05
 -1.0335627e-05
  3.0721669e-04
  4.7911875e-04
  1.4204808e+00
  1.7871117e-04
  9.2650962e-06
 -2.4392143e-04
 -3.3563827e-04
 -3.2750017e-05
 -2.0575299e-04
 -4.9263665e-01
 -3.4076456e-04
 -1.0348612e-03
  1.1377476e-04
 -1.4186277e-04
  3.9152543e-05
  6.7020628e-05
  2.4641436e-04
  1.6732238e-03
 -1.7606227e-03
 -2.5184967e-03
  4.1370004e-06
  1.2058105e-04
 -2.7356498e-04
  5.0329737e-04
  7.4901484e-04
  6.0050242e-04
  1.5775015e-04
 -5.1555550e-04
 -2.8063581e-04
  2.9254626e-04
 -6.3487451e-04
 -1.2404476e-04
 -1.0428504e-03
  2.8808651e-04
  2.8602782e-04
  3.9061613e-04
 -3.3316371e-04
  2.3088040e-05
  1.7466600e-04
  6.7090429e-04
 -2.1456201e-02
 -1.6569781e-04
  8.0772536e-04
  8.7494707e-05
 -1.4663512e-04
  7.5667677e-04
  1.8246088e-04
  3.9046448e-05
 -1.8273835e-03
 -3.0408229e-04
  2.3487428e-05
  7.6156715e-04
 -1.2032348e+00
  2.9021361e-01
 -9.2526746e-01
 -6.7320913e-01
 -3.3669926e-02
  1.8680830e-01
  4.9007034e-01
  7.9368562e-02
 -2.9776585e-01
  5.0880235e-01
  2.4508178e+00
  5.8439136e-02
  8.0041331e-01
 -1.3757949e-01
  7.5269130e-04
 -1.3973165e+00
 -6.5008515e-01
  1.5070145e-03
 -5.4067177e-01
 -7.8755438e-02
 -3.0426770e-01
 -4.2087588e-02
 -5.7953191e-01
  5.7119453e-01
  1.7634352e-01
  3.9088920e-01
  1.8717992e-01
  1.2953342e+00
 -2.0977660e-01
 -3.9944205e-01
 -4.8301450e-04
  1.3344164e-01
 -7.2243023e-01
 -4.5186888e-02
  1.0317109e+00
  9.6272364e-02
 -6.0311235e-02
 -8.6308569e-03
  7.9918486e-01
  1.4872341e-01
  8.0004919e-01
 -5.1127422e-01
 -9.4743204e-01
 -7.3402390e-02
 -1.0427570e+00
 -1.0682206e+00
  4.1065720e-04
  1.8973307e-03
  8.0265629e-04
 -8.4129170e-02
 -6.9903195e-01
 -2.0716512e-01
  1.3580151e-01
 -9.8217130e-02
  3.2151520e+00
 -1.9990888e+00
 -3.9903978e-01
 -1.3325425e+00
  2.4858470e+00
  9.1328353e-01
  8.7876815e-01
  1.0830851e+00
  2.5289510e-03
  2.6165888e-01
 -1.2420214e-03
 -2.4530582e-01
  1.9629365e-04
 -2.9021299e-03
 -2.8550424e-04
 -4.0225028e-03
  6.3605469e-01
  1.6828702e-03
 -3.7153482e-01
  1.6221288e+00
  1.7980792e-01
  1.6505618e-03
  1.4486569e-01
 -1.4931539e+00
  3.0908754e-01
  2.6041016e-01
 -7.6070797e-01
 -1.2058039e+00
  2.1121807e+00
 -2.4897122e-01
 -2.7860692e-01
 -9.8343152e-01
 -3.1107379e-04
 -9.3596980e-05
 -5.2214032e-01
  3.7606776e-05
  6.3134384e-01
  7.8923345e-01
  3.4659541e-01
 -5.8854148e-02
 -5.8946046e-03
 -1.1944470e+00
 -3.7691612e-03
  2.0890512e+00
 -5.7411212e-03
 -9.5289421e-01
  2.0471033e-01
  1.0475101e-01
  1.1601249e-03
  1.8538518e-02
  3.1325656e-01
  1.6078988e-05
 -2.5239284e-03
 -6.3413829e-01
 -2.4266500e-02
  2.4198627e-03
  5.6902122e-02
 -1.2931663e-01
  1.1881637e-01
 -3.6955588e-02
 -2.6441813e-03
  8.2194729e-04
 -1.3397683e+00
  2.6826016e-04
  2.2679700e-04
 -1.1280208e-05
 -1.5174334e-04
  9.1149399e-05
  6.2319462e-04
  3.7428952e-04
 -6.3028582e-04
  8.6242909e-04
  4.3841772e-04
  5.8427255e-04
 -3.7943045e-04
  3.7415861e-04
  6.9502485e-04
  3.7110920e-04
 -1.0605984e-03
  4.1863677e-05
 -4.3282818e-04
 -5.7595503e-04
  4.4436636e-04
  2.1454782e-04
 -9.3835604e-04
  1.1850320e-03
 -8.1392209e-05
 -4.0007572e-04
 -2.7641191e-04
  6.2964874e-04
  1.8279313e-01
  4.9457911e-02
  2.3283628e-03
 -7.8970930e-05
  1.9531659e-04
  1.7305311e-03
  4.6340091e-04
  2.3837054e-04
  3.8777915e-04
  6.5830864e-05
 -2.1854823e-04
  3.2290519e-04
  7.0138520e-04
 -1.8635896e-04
  5.5187527e-04
 -1.8470989e-04
 -2.2387339e-03
 -1.6114454e-03
 -4.4887495e-01
  9.0217984e-01
 -2.6470354e-01
 -4.7973368e-01
  1.9399367e-02
  3.7957916e-01
 -8.9662963e-01
 -7.9522169e-01
 -8.0811590e-02
  2.9503882e-02
 -5.4677227e-03
 -1.1670953e+00
 -6.5841987e-03
  7.2329700e-01
 -2.9224858e-02
 -1.2912564e-01
  6.2267327e-01
  8.8803357e-01
 -3.2232821e-02
  1.0283554e+00
  3.6421791e-02
  6.1377563e-04
 -6.7072237e-01
  4.2414926e-02
 -1.9255270e-03
 -9.3863837e-02
 -6.9175251e-02
 -1.3702791e+00
 -9.1384280e-01
  2.8467985e-04
 -5.8559666e-04
 -1.1938718e-01
 -7.5493705e-01
 -3.3047044e-01
 -8.7882388e-01
 -9.7164512e-02
 -5.1549667e-01
  1.1030841e+00
  3.8469493e-02
 -8.4607716e-04
 -1.3900933e-01
 -2.3475377e-01
  3.5816538e-01
 -1.9066797e-01
 -6.4768475e-01
  2.2652880e-03
  1.0209349e+00
 -2.5674281e-01
 -1.4616079e-03
 -2.1207504e-02
  5.8903243e-02
 -7.3268175e-02
 -1.1157537e-04
 -8.3496626e-03
 -4.9770859e-01
  9.9563611e-01
 -1.5603472e+00
 -7.2356276e-02
 -7.7403176e-01
 -3.4086266e+00
 -9.1696197e-01
  4.1111493e-01
 -1.1293826e+00
  1.5354674e-01
 -1.0081393e-03
 -4.2110840e-03
  2.1712722e-03
 -9.2507148e-04
  2.4371482e-04
  3.6766200e-04
 -1.8269332e-03
  5.3937957e-03
  3.8686550e-01
  2.0734975e+00
 -1.7967585e+00
  7.7680123e-01
 -3.1694129e-02
  2.3072650e-01
 -5.0688589e-01
  1.0176189e+00
 -1.3545990e+00
 -1.9685383e-01
  1.8318181e+00
  1.5205783e-01
  4.1065839e-04
  1.4439234e-01
 -5.5958891e-01
  3.6573681e-04
  3.2362705e-01
 -8.3923614e-01
  3.6141139e-02
 -2.4776825e-01
  1.9344456e-02
 -3.9317988e-02
  1.3355160e-01
  1.7202522e-01
 -1.6112766e-01
 -2.6388702e-01
  5.4926421e-02
 -6.6752613e-01
  2.6874101e-01
 -1.2853856e+00
  1.1752736e-04
 -3.1134239e-01
 -2.1749504e+00
 -4.8455626e-01
 -2.8337163e-01
  3.5885386e-02
 -2.9216170e-01
  3.0811214e+00
  8.6354107e-01
 -1.8798213e+00
 -2.2019932e+00
  6.0321915e-01
 -4.8351245e+00
 -1.0410805e+00
 -3.3619545e+00
  1.1806929e-04
 -1.6877761e-04
  1.8753645e-01
 -9.9477948e-05
  1.9947875e-04
  6.9639820e-04
 -4.9941453e-05
  7.4856926e-04
 -9.2843373e-04
  1.8232577e-01
  1.5585803e+00
  9.5030089e-05
 -1.3443905e-04
 -7.9392865e-02
  2.7703568e-02
 -3.4159872e-01
  2.2391738e-01
  6.4060920e-01
 -1.4173910e-01
  1.0248864e+00
  1.8436958e-01
  7.8328105e-04
 -2.5682562e-04
  6.5161446e-05
 -5.1816180e-04
 -7.1748692e-01
 -7.1403033e-01
  3.6272639e-01
 -7.9084945e-01
 -2.3342939e-02
  2.3538983e-04
  2.7021255e-05
  3.1693813e-01
 -2.7025971e-03
  6.6971266e-01
  7.7159053e-01
  7.1199663e-02
 -2.1019962e-03
  1.3427159e+00
  3.3217404e-02
 -4.4635241e-03
  1.6380163e-04
  5.7449192e-04
 -5.9243856e-04
 -9.8328097e-03
  5.7561159e-01
 -4.7552088e-01
  2.9458632e+00
  5.4716045e-01
 -1.5754755e+00
 -3.4323826e+00
  3.6751395e-01
 -1.0274472e+00
  4.0322286e-01
 -5.6108255e-03
 -1.0295180e+00
 -5.7546655e-04
  1.1671308e-04
 -1.7398458e-03
  7.0008717e-04
 -5.2075691e-05
 -3.3030202e-04
 -7.7442303e-02
 -4.4626749e-01
 -3.0236372e-01
  1.3437338e-01
  1.0389007e-03
  7.9232311e-01
  1.6622171e-01
 -2.9314903e-04
  9.4775245e-02
 -1.1969110e+00
  5.4196030e-04
  2.0584819e+00
 -4.6421020e-04
 -7.3211157e-04
  7.5437504e-01
 -4.4118083e-01
  1.2428705e-04
  9.1562682e-01
 -1.7463456e+00
 -5.6847255e-03
 -1.0539308e+00
 -1.4417802e-04
 -1.4979154e-03
 -1.4069809e-01
 -3.5613069e-01
  1.5685842e+00
 -7.6943457e-01
 -1.7030383e-04
  1.3525393e+00
  7.7720080e-04
 -7.4472648e-01
 -1.0198262e-04
  4.0317494e-03
 -1.8126822e-01
 -8.4949219e-01
  6.9802732e-04
 -1.5147157e-01
 -3.6608556e-04
  5.8110446e-01
  4.0919742e-01
 -1.9027237e+00
 -8.4595644e-01
 -8.2018083e-01
 -1.2582669e+00
  1.1643885e+00
  6.6647375e-01
 -8.9678702e-05
  2.7935231e-01
 -1.8607391e-04
  2.0355516e-04
 -1.9625099e-03
 -1.1249778e-03
  1.1503482e-03
 -2.5714748e-04
  1.8886874e-03
 -5.0787783e-01
  9.0648580e-01
 -3.7510070e-01
  9.5390243e-04
  3.6461611e-04
 -2.5433693e-03
 -5.4012710e-01
  5.3400703e-04
  1.1992344e+00
 -1.2450831e-01
 -3.1013879e-01
  1.9482304e-01
  1.2834263e-03
  2.1379895e-04
  2.2841415e-04
  1.2418937e-02
 -1.7598733e-01
 -6.9881183e-01
 -4.5715246e-01
  3.2533151e-01
 -3.8275891e-04
  1.5009573e-03
  3.3085630e-03
  2.9307196e-03
 -6.2560855e-04
 -3.4345421e-01
 -8.4836769e-01
  1.4075173e-01
  2.4230544e-04
 -3.1920221e-01
  5.7071582e-05
  2.5076482e-02
 -6.2069070e-01
 -2.4198282e-03
  2.7532227e-04
  1.0573839e-01
  1.5521806e+00
  2.7538824e-01
 -3.9275753e-01
 -4.9611098e-01
 -4.8793411e-01
 -1.5676167e+00
 -1.2808442e-01
 -1.1426861e-03
 -9.9975437e-02
  1.9869499e-03
 -2.8823814e-04
  8.3339441e-04
 -1.7332760e-04
 -3.0204051e-04
  3.9015317e-03
  1.9968227e-04
  4.7569949e-05
 -1.2977283e-04
  4.8102614e-01
  6.6033774e-04
  8.9685425e-02
  1.0605561e+00
  4.2675653e-01
 -3.4938552e+00
  4.2524144e-01
 -1.4367318e-04
 -1.6464622e-01
  1.1374160e+00
  4.6158586e-02
 -1.0340776e-03
 -1.2680094e-04
  3.8359684e-01
  4.0275726e-04
 -2.3695979e-04
  7.3790884e-01
  1.3599457e-02
  1.3466489e-01
  2.8683054e-01
 -1.2271302e+00
  5.7365003e-05
 -4.0381220e-01
 -3.5151169e-01
  2.6820600e-04
 -5.3370750e-01
  3.2728367e-02
  1.3491222e+00
 -6.0371317e-02
  1.2070034e-01
  4.4815856e-04
 -1.2975992e-01
 -5.9161924e-02
 -4.2389327e-04
 -4.2666450e-01
  3.7898893e+00
  9.1560412e-04
 -8.7598808e-02
  8.8388212e-02
  2.6222220e-02
  8.4960438e-02
 -4.6188690e-02
  3.2710841e-01
 -1.0175665e-03
 -2.9858217e-01
  4.7626381e-04
 -9.8211982e-04
 -3.4215694e-04
  3.4398492e-04
  7.4379519e-04
 -5.8963627e-04
 -9.2882954e-04
  2.1336350e-04
  4.0260471e-05
 -4.0906821e-03
 -1.3125989e-03
 -2.2381669e-01
  3.4157641e-04
  2.5949332e-05
  2.2713670e-01
 -5.8003783e-01
  1.3692151e-03
 -8.3853051e-02
  2.6483422e-05
  2.2447206e-01
 -3.3473148e-04
  6.9692987e-01
  5.8240828e-04
 -2.7504988e-04
  1.0807957e-03
 -5.8166794e-03
 -5.5313873e-04
  1.0475531e-03
 -8.0407904e-03
 -4.4727197e-04
 -1.6108943e-04
  2.2294862e-05
  3.0384028e-01
  1.9587746e-03
  1.0625593e-04
 -1.6495436e-03
  2.8391421e-02
 -1.4240628e-03
 -1.9903306e-02
 -1.5826385e-04
  3.8473550e-05
 -1.1032200e-01
 -3.8275545e-04
  9.0292457e-04
 -1.8498954e-01
 -1.0817446e+00
  5.4341559e+00
  3.7147212e-01
  2.1380036e-01
  4.2572623e-01
  4.0314813e+00
 -7.3789692e-01
 -2.5069304e+00
 -2.3509140e+00
  5.5162178e-04
  2.0796782e-01
 -4.2249932e-04
  5.9358228e-04
  7.4094936e-04
  8.5127156e-04
 -1.2491420e-03
 -2.2917178e-03
 -1.9348001e+00
 -5.4888491e-02
  1.5496956e+00
  1.1755228e+00
  2.5403101e-03
  1.1251417e+00
  3.7350768e-01
 -2.3907161e-01
  3.6034134e-04
 -9.8617530e-01
  6.3017583e-01
  4.0291953e+00
 -1.0976288e+00
  9.6993416e-04
 -2.1494458e+00
  3.5908651e-01
 -3.4210589e-03
  1.6332151e-01
  3.8894445e-01
 -1.3760518e+00
 -9.5281601e-01
 -1.2595288e-04
  9.4071910e-04
 -5.7011217e-02
 -3.8064581e-01
 -3.1307307e-01
  1.3911401e+00
  5.2750546e-01
  1.1388333e-01
 -7.9373026e-01
 -2.2008457e+00
  1.9002655e-05
 -6.5400149e-04
  1.6311501e-04
 -5.8657676e-02
 -6.7746508e-01
 -7.3288783e-02
 -3.1685668e-01
  8.7070769e-01
 -4.2193052e-01
 -1.8403345e-03
 -5.6802768e-01
 -3.1789299e-02
 -1.4394669e-02
 -3.5810268e+00
 -2.7209949e-01
  1.2030160e-02
 -1.6723299e-01
  3.0006351e+00
  1.2630101e-01
 -4.0134838e-01
  1.7281538e-03
  1.3842351e+00
 -1.4353751e-01
  3.9278548e-02
 -1.6194792e-04
  4.8619089e-01
  7.4249059e-01
  6.2916370e-04
 -1.3431504e-01
 -2.0914172e-01
 -1.4796779e-01
  2.0557892e-01
 -2.4120435e-02
 -3.5551086e-01
  2.0110339e-04
  7.0350415e-01
  6.2338674e-01
  9.3883373e-02
 -1.2886895e-01
  1.3463164e-04
  2.3936997e-01
  7.9045385e-01
 -5.9532787e-05
  2.6220776e-02
 -1.4189869e-04
 -1.0293330e-01
 -4.1162252e-02
 -5.1436913e-03
  2.4666829e-01
  3.6222413e-01
 -7.7292818e-01
  6.3287413e-01
  1.0609423e+00
  2.1755749e-01
  1.3741189e-04
 -2.9445091e-01
 -6.8383354e-01
  4.7027609e-01
  4.7426474e-01
  2.7372157e-02
 -7.0797145e-02
  2.7095467e-01
 -4.4531908e-02
 -9.3470335e-01
  1.1319548e+00
 -1.1115231e-01
 -8.9651835e-01
  9.5046073e-01
  1.7948694e+00
 -4.7788307e-01
  1.0404988e-03
 -9.1245103e-01
  1.5521659e-01
 -4.9125388e-02
  3.0980296e-02
  1.6460747e-01
 -2.4898933e-01
 -1.2886573e-02
 -4.8386791e-01
  5.0876260e-01
 -3.6263266e-01
 -3.1817856e-01
 -1.4098461e-01
  8.2364261e-02
  1.7453426e-02
  1.5992227e-01
  6.2884951e-01
 -1.7706099e-01
  2.3257522e-01
 -1.5794201e-03
 -6.0405498e-03
  5.6076139e-01
 -1.1086768e-03
  1.5430790e-01
  8.1354357e-02
  2.0642759e-01
 -5.6344640e-01
 -3.7796173e-02
 -1.2320866e-01
  9.5512140e-01
  9.8924959e-01
 -1.2801361e-01
  2.9799029e-01
 -1.3487132e-01
 -4.4300500e-02
  8.1424318e-02
  2.3561037e+00
 -3.2974073e-01
  1.4445848e+00
  1.1858646e-01
 -1.5750763e+00
  2.2011858e-01
 -2.1444817e+00
 -1.1221479e+00
  1.4604909e+00
  6.9562954e-01
 -6.7755352e-03
  9.6523005e-01
 -2.2851476e-02
 -3.8843567e+00
  1.2577285e+00
 -3.2599216e+00
  6.6990970e-04
 -2.6047695e-01
  5.9571493e-01
 -4.8771641e-01
 -7.7563506e-01
 -1.1287734e-04
 -1.9161620e+00
  4.4346541e-01
 -2.1457074e+00
 -1.5384190e-01
 -2.8000211e-02
 -1.1028067e-01
 -2.7108607e+00
  1.9563383e+00
  2.2576876e-01
 -1.9304243e+00
  6.9362760e-01
  1.9115855e-03
  1.3399044e+00
 -3.2567906e-01
 -3.3213967e-01
 -8.2095347e-02
 -3.6698367e-02
 -5.7487208e-01
 -2.4845345e-01
 -7.0423597e-01
  1.7905618e+00
 -6.1739832e-01
  9.3713415e-01
  6.8038102e-04
 -8.6796889e-04
 -2.0902959e-01
 -9.7330475e-01
 -2.7290442e+00
 -7.8686304e-02
  1.0574485e+00
  3.4358562e-04
 -2.5864297e-03
 -2.2483535e+00
 -7.2770816e-01
  3.2547432e-01
 -6.6584206e-01
 -1.5383623e+00
 -1.0762175e+00
 -8.3564031e-01
  1.8711843e+00
  1.0851021e+00
 -4.5733678e-01
  3.0244756e-01
  1.5662022e+00
  6.4664340e-01
  5.0037009e-01
 -1.2491913e+00
 -2.5619569e+00
 -7.0567620e-01
 -2.8243470e-01
 -2.6470482e-01
 -7.6395154e-01
  4.3944502e-01
  7.7040488e-01
 -4.2621186e-01
 -2.6332231e-02
  1.8091813e-01
  2.1252379e+00
 -2.4591196e-02
  2.1209779e+00
  1.9625751e+00
 -1.7641876e+00
  2.7624410e-02
 -3.1725377e-01
 -4.9246643e-03
 -5.9836185e-01
 -1.4194583e+00
  1.5954329e-01
  1.0699029e+00
  1.4658132e+00
  6.6941303e-01
  4.3483135e-01
 -1.1249208e+00
 -7.7726692e-01
  2.5070176e+00
  1.0766654e+00
 -5.1153570e-01
  4.8319456e-01
  5.3941824e-02
 -2.0569359e-01
 -2.8560262e-03
 -1.4659938e+00
  8.9493334e-01
 -9.5905679e-01
 -4.5559256e-05
 -3.1102316e-02
 -1.0782080e-01
  8.0030054e-02
 -5.7695377e-01
  1.1518216e-01
  2.0320669e-02
 -3.2601523e-01
  4.7036433e-01
 -4.5152342e-01
 -5.2066928e-01
 -1.6515864e-04
 -2.0351498e-01
  1.0320009e-02
  1.2368103e+00
 -4.7511640e-01
  4.8435770e-04
 -1.0508086e-03
  6.3016568e-04
 -1.5076379e-01
  8.4673381e-01
  1.1218460e+00
  7.7669457e-02
 -9.4377249e-02
 -2.3099415e-01
 -1.8859452e-01
  2.8326154e-01
 -7.8722022e-02
  9.0661281e-01
 -3.0754847e-04
  2.6381369e+00
  6.0244408e-02
  5.2445042e-01
 -9.8672682e-01
  3.1118929e-01
 -5.0967274e-04
  9.2329562e-01
  3.1189722e-01
  3.4735721e-01
  1.7608029e-01
 -5.0058830e-01
  1.1722458e-01
  2.7725247e-01
 -2.5326639e-01
  1.7192174e-01
  1.2661438e-01
  2.9794765e-01
  8.8037894e-04
  6.6512771e-04
 -1.8458335e-01
  3.7204129e-05
  2.8769555e-02
  1.4173022e-01
 -9.3857646e-03
 -3.2491621e-02
 -6.7482733e-07
  1.0463673e+00
  6.5792698e-01
  7.0104831e-01
 -7.3614992e-02
 -4.9385059e-01
  1.3788567e-01
 -8.0275452e-01
  3.7540844e-01
  1.1839525e+00
  8.4278834e-01
  2.3944895e+00
  4.6099827e-01
  2.4173437e-01
 -1.7739283e+00
 -5.7035184e-01
 -2.4848278e+00
 -1.2042153e-03
 -1.1408733e+00
  5.6764543e-01
  2.3068554e+00
 -1.0124512e+00
  1.6462555e+00
  2.7526670e+00
 -4.5601538e-01
  2.7289385e-01
 -6.5195656e-01
 -1.5179368e+00
  3.5003236e-01
 -7.8039461e-01
  5.4513580e-01
 -3.6846223e-01
  1.4671378e+00
  9.5553643e-01
  3.6497746e-02
 -2.2688508e+00
  8.6329138e-01
  6.1724728e-01
 -5.4128212e-01
 -1.2142874e-01
 -1.2061005e+00
  6.9887424e-01
 -1.4282735e-01
 -4.8222262e-01
 -1.7947708e+00
 -4.3254116e-01
  6.3402328e-04
  1.6325508e-03
  4.2779729e-01
 -1.7097878e-04
 -4.6248446e-04
 -1.9559698e+00
 -1.2727784e-01
  1.7195800e-04
  5.9874874e-06
  1.2654905e-01
 -5.7800204e-01
  4.8992458e-01
  7.0155081e-03
  2.5823638e-01
  1.0450179e-01
  1.3301890e+00
 -4.0074697e-01
 -8.5813850e-02
 -2.1834626e-04
 -7.6371707e-02
 -4.1833619e-04
 -1.3660856e+00
  2.6735711e-01
 -2.9672068e-01
  1.3322562e+00
 -2.1137444e-03
 -1.4483055e-01
 -5.0551260e-01
  2.9152879e-01
 -7.1096694e-01
 -4.3947673e-01
  1.1681756e-01
  1.5847882e-02
 -1.2604299e+00
 -7.0648897e-04
  3.6176515e-01
  1.8823068e-01
 -1.2634699e+00
  1.7844509e-02
 -4.7049105e-01
 -2.8383227e-03
 -5.9640247e-01
  2.5285429e-01
  1.8505752e-01
 -5.9825927e-01
 -5.5888641e-01
 -7.8089750e-01
  7.8242755e-01
 -6.8902272e-01
 -1.6394360e-02
 -3.0932602e-01
  5.4948608e-04
 -8.7749876e-02
 -2.2570893e-02
  9.0779431e-02
  1.2273762e-04
 -2.2549924e-01
  3.2755700e-03
  8.9634901e-01
 -3.5100174e-03
  6.8308198e-01
  1.5975566e-01
 -1.5864060e-04
  1.9088818e-01
 -5.5579543e-01
 -1.7550786e+00
 -5.2335966e-02
  2.3733117e-01
  2.5090581e-01
  2.8081629e-01
  2.6294655e-01
  3.5606396e-01
  5.1031911e-01
 -1.3795907e+00
 -2.2403555e+00
 -5.7884999e-02
  3.5390742e+00
 -1.5718266e+00
  4.8675683e-01
  1.5579474e+00
 -8.8596374e-01
 -1.0312343e+00
 -1.5508945e+00
  1.2036746e+00
 -2.5069363e+00
 -9.1492057e-02
 -7.5909775e-01
 -1.7573643e+00
 -2.0567336e+00
 -8.9446223e-01
 -1.1946803e+00
 -1.2523243e+00
 -6.2933570e-01
  1.3587363e+00
 -6.2939006e-01
 -3.4960893e-01
 -1.0990458e+00
 -1.9082772e+00
  8.9986515e-01
  4.6859902e-01
  1.7747340e+00
 -1.7317845e-01
 -2.5790381e+00
  4.1689262e-02
  1.0425127e+00
 -1.3250445e+00
 -1.6461578e-01
 -5.1351798e-01
 -2.4804829e-01
 -8.9882219e-01
  4.6202531e-01
  3.1298904e+00
  1.5837344e+00
 -6.6698527e-01
  1.5420717e+00
 -7.0903444e-01
 -3.4245235e-01
 -3.0798727e-01
 -1.9911602e-01
  2.9753083e-01
 -2.2363786e-01
 -3.4393612e-01
 -1.8812629e+00
  1.2388332e-01
  1.2166467e+00
  9.2374206e-01
  2.3418645e-04
  7.1059674e-01
 -5.2100837e-01
  1.1837952e-02
 -2.2647111e-01
  5.7877648e-01
  7.6284580e-04
 -2.4220280e-03
 -3.8901851e-02
 -4.1471209e-02
  6.0275954e-05
 -1.4982916e+00
  2.2846204e-03
 -1.4073850e-01
 -3.3834994e-01
 -3.8718086e-01
  3.8331686e-04
  2.5496252e-03
  3.1920825e-04
 -6.0175651e-01
  3.4056827e-02
  2.4784432e-01
 -1.5938691e+00
 -6.1974913e-01
  2.9568146e-03
 -1.6394518e-01
  9.2784025e-02
 -1.4937072e-03
 -1.6906691e-01
  3.6812119e-02
 -8.2182344e-03
  1.0116702e-03
  3.3888796e-01
  1.3682662e-04
 -7.3246217e-01
  2.3228975e-01
 -5.0023780e-04
  3.7037767e-02
 -2.0336877e-03
  4.8759561e-05
  2.5585544e-01
  4.9985737e-01
  6.5594581e-03
  1.1027290e-04
  3.5361992e-03
 -7.6869689e-04
  5.1405962e-04
 -4.2559725e-04
  7.8619510e-04
  1.0486773e-03
 -3.7476991e-04
 -3.8255643e-04
  2.2406888e-03
  7.2828017e-04
  3.5235524e-04
  2.8016814e-04
 -3.0242102e-04
  1.1447271e-05
  4.0652233e-04
  2.8024949e-04
  1.9990961e-04
 -1.3814050e-04
  1.9372031e-04
 -2.4955199e-05
 -5.5035501e-04
 -5.7039753e-04
 -2.3515595e-04
 -9.2925518e-05
 -5.1909371e-04
  2.7377639e-05
 -5.2217132e-05
 -3.4491418e-04
 -5.2868709e-04
  1.1329437e-04
 -1.8632443e-05
 -2.5311258e-04
  5.5028783e-04
  1.4308086e-03
 -8.1203546e-04
 -5.7447782e-05
  1.8423882e-04
  2.4911331e-04
  1.9071996e-04
 -5.7685387e-04
 -4.7189344e-04
 -2.4841959e-04
  6.0798990e-05
 -1.8282162e-04
  4.3161539e-04
  6.3878525e-04
 -2.9303393e-04
 -5.8465853e-04
 -3.3005446e-05
 -1.7359543e-03
 -4.7813359e-05
 -1.2131270e-04
 -5.8673113e-04
  1.3332853e-04
 -5.2065012e-04
 -4.5818773e-01
  4.7662550e-01
  7.2613806e-03
 -3.0583038e-03
  3.4380880e-01
  1.0287341e-02
  3.5100859e-02
  2.3970853e-03
  1.8354385e-01
  1.3671255e-04
  2.4127569e-04
  3.9804207e-05
 -1.7189942e-04
 -3.8049123e-04
 -2.6207522e-04
  8.1630243e-04
 -2.4218619e-04
  6.4168219e-04
  1.7321957e-04
  1.1679331e-02
  7.3256935e-03
 -1.1012540e-03
 -1.4958657e-02
  2.8822222e-01
  3.7188089e-04
 -1.3993908e-02
  9.9447090e-04
  2.4890502e-03
  6.2801421e-04
 -2.6466711e-03
  6.3131179e-04
 -5.7452579e-04
  4.1369412e-02
 -9.8016788e-04
  8.6593832e-04
  3.5276935e-05
 -8.0729667e-03
  4.1126172e-05
 -2.3366706e-02
 -2.9044184e-03
 -7.7314980e-02
 -5.0823699e-04
  1.7774148e-01
  1.9589951e-04
 -1.5381225e-02
  1.7584028e-04
  1.6552345e-04
 -2.8077335e-04
  1.8829663e-04
  2.5701450e-04
  3.8544415e-04
 -1.8934370e-03
 -1.6769183e-04
  1.7915801e-04
  1.1820302e+00
  2.2917871e+00
  4.8407832e-01
 -1.5908073e+00
 -9.4738401e-02
 -9.9787968e-01
 -3.2722783e-01
 -4.5865977e-01
 -9.9527061e-01
  9.4756287e-01
  2.2088537e+00
  2.7944791e+00
 -4.1017500e-01
 -5.0336447e+00
  1.8992711e+00
  1.5380480e+00
 -3.4178291e-02
  3.0155122e+00
  1.1671376e+00
  2.7084653e+00
 -1.0276309e+00
  1.6205976e+00
 -4.3055609e-01
  1.6859112e+00
  1.9494606e+00
  2.1337783e+00
  1.5234742e+00
  1.9152958e+00
 -2.5228415e+00
  4.0468249e-01
  1.5689598e+00
  2.1272240e+00
  6.9268650e-01
  2.5391924e+00
 -2.7843460e-01
 -1.6305022e-01
 -9.4244498e-01
  8.9750744e-02
  8.0983400e-01
  1.6831710e+00
  3.6396381e-01
 -1.0308530e+00
  1.2514582e-01
  1.5424062e+00
 -4.3956530e-01
  1.5721960e-01
 -5.9181446e-01
 -8.8981187e-01
 -7.0525192e-02
 -1.3953291e+00
 -8.0255803e-04
 -2.6815934e+00
 -8.7551987e-01
  4.5269522e-01
 -4.9694726e-01
 -2.8898721e+00
 -4.2294317e-01
  6.3770171e-03
 -1.7299336e-01
  5.8185376e-02
 -6.7022514e-01
  4.7973895e-01
 -1.1393192e+00
  1.7457784e-05
  5.0536514e-04
  1.7359011e-03
 -1.1258737e-02
 -4.1187978e-01
 -1.7135423e-02
 -8.7644023e-01
 -1.5149196e-04
 -1.1284510e-02
  2.7984166e-01
 -1.2345755e-02
  2.0561694e-01
 -4.4267072e-04
 -9.2772447e-05
 -1.0011501e+00
  8.3746715e-03
  2.6467035e-04
  6.8416848e-04
 -1.5712447e-03
 -1.9546591e+00
 -1.9558063e-01
  5.8792794e-01
  7.7011555e-02
  1.7292160e-01
 -3.4198695e-04
 -1.1036638e+00
 -1.2278094e+00
  1.0867904e-04
 -3.5168149e-02
 -1.4178970e+00
  5.2860165e-01
  1.3341472e-01
  1.1414955e+00
 -2.2134639e-01
 -2.0076953e-01
  5.4342087e-02
  1.1557686e-04
 -6.9327187e-04
 -2.2010293e-04
  1.8037838e-03
  1.5250167e-01
 -1.3455098e-03
  1.7843960e-03
  1.3579651e-03
 -8.1035012e-04
  1.0781041e-02
 -5.4801028e-05
  1.3101588e-04
 -9.6163881e-04
  5.3223874e-04
 -3.2847960e-02
  1.0847474e-02
  8.7101746e-04
  1.0245121e-03
 -1.6122185e-01
  6.5882015e-04
 -3.4503476e-04
  6.9968705e-04
  7.4925985e-05
  1.3552015e-04
 -5.6557223e-04
  2.3668470e-04
 -4.0132014e-05
 -1.2454343e-03
  9.4147996e-05
  4.3732180e-06
  1.1854167e-04
 -6.3886686e-04
 -4.3863049e-04
  1.4099885e-04
  4.4940280e-06
  2.6219606e-04
 -2.4340859e-04
  1.1249017e-03
  1.9028845e-05
 -1.1881189e-04
  4.1755903e-04
  5.1024143e-04
 -1.6199792e-04
 -5.6984933e-04
  4.5559503e-04
  1.5706305e-03
  2.1456415e-04
  1.7716625e+00
 -1.2632721e-03
 -4.3080836e-05
  1.9726107e-02
  2.7691915e-03
 -8.5454719e-04
 -5.1138126e-05
 -1.0172218e-03
  1.4299837e-04
  6.6890425e-05
  1.7032838e-04
 -1.5611656e-03
 -3.5024126e-04
 -2.3965607e-04
 -8.6964876e-04
 -2.6190522e-04
 -1.6782879e+00
 -2.9942435e-01
 -2.6206860e-01
  7.8294009e-01
  2.8962073e-01
 -5.5186257e-02
  1.7904427e+00
  8.1150490e-01
 -3.0898947e-01
 -6.4481324e-01
  1.0676267e+00
 -3.1532056e-04
 -1.0823202e+00
  3.2193677e+00
  5.8713728e-01
  5.3934598e-01
 -1.2392991e+00
 -1.1365987e+00
 -2.7359476e+00
 -3.9942968e-01
  1.7855992e+00
 -1.5001716e-04
  1.2098024e+00
 -2.3023100e+00
  3.2895696e-01
  1.6537330e+00
  1.3159077e-03
  1.0170887e+00
  6.3904107e-02
 -1.2350050e+00
 -9.4810647e-01
  2.0031607e+00
  2.1833394e+00
  9.7824126e-02
 -7.9453313e-01
 -2.2383487e+00
  1.0292413e+00
  1.5771940e-01
 -9.0490109e-01
 -1.3331869e+00
  1.1995622e+00
 -1.3047783e+00
 -3.1038289e+00
  1.1851497e+00
 -8.9849256e-02
 -8.9544910e-01
 -1.9596786e-04
 -2.3676326e+00
  9.1892195e-01
  5.9762359e-01
  7.2751142e-02
 -1.2092785e+00
  2.2344451e-02
 -1.3152109e-02
  5.0922227e-01
  3.3214590e-01
 -4.5167303e-01
  3.4821326e-01
  2.7821360e+00
 -1.5137488e-01
 -1.9504223e-02
  2.9720956e-01
 -9.0571307e-02
 -1.0839877e+00
 -1.9661246e-01
 -7.6638281e-01
 -1.4993708e-04
 -6.0412169e-01
  6.5016337e-03
 -5.4343473e-03
  2.0057455e-04
 -9.2981046e-01
  5.1125549e-02
 -1.1373340e+00
  6.9637680e-01
 -8.7472183e-01
  3.6956400e-01
 -3.5540688e-01
 -5.7815707e-01
 -2.0283253e-01
 -3.0571517e-01
 -2.6463795e-02
 -3.1789791e-02
 -2.8970268e-01
 -9.2417441e-02
 -8.0973312e-02
 -4.0962249e-03
 -4.0626921e-02
  8.5788572e-01
 -1.2410464e-01
  2.0355256e-03
  2.2225469e-04
  8.2068866e-01
  1.3079450e-01
 -2.6268399e-01
  4.1404393e-01
 -4.6122772e-01
 -5.9106392e-01
 -1.0201823e+00
  4.8568684e-01
  6.6803265e-01
  3.5177585e-01
 -1.3231863e-03
  2.8429700e-02
 -8.6426532e-01
 -8.2210743e-01
 -5.3454895e-02
 -2.9938382e-03
 -4.7717768e-01
  7.4786323e-01
  7.4498415e-02
 -9.2658676e-02
 -1.8657608e+00
  3.9054595e-02
  3.7317330e-01
 -3.8530896e-04
  8.9610092e-02
 -1.7332706e-04
  9.7595043e-02
 -2.1032140e-01
 -9.3985534e-01
 -1.8201204e-02
 -1.2797286e-02
  7.2789490e-01
  1.2004777e-03
  5.0268167e-01
  1.8184692e+00
  8.9318389e-01
 -4.5685071e-02
  4.2721635e-01
  1.8248437e-01
  1.4219941e-01
 -2.9420233e-01
  1.2834097e-01
  2.5514141e-01
  2.9648095e-01
 -4.8325315e-02
  1.4758544e-03
 -1.0763130e+00
 -1.5634859e-02
 -9.7433239e-01
 -5.2158888e-02
  1.0168949e+00
  6.4197254e-01
 -4.4752975e-04
 -3.4031147e-01
  8.1913275e-01
 -8.7283343e-01
  3.3007616e-01
  9.1622835e-01
 -6.7407633e-03
  5.2367955e-02
  1.3436134e-01
 -5.1464904e-03
  1.8016524e-03
  9.3244845e-01
  6.7180431e-01
  5.4640383e-01
  1.2098635e+00
  2.2432670e-02
 -3.2195050e-05
  6.6211302e-04
  3.8932480e-02
  4.6790734e-01
  6.0578912e-02
  1.8834114e-01
  5.0089136e-03
 -5.8759743e-01
 -5.3992003e-01
 -3.8823807e-01
  5.1942772e-01
  8.0522865e-01
  6.5180194e-01
  3.9633518e-01
 -1.6433842e-04
  3.7608821e-02
 -2.0668171e-01
 -4.3845946e-05
  6.7682157e-04
  6.2389624e-01
  5.4701371e-04
 -2.3250452e-01
 -6.0573483e-01
 -2.6131871e-01
 -4.3858465e-02
  2.9380029e-02
 -1.6046207e-02
  1.2867800e-03
 -9.5466930e-01
 -9.4888651e-01
 -3.8601542e-03
  2.9057804e-01
 -4.6400201e-01
  3.1773274e+00
 -1.6197735e-01
 -5.0307238e-01
 -1.7116158e-01
 -3.4657654e-01
  2.1998963e-01
 -2.3027717e-03
  9.2546153e-01
 -1.1812758e-01
 -9.0862438e-02
  3.3123095e-02
  1.6491410e-01
  1.3074850e-01
  3.9310625e-01
  2.7710467e-04
 -2.5579611e-05
  6.8681553e-02
  6.2694567e-01
 -8.9259320e-01
 -5.4846460e-01
 -4.2556524e-02
  2.3609905e-03
  2.9461124e-04
 -4.3470553e-01
  4.3034682e-01
 -5.5179679e-01
 -4.2290932e-01
  1.0042644e+00
  8.9233100e-01
  8.3403552e-01
 -3.6985442e-01
 -1.5206872e-01
 -7.9294127e-01
  5.4604608e-01
  1.6830487e+00
  1.1825284e-01
 -6.4465076e-01
 -4.4651118e-01
  3.4848481e-02
 -6.1757660e-01
 -3.7700972e-01
  9.7520382e-04
  1.9736201e-02
  1.0167273e-02
 -1.3487056e-04
 -1.0291370e-01
  5.9731513e-01
 -1.1187162e-01
 -9.6440583e-02
  1.1601652e+00
 -6.2359327e-01
  5.3248954e-01
 -2.5071663e-01
  5.0167173e-01
 -2.7482781e-01
 -2.1850643e-01
 -4.5062892e-02
 -2.0975403e-01
  2.0695917e-01
 -1.1714163e+00
  1.4906331e+00
  1.6680512e+00
 -4.5475155e-01
  7.7286220e-01
 -2.7614173e-01
 -1.1846173e+00
  1.5820327e+00
 -1.0898676e-01
  2.9049680e-04
  5.5518192e-01
 -7.1863115e-01
  1.7206979e+00
  1.2046028e+00
  1.1747130e+00
 -4.0213396e-03
  2.0961404e-01
  2.2598960e-02
  5.9827143e-01
  9.8584449e-01
 -8.5560781e-01
 -5.4728899e-02
 -4.6913299e-01
 -3.6434925e-01
 -1.6736263e-01
  2.6125383e-01
  7.1831727e-01
  1.3909624e+00
 -2.2219338e+00
 -1.4558642e+00
 -1.5480602e+00
 -1.9778344e-01
 -8.6223096e-01
  2.4058235e+00
 -4.8119687e-03
 -2.8400016e-01
  1.4992638e+00
  2.5752950e+00
 -9.3740517e-01
  1.6131777e-01
  3.3825219e-01
  2.2292533e+00
 -2.9868510e-01
 -4.5785555e-01
  1.3813958e+00
 -6.0443324e-01
  3.9247304e-01
  5.4286450e-01
 -4.2602298e-01
  1.1157020e+00
  3.7396440e-01
 -2.3560425e-02
  5.3508604e-01
  3.9504164e-01
 -1.8108733e-01
  6.1876178e-01
  3.3273467e-01
 -3.1789297e-01
 -1.5212728e-01
  8.8970459e-01
 -3.3334162e-02
 -9.4280660e-01
 -1.8105063e-01
 -9.9712890e-01
  1.2524619e-03
 -2.7598152e-01
 -4.7290578e-01
  7.2274604e-03
 -1.5903627e+00
 -1.8733195e+00
  1.3922842e-03
  8.6293405e-01
  1.9792561e-01
  1.0363310e-01
  6.0610780e-03
 -3.1213698e-01
  6.8596164e-03
 -1.9471513e-01
  1.0533098e-02
  3.2466887e-03
 -1.2875512e-02
  1.2777268e-04
 -3.2453478e-05
  7.5339194e-04
  1.5796311e-04
 -1.8275323e-04
  7.6079171e-04
  9.0033653e-05
  2.2432829e-04
 -5.6824385e-05
  4.8548030e-04
  5.9059844e-04
  1.1089777e-04
 -2.1613772e-04
 -7.2888308e-04
  1.8030709e-04
 -7.5968617e-04
 -5.7704550e-05
  8.7882316e-01
  5.4084102e-04
 -4.6084651e-01
  1.7000530e-06
  2.8324801e-01
  1.3117836e-03
 -4.1781314e-02
 -1.8116851e-04
  2.4806798e-04
 -5.0981164e-02
 -1.2888230e-01
  7.4349300e-05
 -4.7601922e-04
  5.6039507e-04
  8.4069215e-02
  1.1017463e-01
  2.1430818e-05
  1.9357775e-04
 -1.5586677e+00
  1.1434904e-03
  1.8592986e-04
 -4.5865384e-04
  1.2114667e-04
 -1.5820832e-03
  1.2872583e-04
  7.5544964e-04
 -1.2651667e-03
  1.1582771e-04
  5.0622027e-02
  6.5511101e-01
 -9.9964783e-02
 -1.2453475e-01
  3.7612030e-01
 -2.9101079e-02
  5.6076322e-02
  7.0110768e-01
 -1.0610741e+00
  1.7522323e-05
  8.6540240e-01
  3.3617827e-05
  1.8629776e-01
  1.9577540e-01
  4.5524642e-01
 -4.5163062e-01
 -9.4445117e-02
  7.6246274e-01
  2.6342735e-01
 -5.4601282e-01
  1.0149227e-01
  1.7994645e-04
  5.1024151e-01
  2.1740196e-03
 -2.5880888e+00
  6.8837637e-04
  2.1962959e-01
  2.6398835e-01
  9.3812448e-01
  8.0950275e-02
  4.1609176e-02
  7.3697276e-02
 -4.5948438e-02
 -2.5870258e-01
  5.0478756e-02
  9.1468030e-01
  8.7446761e-01
  5.0536376e-01
 -2.4786749e-01
 -1.0708675e-01
 -6.2212104e-01
 -2.9718008e-02
  4.6424729e-01
  3.3368418e-01
  6.2403196e-01
 -6.0998291e-02
 -1.4207677e-03
  9.9360915e-03
  3.0654883e-03
 -2.6922228e-02
 -1.3703096e+00
 -1.4172362e+00
  7.6816825e-04
  6.0563982e-01
 -2.9669447e-02
 -7.5560766e-01
  4.5215201e-01
  9.6501958e-01
  5.0904548e-01
  6.8110965e-02
 -2.5370684e-01
 -1.0971366e-01
  8.2500570e-02
 -8.2008518e-02
  1.6078757e-01
  1.7529935e-01
  7.8690052e-01
 -9.9441546e-01
 -3.1943712e-01
  1.2610589e-01
 -5.5392408e-01
  7.5320281e-02
  3.2094854e-01
  1.2045456e-01
 -3.4925452e-01
  7.1907669e-01
 -1.0329854e+00
 -3.5018197e-01
 -8.4592745e-02
 -7.5504744e-01
  1.6561504e-01
  2.0582770e-01
  1.2719564e+00
  8.6656231e-03
  2.8093057e-04
 -9.7063172e-01
 -2.8897688e-01
 -7.9302251e-02
  1.1530832e+00
  1.4167155e-01
  2.8017029e-01
  5.7438534e-01
  4.4779217e-01
  1.9381142e-01
  2.3382185e-01
  1.1376651e-01
 -3.6897472e-01
 -7.6746637e-01
 -2.2315450e-01
  1.8871623e-03
  1.4959591e-05
 -2.1760301e-03
  6.5000601e-02
 -2.9677939e-01
  3.0392003e-01
 -1.4764813e-01
 -1.1150858e-01
  4.8040529e-03
  2.8104158e-04
 -1.6397458e-04
  3.5283764e-04
  1.8019203e-04
 -1.9464675e-01
 -3.2180798e-04
 -1.9368496e-04
  1.2551720e-04
 -9.8067569e-05
 -4.9847545e-04
  2.9442052e-04
  4.4169204e-04
 -2.7228976e-04
 -5.9979304e-04
  8.8226300e-04
  1.4616415e-04
 -1.4583617e-05
 -8.9265540e-04
 -6.6704648e-05
  1.5686090e-04
 -3.0033232e-03
  3.1516521e-04
  6.5726950e-04
  2.5540157e-04
 -1.9738779e-03
 -3.5228586e-05
  3.5596298e-05
  2.8049544e-06
 -3.4194003e-04
 -3.5903713e-04
  7.1802380e-05
 -3.0388890e-04
 -5.1193230e-04
 -4.8800361e-05
  7.9225676e-05
 -7.0243515e-04
 -1.2942302e-04
 -1.5882899e-03
 -3.4167741e-05
 -1.5282482e-03
  8.9195487e-04
  7.2064679e-05
  5.1487921e-05
 -3.0512913e-04
  3.1848674e-04
 -3.1276248e-04
 -3.9346574e-04
 -3.2905577e-04
 -2.8323880e-04
  8.5939719e-06
 -1.1875243e-03
  1.6313874e-04
 -7.9993135e-04
  4.0457526e-05
 -2.7736121e-01
  8.0646914e-01
  1.2909150e-01
 -4.5595974e-02
 -3.4893540e-01
 -1.0434328e+00
  4.6838328e-01
 -7.0121580e-01
 -1.5366381e-01
  1.6560852e-04
  3.0886274e-04
 -1.7670705e-05
 -4.5403920e-04
  5.9067062e-04
  2.1725971e-01
 -4.2502192e-01
 -2.0465280e-04
 -3.1385873e-04
  9.3893602e-04
 -3.7852271e-05
 -1.6598590e-01
 -1.3835697e-03
  1.2732347e-04
 -5.6727324e-04
  8.8719702e-05
 -1.7485690e-04
  7.9744204e-04
  1.2743907e-03
  1.4718857e-02
  9.6272491e-04
 -1.0469600e-04
 -2.0014218e-03
  1.2062716e-03
 -7.3137489e-04
 -7.1723807e-06
  1.2410476e-04
  1.4640145e-04
  6.3619547e-04
  5.6969266e-02
 -2.6676685e-04
 -4.9428582e-01
 -1.7590725e-01
 -8.9810928e-04
  1.0844242e-03
  7.5602375e-02
 -1.4007747e-03
 -1.3931813e-03
  5.1818963e-05
  2.2787490e-04
 -6.9733977e-04
  7.4859372e-06
  5.9690047e-04
  2.4443871e-04
 -3.8417257e-04
 -8.7387007e-01
  2.4129397e-01
  7.3055737e-02
 -2.3002040e-02
  2.0010298e-02
 -4.8164263e-01
  2.9955870e-01
  7.6566833e-01
  3.6630872e-01
 -9.6881896e-04
  8.2103274e-05
  7.2707152e-01
 -1.2607161e-03
  7.6986207e-03
  1.2138494e-01
  4.5742895e-04
  5.1702902e-04
  2.2417393e-01
  4.2961812e-01
  1.1911442e+00
  3.5034057e-02
  5.6183058e-01
  7.2207212e-01
  7.7585739e-01
  2.8252062e-01
  1.7132871e-04
  1.6156888e-02
  8.9978164e-01
  1.1913679e-01
 -4.6559248e-02
 -2.4321636e-03
 -2.7803404e-03
  1.1590526e-02
 -3.3919999e-01
  3.8976336e-01
  2.3202311e-01
  1.0457230e-01
  9.8942198e-02
  8.2975060e-01
  3.3052690e-02
 -5.3034825e-03
 -1.5681341e-01
 -1.3789824e-01
  3.1692210e-01
 -5.8385140e-01
 -4.5896319e-04
  9.3682326e-04
  3.6680642e-01
  1.9871904e+00
  8.7579479e-04
  7.1043301e-01
  3.8457994e-05
  3.6664002e-04
  1.8160468e-01
 -5.0721541e-02
  1.4234900e-01
 -5.1325060e-02
  5.3930186e-02
  1.4921275e-03
 -7.8832161e-01
 -4.4566743e-02
 -1.9758461e-01
 -1.3666037e-01
  2.1811645e-04
 -4.8065549e-04
  2.2189054e-04
  3.6743438e-04
  4.9376400e-04
 -2.6913662e-03
  1.3809700e-02
  1.5566764e-05
  1.2612113e-03
 -3.4923974e-04
  1.4527000e-05
 -9.9435158e-04
 -4.2963767e-04
  1.4897309e-04
 -1.2423651e-03
 -1.7449907e-03
  4.0738407e-05
  4.2059724e-04
  1.6027085e-04
  1.4000358e-01
  9.3086931e-04
  8.7558193e-04
 -9.4346674e-03
  6.4344815e-04
 -1.9523322e-04
 -3.8774012e-04
 -4.3859081e-03
  2.1617305e-03
  8.1695303e-05
  3.1608570e-04
 -7.4159508e-03
 -1.1284374e-01
 -1.5975071e-01
  7.9159752e-02
  3.3825140e-02
  9.3309078e-03
  7.8173663e-04
  3.3492246e-04
  3.8205672e-04
 -2.5419208e-06
 -7.8370748e-04
  2.0370452e-04
 -2.4982035e-04
  1.0535240e-04
  1.4518918e-03
 -1.3140883e+00
 -6.9793636e-01
 -2.2101860e-01
 -2.5865054e-01
  2.5544879e-01
  4.3317994e-01
 -1.1869688e-01
 -8.7953705e-01
 -2.1413920e-02
  7.0320116e-04
  3.8772669e-05
 -9.9949748e-04
  2.7375205e-03
  1.2324332e+00
  4.1745692e-01
  2.6379985e-01
  3.5714690e-04
  4.0962123e-03
  8.4669131e-04
  3.3905392e-04
  2.8037798e-02
 -1.0509267e-04
 -2.3057219e-01
 -4.9794283e-02
 -9.8443124e-03
  4.5769272e-04
  1.0730533e-01
 -1.2371452e-03
  3.2529309e-01
 -1.2777486e-01
 -2.1411987e-01
 -5.5879988e-02
 -8.6508965e-01
  5.3609204e-01
 -6.8430120e-01
  2.6753405e-02
 -5.5387720e-02
 -2.8684255e-01
 -4.4095701e-01
 -1.8512359e-01
  1.9087559e-01
 -4.5857575e-02
 -3.3090348e+00
 -2.0048489e-01
  1.7047706e+00
  8.9536188e-05
  3.7158100e-04
 -1.4560947e-03
 -3.2863443e-04
  2.5208341e-03
  6.7236321e-04
 -7.9103801e-03
  1.9982313e-03
 -1.1119428e-05
 -6.3509613e-01
  4.4192511e-01
  1.3562877e-01
 -1.3399620e+00
 -1.8619493e+00
  1.4112897e-01
  1.8815887e+00
 -8.4392214e-01
  3.2010883e-02
 -9.4000361e-04
  5.5521750e-04
 -6.3971491e-03
  5.4640669e-01
 -6.4245611e-02
  5.7679140e-03
  1.5267046e-03
  1.0870079e-04
 -1.5678154e-02
 -1.8392279e+00
 -2.6928692e-04
  1.0394514e+00
 -1.2079928e-03
 -1.1738591e-04
  6.7278154e-02
 -5.1357186e-01
 -1.3699149e-02
  4.0844393e-01
  8.2991630e-01
  3.2972753e-02
 -2.9224393e-01
  6.8825901e-02
 -3.2524067e-01
 -1.0736350e+00
  3.6864175e-04
  2.8091848e-01
  1.0669848e+00
  1.1944877e-04
  9.9054909e-01
 -2.4200104e-01
  1.3483065e-01
  1.5491490e+00
 -1.5733914e-02
 -6.0133994e-01
 -1.1637329e+00
 -9.5409393e-01
  2.7335729e-03
  1.5435995e-03
 -1.8154570e-01
 -1.5766830e-03
 -2.8946750e-02
 -1.3586732e-04
 -2.9558790e-04
 -4.0558734e-04
 -4.4768517e-06
  5.0779229e-01
  4.5692913e-02
 -1.9777156e+00
  1.4353087e+00
 -6.0665209e-02
 -9.0961993e-02
  9.6780288e-01
  4.1725367e-01
  1.5630369e+00
 -2.9846072e-01
  3.0386895e-01
  1.2413273e+00
  7.5671118e-01
  3.0721313e-01
 -1.8407147e-01
  2.0485611e+00
  2.9951494e-04
  1.1195289e+00
  7.6137108e-01
 -7.8653610e-01
  1.5306646e-01
 -9.6205395e-01
 -1.9772530e-01
  3.5870683e+00
  7.6121680e-02
  2.8866382e-02
  1.1869526e-04
 -5.8330244e-01
 -4.8620409e-01
 -2.9709575e-01
  6.4779377e-01
  4.4592920e-01
 -1.5521909e-01
  6.0318336e-02
  1.5421659e-02
 -5.0481784e-01
 -5.4881781e-01
  5.5442673e-01
 -8.3020782e-01
 -2.8117099e+00
  1.6826254e+00
  4.4793180e-01
 -7.7651399e-01
 -1.1760771e+00
 -1.6053994e+00
 -9.2584454e-02
  2.5065584e-04
 -3.0114239e-01
  5.0387236e-05
  6.2808162e-04
 -2.8953633e-01
 -3.2036588e-02
  1.5748572e-01
  3.2177916e-01
 -1.2760240e+00
 -1.0355257e-01
 -3.6222187e-01
 -1.5478536e+00
 -7.4783035e-02
 -1.5040523e-01
  4.7086990e-01
 -2.3010592e-01
 -2.3275045e-01
  9.5441926e-01
  5.5280364e-01
 -5.7359412e-04
  7.4610150e-01
 -7.4277902e-01
  6.2753484e-02
 -1.1270716e+00
 -2.8779646e-04
  2.6095669e+00
  3.7005755e-01
 -1.9498287e-01
 -4.3245462e-01
 -6.5984271e-02
 -3.5897985e-01
  9.9290222e-01
  1.1566442e-02
  6.7501642e-02
  1.1622487e+00
  7.6473556e-02
 -1.9528037e+00
  1.2980477e+00
  7.4103373e-01
 -3.2445225e-01
 -6.6380620e-01
  3.6933583e-01
  4.7542605e-01
  5.3570658e-01
  3.2746211e-02
 -1.4659249e+00
 -3.7140155e-01
  6.2083858e-01
 -1.3335043e+00
  4.7169855e-01
 -2.6692250e-01
  2.9847300e-01
  1.3472695e+00
 -3.4757659e-01
  5.8450059e-05
 -8.4649521e-01
  8.9162469e-01
 -3.6451030e-01
 -6.8676758e-01
  2.0985110e-01
 -5.2266401e-01
  4.4859177e-03
  2.6783139e-01
 -1.2776428e+00
 -8.5472506e-01
 -4.3945055e+00
 -7.7965492e-01
  1.2876669e+00
 -2.8361797e-01
  1.2978705e+00
  8.9787620e-01
 -1.3998939e-01
 -1.3240904e-04
  2.5525369e-04
 -4.4643257e-05
  9.1858530e-01
 -2.8621466e+00
  7.2209421e-04
  4.8033896e-04
 -2.7687950e-03
 -1.7305670e+00
 -1.6406651e-03
  3.3693604e+00
 -1.5619201e-04
  2.8867187e-02
 -1.3356972e+00
 -4.7619719e-04
 -3.1341740e-01
 -1.9368192e+00
 -5.0499338e-01
  1.4461853e-02
  6.7809504e-01
  7.5330824e-01
 -5.1569873e-01
 -1.4866744e+00
  1.4903742e-03
 -1.4998577e+00
 -2.9035058e-04
  8.7482440e-01
  5.3702021e-01
  4.4851252e-01
  8.1656283e-01
 -6.5508550e-01
  3.2072991e-01
  1.1320758e-02
 -1.0300525e-03
  2.2029347e+00
  5.2868461e-05
 -9.7548291e-05
  6.0866476e-04
 -2.8976318e-04
  7.1441836e-04
 -1.2512374e-03
 -1.8551331e-05
 -3.7531634e-03
 -1.2473004e-03
 -2.4144040e-01
 -3.5038146e-01
 -2.2304857e-01
  2.9392171e-01
 -1.7445093e-02
  1.8550183e-01
 -1.9293672e-01
  1.1537490e+00
  1.3483685e+00
  4.4154920e-04
 -6.0759747e-04
 -1.1662312e+00
  3.6239764e-04
 -6.6638350e-01
 -4.7093991e-02
 -9.4779009e-01
 -4.9582939e-04
 -3.0907479e-01
  1.3698525e-02
 -4.6608746e-01
 -5.9049323e-02
 -1.0944821e-04
  3.2889792e-03
 -1.5876555e+00
  5.3058052e-01
 -9.4351737e-05
 -6.8822707e-04
 -3.1327692e-04
 -9.4443297e-01
  7.3731273e-01
  1.1768230e+00
  3.9251693e-02
  1.8561655e+00
  1.5025056e-05
 -1.4288583e-01
 -1.2591546e+00
  4.8307198e-01
  1.0864867e-01
  3.3829990e-01
  2.1113355e+00
 -8.7928420e-01
  2.1721926e-01
 -4.2193191e-05
 -1.3122095e-01
  6.2797594e-01
  2.9257350e-05
  1.9280594e-04
 -2.3883726e-01
 -1.5347335e-04
  5.2965768e-02
 -6.6765869e-01
  3.5802758e-01
 -3.6707401e-04
 -2.2596584e-04
  3.8339582e-01
  1.2649407e-02
 -1.5637314e-01
  7.7087772e-01
  4.1298139e-01
  2.0145288e+00
 -1.5605091e-01
 -3.8162524e-01
 -2.1557730e-01
 -1.8273185e-04
 -9.8995178e-04
 -7.2299000e-03
 -5.8184767e-01
  1.0366516e+00
 -1.5270557e-01
  1.5967385e+00
  3.8928431e-02
  9.3674368e-01
  1.0377969e-01
 -8.0234250e-03
  1.4416073e-01
 -5.5086777e-05
 -2.4730569e-01
 -9.2223339e-04
 -3.9647555e-01
  1.7069244e-01
  7.9336661e-01
 -7.8783706e-02
 -3.5049468e-01
  4.1860557e-01
 -8.8325542e-01
 -1.4163995e+00
  1.7317156e+00
  1.0533205e+00
 -2.0387858e-02
 -5.9918064e-01
 -8.8890719e-01
 -2.6064191e+00
 -7.6260763e-01
 -1.5527661e-01
  4.0110666e-01
  1.3310102e+00
  4.0838044e-02
  5.7946491e-01
  6.7676079e-01
  3.0076047e-04
  2.9810480e-04
  1.8056133e-04
  4.5279093e-04
 -7.6739723e-04
  6.1646814e-04
  1.1563638e-03
  4.4502728e-04
 -6.8766205e-04
 -1.2601868e+00
 -4.0323398e-01
  1.3638370e+00
 -2.3325142e-01
 -1.9801356e-01
 -2.3814730e-01
  3.0022728e-01
  2.1830013e-02
  1.6203171e+00
 -3.0936205e-01
 -2.1590197e-01
  8.4766293e-01
 -7.6395327e-01
 -9.5903623e-01
  1.5217038e+00
 -5.8221654e-03
  1.1060017e+00
  7.1629494e-01
 -1.2808073e+00
  1.1521378e+00
 -2.0841157e+00
  2.0087261e+00
  8.2498032e-01
  1.5825112e+00
  4.0063751e-01
 -1.2741751e-03
 -1.3403081e+00
  2.0857227e-05
 -7.2219276e-01
  5.2362591e-01
 -8.3082104e-01
  1.6643611e-01
 -1.0028664e+00
  2.7731967e-03
  6.1615717e-02
 -3.2362096e+00
 -1.1387068e+00
 -1.3807331e+00
  1.7179036e+00
  4.2919549e-01
  8.2411683e-01
  1.1019627e+00
 -4.0683341e-01
 -1.2671427e+00
  1.1981987e+00
  7.3572167e-04
 -1.3722454e-01
  1.6885233e+00
  2.7358347e-01
  5.1091768e-02
  5.4193387e-04
  2.0948529e+00
  2.2694711e-03
 -1.7826701e+00
  1.9775289e-01
 -1.5172096e-01
  5.3450707e-02
 -2.0836149e-01
  1.3826570e-01
 -2.4935678e-02
 -9.8614419e-01
  1.9105266e-01
  8.4376723e-02
 -3.7422194e-04
  3.3113053e-03
  2.9122626e-04
 -4.9990518e-03
 -8.4105702e-03
  7.2635227e-04
  3.3922537e-04
 -7.2598079e-04
  1.7475172e-04
 -1.3602736e-03
  2.5171848e-04
  4.6816553e-04
 -2.3893107e-04
 -1.4473335e-01
  2.0480198e-03
  1.1755613e-04
  1.7817201e-04
 -1.2285794e-01
  1.6987659e-02
 -3.5684714e-03
 -3.2086331e-02
 -5.4479995e-05
  1.0927890e-01
  2.8273568e-04
  1.1715507e-02
  2.8928561e+00
  2.4333896e-01
 -2.9143109e-04
 -2.3118600e-02
 -6.2348437e-02
  6.0828589e-04
  4.6597071e-02
 -7.9203635e-02
 -3.5413760e-03
  9.0390503e-02
  4.9388742e-05
 -1.4286516e-03
 -7.3687674e-04
  3.5749289e-01
 -2.3794104e-04
  6.4206391e-04
  7.2398776e-01
 -3.4274030e-04
  9.5915346e-04
  3.8568731e-05
  1.2398453e-01
 -1.3535772e-01
  2.9661253e-01
 -3.5771000e-01
  9.9015452e-02
  2.0758872e+00
 -1.8712646e-01
 -8.9064491e-01
  2.9378757e-01
  3.2135396e-04
  5.2686345e-02
 -2.2628757e-01
  1.3689937e-03
  1.4057548e-01
 -4.3985189e-04
  8.7694445e-04
 -1.7017685e-04
 -1.7903531e-01
 -4.3145744e-03
 -4.4624306e-02
 -7.9296432e-02
 -1.8514167e-01
  3.8814228e-02
 -3.8990590e-01
  4.5277979e-02
  1.7785560e-02
  3.7365955e-01
  4.2852256e-01
 -4.5089775e-01
  7.1160656e-01
  2.3424127e-03
  6.1915386e-01
  8.3744363e-04
  5.5960880e-04
 -3.0582286e-03
  3.3116233e-02
  8.0012874e-04
 -3.5035738e-01
  4.7924948e-01
 -1.8830532e-01
 -8.0422468e-02
 -6.3948803e-02
  6.3303584e-01
 -1.2018069e-02
  8.1368797e-03
  1.2485288e-03
  1.8111236e-01
 -3.2996690e-01
 -4.1072472e-04
  1.0165718e-02
 -3.1128383e-04
  7.8860171e-02
  5.6325289e-04
  2.3150590e-04
 -1.5969000e+00
 -1.1828079e+00
  8.5699284e-01
 -1.0153835e-01
 -6.0115453e-02
  1.2883260e+00
  5.8637345e-01
  1.3193412e+00
 -2.0330675e-01
  1.0521587e-04
 -2.8819075e-01
  1.0485735e+00
  6.3714333e-04
  6.0935259e-01
 -9.7931899e-02
  3.0784005e-01
 -4.1172323e-01
  1.6097692e+00
 -2.5250703e-01
  3.7598687e-01
 -4.0274423e-01
  1.8293932e-02
  1.3594250e-01
  7.2559673e-01
  6.9946915e-01
 -5.9206195e-02
  4.7789121e-01
 -4.2090360e-02
 -2.3519351e+00
 -4.0518406e-01
 -4.8691681e-01
 -7.4166358e-01
 -8.0592638e-01
 -4.2270741e-01
  3.5922980e-04
 -1.3208519e-01
  3.2774422e-02
  2.5388566e-01
  4.9302894e-01
  5.1164573e-01
  4.0105242e-01
  3.2310390e-01
  2.3018744e+00
 -4.9066797e-01
  7.8638124e-01
  2.6953695e-04
  6.7399931e-05
 -1.2916917e-01
  3.6433676e-01
 -1.2994565e+00
 -6.4581662e-01
 -2.7000417e-03
  1.2018487e-03
 -3.7461563e-04
 -1.1988759e-04
 -5.4405088e-04
  1.0095725e-03
 -6.3197158e-04
  7.6523560e-05
  2.0957849e-04
 -1.0878359e-04
 -2.8750935e-04
  1.9912489e-03
 -2.3923712e-07
 -2.0359021e-04
  1.1916048e-04
 -6.8796711e-05
 -1.3225495e-03
  4.6632555e-03
  8.0753188e-04
 -1.0295727e-03
 -2.0936562e-03
  2.1607176e-04
  1.6526621e-03
  1.9998221e-04
 -1.3281680e-04
 -3.3989127e-04
  1.1792668e-04
  1.3392816e-04
  5.1985891e-04
 -1.3331855e-04
 -3.6217188e-04
 -1.2643193e-04
  3.5523542e-05
 -5.8466970e-04
 -4.6613728e-05
  1.4724437e-04
 -6.0100068e-04
  2.1840009e-04
 -4.3148943e-04
  3.7777357e-04
  3.9411211e-04
 -2.6694197e-05
  7.5696548e-04
  4.2681213e-04
  3.2835968e-03
 -1.7045054e-04
 -1.5475091e-03
  2.2450802e-04
  7.9608209e-02
 -2.5932645e-04
 -1.0741469e-03
  2.4559704e-05
  5.2050792e-04
  8.7932881e-04
 -3.9407538e-04
 -5.7129672e-04
  9.4402814e-05
  4.6834895e-01
 -3.7014351e+00
  1.2222338e+00
  3.0439171e-01
 -1.2273201e-03
 -4.8705292e-01
 -5.3547096e+00
 -1.3858835e+00
  9.7530609e-01
 -1.5984714e-04
 -2.4713989e-04
 -4.8291363e-04
  1.2116996e-03
  4.7769573e-01
  6.7017187e-04
  3.4681901e-03
 -5.1292521e-04
 -7.6197044e-05
  6.2541402e-04
 -2.1950720e-04
  5.5618928e-04
 -9.0291572e-04
  7.9861194e-02
 -4.8698107e-04
  8.1398473e-05
  8.2166615e-04
 -2.6065166e-04
  1.3166335e-03
  9.8249031e-05
  2.5397629e-04
 -3.6626452e-04
 -4.3767696e-04
  8.5732144e-01
 -1.0892570e-03
  3.6919344e-04
 -1.3267643e-04
 -1.0484366e-03
 -1.9635145e-04
 -7.1394572e-04
 -1.3741529e-05
  5.9053564e-01
  5.9078436e-02
 -1.8040683e-04
  3.1155965e-01
  1.6428255e+00
 -4.5781414e-04
 -1.0829454e-04
  5.6213634e-05
  3.4123898e-04
  2.0890597e-03
  6.7922781e-04
  1.7384422e-03
  1.7808395e-04
 -9.2374213e-04
 -6.7006550e+00
 -8.7082357e+00
  1.3087365e-01
 -1.5282255e+00
 -5.7656235e-01
 -2.4361813e+00
 -8.5195547e-01
 -1.5906852e-02
 -3.0451045e+00
 -5.9086478e-01
 -4.6241257e-02
  3.1256029e-01
  4.0143123e-01
 -1.0612309e+00
  3.3614228e+00
  9.6281583e-05
 -4.4104003e-05
  1.7828392e+00
 -3.7084550e-01
  7.3407283e-03
  1.6788913e+00
  8.1113718e-02
  2.2857194e+00
  4.2152414e-01
  2.6190331e+00
  1.2068393e+00
  9.6894306e-01
  6.0798091e-01
 -2.5396511e-02
 -8.7283653e-01
 -1.4865761e+00
 -1.0436307e+00
 -7.2153401e-01
  2.0185122e-01
  1.5845571e-03
  5.9660649e-01
 -1.0699149e+00
  1.0437895e-01
 -7.4310344e-01
  3.8855062e-03
 -7.8966337e-01
  1.3466144e-01
 -9.2535692e-01
 -2.3332554e-01
 -2.5225143e+00
 -1.4303999e-01
  4.6627244e-04
 -1.7621572e-01
 -3.9604056e-01
  5.6752857e-02
 -2.3735394e-01
  1.8129644e-03
 -5.1552892e-05
  5.9759194e-01
 -6.6546136e-01
 -1.4261154e-02
  1.2560075e-03
 -2.8585613e-04
  2.0429579e-04
  4.3642402e-04
 -4.5533347e-01
 -4.0373384e-04
  1.0618505e-03
 -3.7608269e-04
 -5.2327818e-05
 -1.4402530e-03
  1.6343090e-04
  3.2208096e-05
  1.1466873e-04
  3.0211755e-04
  2.0049246e-04
 -6.6244352e-04
  1.5279735e-03
 -4.9644744e-04
 -1.7084719e-03
 -7.1036461e-04
 -3.2352755e-04
  5.9396414e-05
 -1.8812876e-04
  4.3094711e-04
  2.7576559e-03
 -5.4319500e-04
  1.2180759e-03
  2.5785142e-05
  4.0457989e-04
 -2.1313728e-05
 -1.0115280e-03
  3.3396209e-04
 -5.3696235e-04
  5.8240534e-05
  5.0926564e-04
 -2.0380549e-03
 -6.9320999e-04
  4.0270470e-04
  7.7922514e-04
 -9.7712979e-04
  4.6950510e-05
  9.9549384e-04
 -3.0679291e-01
  6.2248349e-04
  1.1501531e-03
  3.1463878e-05
 -4.9628015e-04
 -1.6413066e-03
 -4.2328131e-04
 -7.2449177e-05
  8.1504986e-05
 -5.6818099e-04
 -4.9752629e-01
  4.7263142e-01
  1.0362650e-01
  8.3595359e-01
 -7.9907495e-01
 -2.0974745e-01
  1.3110448e-01
 -7.3546600e-01
 -7.6277159e-02
 -1.9900757e-04
 -5.2258409e-05
  3.4268273e-04
 -3.4917168e-02
 -3.5129240e-01
 -5.4752016e-01
  1.8798742e-01
 -5.0531683e-04
  3.3498574e-03
 -7.1920978e-05
  3.4633335e-01
  1.3819132e-02
  1.9461820e-03
 -5.9278705e-04
 -6.8358186e-04
 -2.1062491e-02
 -2.1148138e-03
  2.4467511e-02
 -2.3503447e-01
 -8.8582411e-03
 -5.2381604e-04
 -6.2118423e-01
 -1.4107548e+00
  4.6768042e-01
  7.3491699e-01
 -2.7449548e-04
 -8.8633776e-01
 -6.6610575e-01
 -6.8483722e-01
  3.0523297e-01
 -1.5302653e+00
  2.9148415e-01
  3.2583807e+00
  1.4075063e-01
 -4.6327910e-03
 -8.8787340e-02
 -3.3974964e-05
 -8.3616644e-04
  7.3532196e-04
 -1.5859297e-03
 -1.7592512e-03
  1.7809573e-01
 -3.4479627e-03
 -3.6534027e-04
 -5.3283136e-04
  2.2215897e-01
 -6.3131765e-02
  3.2598741e-02
  2.1250122e+00
  4.5843008e-01
 -3.7281014e-02
  7.0178628e-02
 -5.2169368e-02
  2.8099618e-03
  4.1595008e-04
 -1.6917809e-04
  3.6167612e-04
 -1.0145199e-03
  1.0526883e-01
  8.2234462e-04
 -1.3907737e-05
 -2.0976185e-03
  1.6204469e-03
  1.3295982e-03
  1.8779296e-01
 -1.7241395e-01
  4.3499207e-05
 -1.7572206e-01
 -5.2132451e-05
  1.3300791e-01
 -8.9480160e-03
  1.0972274e-04
  1.3748197e-01
 -1.9379082e-01
 -2.7754730e-02
 -4.8931506e-03
  1.3694614e-03
  7.5631596e-02
  2.8484082e-03
  8.1635785e-01
  3.6271682e-03
 -7.1421894e-04
  1.9418602e-03
  4.9219069e-01
  6.3739203e-02
 -3.0784216e-02
 -2.2906794e-01
  1.2769639e-03
  1.0067351e-02
  8.8819414e-02
 -1.2772843e-03
  5.0022202e-03
 -3.7062563e-02
  7.2279868e-06
  8.7580811e-05
  1.8156170e-04
  5.5662752e-04
  6.7352509e-04
  3.1277966e-03
 -1.7247731e-03
  2.2001368e-04
  1.3441875e-04
  3.1365175e-04
  1.5278166e-04
 -5.0598016e-04
  1.0761488e-03
  3.1623803e-04
  1.1407560e-05
 -1.1433441e-03
  7.3345531e-05
  2.1862728e-04
 -4.8927817e-05
  6.4981927e-05
 -4.2448839e-04
  4.2425335e-04
 -3.6177074e-04
 -1.6172428e-03
 -1.0221803e-03
 -1.0293036e-03
 -4.8419251e-04
 -2.1341037e-02
 -4.5534271e-06
 -3.3015324e-04
 -4.4934524e-04
 -5.3454260e-06
  1.6123224e-03
 -2.3248460e-04
  9.2707400e-04
  1.4293664e-03
 -3.8412333e-04
 -2.6930348e-04
  5.6673610e-04
  4.5450644e-05
  2.9415052e-04
 -2.1959444e-04
 -1.7347287e-04
 -5.6261570e-06
  3.4199791e-05
 -1.4004270e-03
  6.2168197e-04
 -7.3676463e-04
  9.2254597e-04
 -4.2076880e-04
  1.5412543e-03
 -2.6926235e-04
  5.4608616e-05
  8.7442715e-04
  8.9751105e-05
 -6.6332123e-04
  1.0754028e-03
 -8.5777203e-05
  5.5772533e-05
 -7.5421639e-04
 -2.9447359e-01
 -1.1078615e+00
  3.7260510e-02
 -1.3477237e+00
 -6.0119545e-01
 -2.0365055e+00
 -1.0859718e+00
 -5.2979779e-01
  2.6755476e-01
  4.3619233e-01
  9.5370090e-01
 -1.5775826e+00
 -1.0441662e+00
 -1.2841891e+00
 -2.3451650e+00
  5.0589967e-01
 -1.3420007e-01
 -3.8793072e-04
 -1.8067637e-01
 -8.1871666e-02
 -1.1704650e+00
  1.4101506e+00
  1.6749047e-01
 -3.7017386e-02
  1.6812057e+00
  1.3213984e+00
 -3.7887290e-02
  1.6022463e-01
 -8.5798189e-02
  7.3878628e-01
  8.7884516e-01
  4.2606822e-01
 -1.3569995e+00
  1.2363902e+00
 -1.2323941e+00
 -5.5454910e-01
  4.0934640e-01
  7.2532004e-01
 -2.6471174e-01
 -4.5997961e-03
 -3.3790082e-02
  5.1176620e-01
 -1.0522707e-01
  9.4700366e-02
 -1.9596310e+00
  7.2485172e-06
  1.6341858e-01
  7.6368910e-01
  3.4970391e-04
  1.6977041e+00
 -7.0306623e-01
 -5.4711587e-04
  5.7240497e-02
  3.3512473e-01
 -9.2387885e-02
  1.0439119e+00
  1.7851948e+00
  1.6714549e+00
  1.1373326e+00
 -4.6364617e-01
  1.1278103e-01
  5.6665069e-01
 -1.3978604e+00
  1.5531968e-01
  1.1510836e-03
 -1.1725777e+00
 -3.4446564e-01
  2.9279268e-01
 -1.2028679e+00
 -1.7680442e+00
  1.3651657e+00
 -2.1613735e-01
 -2.6056650e+00
  8.8280462e-02
 -1.7145438e-01
  1.9416057e+00
  8.3705109e-01
 -7.8012138e-03
 -1.5541923e+00
  4.0256596e-01
 -2.6452032e-01
  2.4727231e-03
 -1.1825256e-01
 -1.2530428e+00
 -1.1133218e+00
  7.4929231e-01
  1.7296852e+00
  7.1079159e-01
 -9.4575578e-01
 -7.0484474e-02
  4.7443780e-01
 -4.0931648e-01
  9.7969122e-02
 -2.0428693e-01
  4.6936494e-01
 -7.2447650e-02
  3.0798519e-01
  1.4337131e+00
  2.7641195e-01
  5.1223719e-01
  4.2919291e-04
 -4.6790594e-01
 -7.6040816e-01
  1.0423450e+00
 -8.7838686e-01
  6.6812140e-01
 -4.8170936e-01
 -3.5681492e-01
  9.5665830e-01
  3.7575081e-01
 -4.2558256e-01
  8.4148124e-02
 -2.9457012e-01
 -1.1114843e+00
 -1.2482173e+00
 -3.0796844e-01
 -6.3262296e-01
 -4.8361957e-01
  3.6375225e-04
 -8.5929930e-02
  1.0996348e-03
 -4.4792064e-02
  7.5198549e-01
 -1.2117069e-02
 -6.0408213e-04
 -3.8211384e-01
 -3.2963425e-01
 -7.0871609e-01
  7.4652904e-01
 -6.2506229e-01
  1.3378444e+00
 -5.9627676e-01
  2.8540248e-02
 -1.5733916e-01
 -4.1895473e-01
 -1.1065865e-01
 -4.0213934e-01
 -9.5261812e-02
  6.4876628e-01
 -2.1421254e-01
 -1.5085912e+00
  1.1939936e+00
 -2.0468105e-03
  3.9562300e-01
 -5.9994721e-01
 -8.7469912e-01
  6.5381956e-01
 -1.3210835e-01
  4.9129727e-01
  2.2376595e-01
 -6.3907212e-01
 -1.2491952e+00
  1.1907583e+00
  1.6183393e-03
 -6.3226931e-04
 -4.4998313e-05
 -4.0745223e-03
  1.2000334e+00
 -3.4180462e-02
  1.7066766e-01
 -2.7183606e-03
 -8.7983557e-04
  4.2408926e-04
  5.0726969e-04
  4.0690236e-05
 -4.6426139e-05
  4.1524312e-04
  1.2752954e-03
  1.4778983e-03
 -2.7399398e-03
  2.9637601e-04
 -2.2971635e+00
 -1.5408741e-04
  8.1865955e-04
  1.2889525e-03
 -3.8051655e-04
  5.6174735e-04
  1.3565827e-03
  5.0665322e-04
  1.6123273e-04
  7.5920421e-04
  6.4938955e-05
  9.9684740e-04
 -3.8140742e-04
 -2.2566658e-03
  3.4244562e-04
  1.8414182e-03
 -5.2041221e-05
 -1.3222888e-03
  2.0829568e-04
 -8.2421750e-05
 -1.9708741e-04
 -1.5235730e-03
  6.8212845e-05
 -1.0825352e-04
  4.0351419e-04
 -2.5450983e-04
  5.8095895e-05
 -2.8927671e-04
 -1.8268453e-04
 -3.1601355e-04
  1.2328536e-03
  5.0657213e-04
  1.1590835e-04
 -1.4865946e-04
 -1.3282091e-03
  1.2763366e-04
 -9.7590673e-04
 -1.9690773e-04
 -1.0246988e-03
 -8.3952968e-04
 -2.8073746e-03
 -9.4160547e-05
 -2.5797519e-04
  8.2573009e-04
  1.7216109e-04
  3.0933279e-05
  2.6466252e-02
 -2.3228448e-04
 -1.4615337e-03
 -1.1636822e-04
 -2.1593301e-01
 -2.0967193e-01
  4.8379431e-04
 -7.0386045e-02
 -1.7211304e-04
  2.0296150e-03
 -2.9970906e-04
 -2.8031791e-04
 -9.7398477e-04
 -2.1618109e-03
  1.3455530e-04
 -4.9833798e-05
  6.6436492e-05
 -3.1376487e-04
  9.1391330e-04
 -2.8210849e-04
  2.1692795e-04
  6.8337593e-04
  4.8758691e-05
 -1.0553418e-04
  3.2526851e-04
 -1.8075034e-04
 -8.6587243e-04
  5.4410953e-05
  3.2654824e-04
  6.3827710e-04
  2.1816164e-05
 -3.6323312e-04
 -7.3295807e-05
  5.9485500e-04
 -1.6997062e-04
  5.7897068e-05
 -1.4656750e-04
  1.3424311e-04
  4.6335528e-05
 -3.4505042e-04
 -3.6716883e-04
  1.4434336e-01
  5.2692730e-04
  2.9856910e-04
 -1.8310295e-04
  4.6288341e-04
  9.5430895e-04
 -1.8007733e-04
  3.5373692e-04
 -4.4087524e-04
 -5.7606871e-04
  4.7004060e-04
  4.3158481e-04
 -8.5009083e-02
 -9.2882201e-02
 -1.4161623e-01
  3.5178117e-02
  1.5662973e-01
 -1.6942987e-02
  1.4092204e-01
  5.6490977e-03
 -2.2356739e-02
  4.2111726e-04
 -6.5447198e-06
  5.3517148e-02
  2.1770654e-02
  7.5070612e-04
 -4.0267047e-02
  8.8391803e-02
 -1.1568842e-03
  2.9402569e-02
 -5.2047649e-04
  2.3179632e-01
  1.0004793e-03
  1.0116923e-02
  5.7620339e-02
  4.2087261e-02
  1.0487408e-02
 -5.4561679e-04
  1.1915616e-02
  4.0910341e-02
  2.7624375e-01
  7.1459520e-03
 -3.0724276e-02
 -2.6388867e-02
  7.3537551e-02
 -2.4595512e-03
  2.6764820e-04
  1.0432312e-02
 -4.3315151e-05
  2.2731093e-03
 -1.0239214e-03
 -8.0115743e-02
 -1.3954286e-01
 -7.9844825e-02
 -9.7526790e-05
  4.6963589e-03
  9.3368506e-03
 -1.2419111e-03
  1.1900953e-04
  2.3089552e-03
  7.7469003e-01
 -1.5716281e-04
  1.2919332e-02
 -3.0882526e-02
 -2.7318782e-04
  6.5176062e-02
  7.2822690e-01
  5.6483549e-01
  6.7101759e-01
 -1.7658176e-02
 -2.5135189e-02
 -5.4890615e-01
 -9.6694249e-01
  6.9869995e-02
  5.9527612e-01
  4.1951778e-04
  7.3614633e-03
 -9.2413189e-04
  6.6357327e-01
  1.0752844e+00
  7.9225755e-01
 -3.5379391e+00
  1.0934209e-03
 -2.1512234e+00
  1.5704559e-01
  6.5470152e-02
  7.2127348e-01
 -1.2704757e+00
 -1.7953688e-01
  6.3890225e-01
 -1.9478419e-01
 -5.9552777e-01
  2.3118185e-01
  1.0233784e-01
 -1.5987703e-01
 -1.4618570e-01
 -1.4894120e-02
  1.3218983e+00
  1.8910815e-01
 -5.5709881e-01
 -4.4424623e-01
  4.6232483e-01
  1.9614751e-04
  6.6323835e-01
  4.8415974e-01
  1.2238098e+00
  8.6333752e-01
 -1.2933959e+00
 -1.4813961e+00
  5.4577780e-01
 -2.0007277e+00
  4.9176523e-03
  4.1063911e-05
 -2.1385930e-01
 -2.9861832e-01
 -1.4555018e+00
  3.0614275e-01
 -8.6679226e-01
 -1.1980119e-03
 -1.2337181e-01
 -1.0630932e+00
 -5.0750607e-01
 -3.1893840e-01
 -2.9262690e-02
  9.2198901e-02
 -2.0531006e-02
  1.4241486e+00
  1.7426298e-04
 -1.0135920e-01
  1.0749449e+00
 -1.0603476e-01
 -1.6670668e-03
 -3.6295171e+00
 -1.3413043e-01
  1.9940922e-01
 -3.9760326e-03
  1.7805514e+00
  3.2600623e-02
 -2.2388170e-03
 -6.3311768e-01
 -8.5120952e-01
  9.3114923e-04
  2.4281882e-02
 -7.0928805e-02
  2.0973442e-02
 -2.3249745e-01
  3.2681140e-01
  1.6851175e-01
  4.5332104e-01
  2.3592112e+00
 -4.8627079e-01
 -1.6915804e-01
 -7.5432375e-02
  3.8856187e-01
  5.4442614e-02
 -4.7730833e-01
 -2.7069938e-04
 -1.8887899e+00
 -3.6263142e+00
  3.0840386e-04
 -1.8977753e+00
 -1.3850464e-01
  3.3668399e-01
  6.9358163e-02
  2.0511243e-01
 -7.2608030e-01
  7.3041199e-05
  4.4445165e-05
 -8.6906767e-03
 -1.2743621e-01
 -9.3895990e-01
  2.9619248e+00
  8.9494690e-02
  2.2296928e-01
  6.0414511e-01
 -1.8458568e-01
  2.3060079e-01
  1.4516445e-03
  7.0627049e-02
  1.5184577e-01
 -2.8747503e-02
  5.1637520e-03
 -7.5667632e-01
 -5.7408834e-01
  5.0947261e-01
  8.6181171e-02
  2.8326356e+00
 -2.3918940e-01
 -2.4813093e-02
  1.1527457e-01
  1.9986224e-01
 -1.5838144e-03
  1.4821941e-02
  8.0167361e-02
  4.2900503e-02
  8.1416661e-01
  4.1013084e-02
  1.5589127e-01
  2.0245402e-01
 -8.6206965e-02
  8.8387594e-02
  9.8249041e-02
 -3.6322064e+00
 -5.1912669e-02
  2.4256068e-01
 -1.3840598e-01
 -6.1078947e-03
 -6.2977210e-02
 -2.4004257e+00
 -1.9978030e-02
 -8.8611394e-02
  1.4973350e-01
  4.3594432e-03
  1.0192225e+00
 -1.3473973e-01
 -5.6017432e-02
 -4.3498101e-03
  7.0463084e-03
  1.2604278e-01
 -1.0718703e-01
  3.2100239e-01
 -5.5480814e-01
 -8.6551982e-01
  1.6911227e+00
  2.2532070e+00
 -7.4338698e-01
 -7.7986771e-01
  4.9551851e-01
 -7.6973367e-01
 -1.2755805e+00
 -4.0093327e-01
  3.4178469e+00
  3.6896296e+00
  1.8943558e+00
 -3.9248536e+00
  5.7779188e+00
 -3.5575226e-01
  1.2122868e+00
  1.5849078e+00
  3.5391459e+00
  1.1905060e+00
  5.8804429e-01
  4.3677244e-01
 -3.0166769e+00
  2.4952178e+00
  5.1282811e-01
  5.0886828e-01
  3.2639062e+00
  6.6809154e-01
 -1.1843748e+00
 -4.7345620e-01
 -3.5406607e-01
 -2.3845632e+00
 -9.7868353e-01
 -1.2473551e+00
  2.2867000e+00
  6.9044000e-01
  2.0743203e+00
 -2.1892421e+00
  2.1981881e+00
  2.4163754e+00
 -4.1602603e-01
 -1.5194476e+00
 -3.1472089e+00
 -2.6529884e-01
  2.0340459e+00
  1.7837142e+00
 -5.6599884e+00
 -1.3096209e+00
  9.4883388e-01
 -1.4149090e+00
  1.2101033e+00
  1.7453346e-01
 -2.9329250e+00
  9.7325450e-01
 -1.8072035e+00
  4.4120952e-01
 -1.0923814e+00
 -6.6593105e-01
  7.3587245e-01
  6.9611287e-01
 -2.0813532e+00
  3.6996594e-01
  1.1648731e+00
 -3.1374426e+00
 -1.1762138e-01
  2.0103762e+00
 -2.1795577e-01
 -7.3329103e-01
 -3.3776200e-01
  1.6406963e+00
  1.8111466e-01
 -5.8187008e-01
 -3.3427651e+00
  4.6729546e+00
  8.3781916e-01
 -6.4024752e-01
  1.8770964e-01
  1.3118807e+00
 -5.2597508e+00
 -1.4040170e+00
 -3.8671484e+00
  1.4817579e+00
 -1.2313792e+00
  1.2047669e-01
 -1.1615218e+00
  1.0172974e+00
  3.5562155e+00
  1.2452382e+00
  2.2976654e+00
  3.5372388e-01
 -8.9383185e-02
 -8.0845046e-01
  5.0407028e+00
  2.5611924e-02
  1.6047760e+00
 -1.7030773e-01
  3.1431456e+00
  1.5514687e+00
  1.7643418e+00
  1.7524320e-01
  1.2051252e+00
 -2.6640851e+00
 -2.6988497e+00
  5.4928184e-01
 -5.3012818e-01
  1.1114477e+00
 -2.3867385e+00
  2.2414188e+00
  8.4356523e-01
 -1.8513814e+00
  5.2323622e-01
 -2.7659850e+00
  9.8643714e-01
  7.2896533e+00
  4.0284176e+00
  2.9095671e+00
  5.8135730e-01
 -3.7664227e+00
  1.5553577e+00
 -1.0324401e-01
 -3.4107503e-02
  9.6009296e-01
  2.1978313e-01
  2.0773196e+00
  3.5243297e+00
 -2.0827627e+00
  9.6127528e-01
  1.1498704e+00
  5.0958681e+00
  3.1350896e-01
  5.7507074e-01
  7.1247119e-01
 -4.9212128e-02
  3.6329088e+00
 -2.0942078e+00
  5.0732789e+00
  3.9146018e-01
 -2.2033985e-01
 -8.9134589e-02
 -4.4961587e-01
  2.0507283e+00
  1.6041423e+00
 -1.1067233e+00
  3.2546365e+00
  2.2029082e-01
 -2.9174513e-01
  2.2166112e-01
 -1.5945972e+00
  6.2704241e-01
 -1.1987400e+00
 -1.8262365e+00
  2.3903055e+00
 -1.2109360e+00
 -7.0724010e-01
  1.0545311e+00
  4.9703774e-01
 -3.5755002e+00
  4.1600803e-01
 -3.3386642e-01
 -2.6595414e+00
 -2.1570522e-01
 -1.9589340e-04
  1.8279101e+00
  2.7788771e-02
  2.5441113e+00
 -3.4721835e+00
 -8.2392341e-01
 -1.8041544e+00
 -4.2949457e+00
 -5.3733373e-01
 -2.4907506e+00
  5.4396755e-01
  7.5004231e-05
  1.5981202e+00
  2.1987636e+00
 -1.1142722e-01
 -1.6149194e+00
  3.2865632e+00
  1.3115801e-01
  1.1774142e+00
 -1.0320370e+00
  3.5397341e+00
 -5.5056210e+00
 -1.3064871e+00
 -4.3062730e+00
 -5.9821620e+00
 -4.9426782e-01
 -1.5401902e+00
  1.8144391e+00
 -1.6231139e+00
  9.5176536e-01
 -5.2844244e-01
  2.3713377e+00
 -8.8204540e-02
 -4.5812130e+00
 -1.2357578e-01
 -3.2519712e+00
 -3.0743876e+00
  1.2732558e+00
  3.7843211e+00
  1.6448762e-01
  1.2797876e-02
 -3.2901764e-01
  3.0835106e+00
 -1.6704583e+00
  1.0785067e+00
 -9.4774151e-01
  1.2898517e+00
  4.8696847e+00
  1.2557490e+00
  1.8834078e+00
  1.0182203e+00
 -4.0343415e-02
 -7.6955705e+00
 -1.4882749e+00
  2.7091444e-01
  3.3558314e+00
  2.2456682e+00
 -2.3915191e-01
 -2.4759040e+00
  9.3879910e+00
  3.1851621e+00
  3.1753216e+00
 -4.5122209e+00
  3.9961466e-01
 -7.6004142e-01
  3.1087628e-01
 -6.5147412e-01
 -6.1176354e-01
  3.5495203e+00
  9.2610836e-01
 -1.1582577e-02
  2.3291721e+00
  9.7561032e-02
  5.0753574e+00
  1.4722593e+00
  2.1248407e+00
 -1.1379999e+00
 -8.4020561e-01
 -1.0953525e+00
 -2.1288759e-01
 -5.3772521e+00
  1.4678366e+00
 -8.2543510e-01
 -9.8638970e-01
  3.0355225e+00
  9.7623356e-02
  7.9089361e-01
 -1.2834146e+00
 -1.5031154e+00
 -1.4061069e+00
  1.6300104e+00
  3.2085948e+00
  9.5866501e-01
  2.3184857e+00
  1.1658405e+00
  1.4635786e-01
  1.4462274e+00
  1.7588642e+00
 -6.4448637e-01
  1.2602262e+00
 -1.0051074e+00
  5.2350704e-02
 -1.7392470e+00
  1.0692477e+00
 -2.3526181e-01
 -7.4177625e-04
  2.7281368e-01
  4.0703163e-01
  2.6459315e-01
 -3.2397863e-01
  9.2025882e-01
 -6.0188562e-01
 -2.6016986e+00
  1.2194498e+00
 -1.2841359e+00
